0.185677736997604
0.00278362818062305
0.0103382673114538
-0.0258474666625261
-0.0167925804853439
-0.0693196430802345
-0.932693183422089
0.0462326109409332
0.0864469334483147
-0.0263645779341459
0.0475320927798748
-0.000133408131659962
-5.54620019102003e-05
0.114478707313538
0.0281722042709589
-4.15306094510015e-05
0.0113988723605871
0.0628804638981819
-1.06168181446265e-05
-0.136048644781113
0.0163159221410751
0.0695988535881043
-4.08243649872020e-05
-0.0158151295036078
0.0301847383379936
-1.71054980455665e-05
-0.00281404308043420
-0.193038523197174
-0.00846433173865080
-0.0213020201772451
-0.107223026454449
0.0471481531858444
0.0383789725601673
0.0979343205690384
0.0486572794616222
-0.0147196967154741
-0.0427094809710979
0.0109806945547462
-7.84528747317381e-05
0.167939007282257
-0.0335952639579773
0.0861300230026245
0.00861834362149239
-3.78326840291265e-05
-3.33402676915284e-05
-0.0389432311058044
-0.0144877023994923
-3.66818057955243e-05
0.0502785034477711
-0.0156342145055532
0.00256022950634360
0.187956571578980
-8.70693838805892e-05
0.00270158587954938
0.107380375266075
-0.0209345594048500
0.0195147655904293
0.163320571184158
-0.183491304516792
0.00547320535406470
0.0795472487807274
-0.00329100503586233
0.0816453397274017
-0.0543766096234322