0.00785474572330713
-0.00929187424480915
0.0505500249564648
0.0123370820656419
-0.0688887387514114
-0.0546833276748657
-0.0255100354552269
0.0322289988398552
0.0192587617784739
-0.0179463326931000
0.00127414439339191
-0.0406109653413296
0.0629444867372513
0.0372243933379650
-0.00853202957659960
0.0454148352146149
-0.0616632588207722
0.0264659263193607
0.0439716130495071
-0.0589349716901779
-0.0205303169786930
-0.0370413027703762
0.00929130893200636
-0.00292019895277917
-0.0702641531825066
-0.0170785784721375
-0.0407508648931980
-0.00300503987818956
-0.0466426536440849
0.0560024231672287
0.0477339550852776
0.0577856041491032
0.0115121277049184
-0.0918253138661385
0.0302267558872700
0.0159911047667265
0.0611872635781765
0.0104735074564815
-0.0241436045616865
0.0103555964305997
-0.0693719983100891
-0.0132155632600188
0.0430350527167320
0.0443942062556744
0.0243165008723736
-0.0109993983060122
-0.0455387644469738
0.0182855501770973
0.0277804788202047
0.0323896408081055
-0.106722243130207
-0.00636065797880292
-0.135658502578735
0.0361388884484768
-0.0528368763625622
-0.0890066549181938
0.0107054822146893
-0.0444907434284687
-0.0664744675159454
-0.0795091614127159
-0.147505879402161
0.0550162084400654
-0.0877596288919449
-0.0391141399741173
0.145892322063446
-0.114447467029095
0.104737147688866
-0.00104614777956158
-0.0382883287966251
0.146046504378319
-0.0151158291846514
-0.0260822270065546
-0.136279076337814
-0.0201278552412987
-0.0433489494025707
0.0193201489746571
0.0159449838101864
0.00871970318257809
0.00431892415508628
-0.0483260191977024
0.0205591190606356
0.0103790201246738
0.0200099423527718
-0.0242781359702349
-0.0818289890885353
0.0199726242572069
0.0214480180293322
0.0383997187018395
-0.0346236079931259
-0.0899670645594597
0.0245445910841227
0.0323366671800613
0.0371734984219074
-0.00766634009778500
-0.0634490698575974
0.0360460579395294
0.0303791873157024
0.0172044895589352
0.0243212040513754
-0.0407569408416748
0.132763907313347
0.154515355825424
0.122000910341740
0.103816911578178
-0.0175076909363270
0.158575713634491
0.00830411259084940
0.00446749292314053
0.0439777001738548
0.0859702751040459
0.0248976293951273
-0.0329374074935913
-0.0101491147652268
0.0518953613936901
0.133347719907761
0.109623290598392
0.0166280418634415
0.0699115172028542
0.0507445409893990
0.179223328828812
0.0147647168487310
0.0502607040107250
0.0966063365340233
0.111545816063881
0.160497888922691
-0.0171030871570110
-0.0665220767259598
-0.0670904740691185
-0.120427176356316
0.0646394640207291
0.0894503965973854
0.0946787074208260
-0.0205127988010645
-0.170156225562096
-0.0767279043793678
0.0300158001482487
0.0643479004502296
0.0516280345618725
0.0643267035484314
-0.116150662302971
-0.0223310217261314
-0.111758582293987
0.0646323859691620
0.200313925743103
-0.0530373379588127
0.118029139935970
-0.134183183312416
-0.0504850856959820
0.0667715966701508
-0.121561847627163
0.270650297403336
0.0745663493871689
-0.387636542320251
-0.308795511722565
-0.489332377910614
-0.0766318663954735
0.0529846139252186
-0.211202755570412
-0.437742948532105
-0.195631727576256
0.0906178578734398
0.144536450505257
0.158982992172241
0.0823767706751823
0.0910985842347145
0.124476663768291
0.103608570992947
0.0949753299355507
0.156168922781944
0.119634509086609
-0.00904803164303303
-0.00143381941597909
-0.140671730041504
-0.116389617323875
-0.0345930345356464
-0.0787685886025429
-0.00120439520105720
0.000784410687629134
-0.0573421046137810
0.0678612589836121
-0.0395770631730557
0.0657101720571518
0.00412193639203906
-0.103087365627289
-0.00392339937388897
-0.0515557527542114
0.0478776060044766
0.0380385816097260
0.0204521398991346
-0.0167729258537292
-0.0514793731272221
-0.0281919427216053
0.0710388347506523
0.110555700957775
1.80205552169355e-05
0.0443220958113670
-0.0322142727673054
0.0235453452914953
0.0367662459611893
-0.0358527638018131
0.0802832320332527
-0.128424212336540
-0.0952716246247292
-0.0307309497147799
-0.00964580196887255
0.0774464607238770
-0.0280425697565079
-0.109904773533344
-0.0722217559814453
-0.0340383946895599
-0.00752505101263523
0.0182897765189409
-0.00383113557472825
-0.0733342468738556
-0.0606170892715454
-0.0334222987294197
-0.00788101647049189
0.0787032768130302
0.0234333723783493
-0.0427521839737892
0.0208072979003191
-0.0198777578771114
0.0413447879254818
0.0491684488952160
0.0684066489338875
-0.00129764410667121
-0.0254997760057449
0.0606355369091034
-0.0265959873795509
0.0689356252551079
0.0109180118888617
0.0455245338380337
0.0616868957877159
-0.0913182422518730
-0.0393020324409008
-0.00257548619993031
0.0561793260276318
0.109142713248730
0.0548811182379723
-0.0523612871766090
-0.0513261109590530
-0.0786086618900299
0.113032042980194
0.156314790248871
0.0286980140954256
0.0653637051582336
-0.110193543136120
-0.00873592682182789
0.0178525354713202
-0.0638600960373879
0.00398740684613586
-0.000358332123141736
-0.0157205481082201
-0.0126178599894047
0.000418006966356188
0.0460279509425163
0.0454254075884819
0.0121845752000809
-0.00550479069352150
-0.00428577186539769
-0.00875968765467405
-0.00887353159487248
-0.0357463173568249
-0.0322480238974094
-0.0192333161830902
-0.0227526593953371
-0.00897582340985537
-0.0194147750735283
-0.0295248664915562
-0.0240875389426947
-0.000847561052069068
0.00195531127974391
0.00602597417309880
-0.00207150145433843
-0.00463212328031659
-0.000240051798755303
-0.000963913626037538
0.000585569243412465
-0.000283279019640759
-0.000933609146159142
-0.000834942969959229
-1.76207340700785e-05
-0.00161998148541898
0.00139251106884331
0.000485206546727568
-0.000155891975737177
0.000426680489908904
0.000146413382026367
0.000992765650153160
0.00223350245505571
-0.00139700726140291
-0.000644800602458417
0.000660561316180974
0.000777335604652762
-0.000172875414136797
0.000253760372288525
-0.00128811318427324
-0.00140076898969710
0.000449157058028504
-6.24970853095874e-05
0.00217312132008374
-0.000290957337711006
-0.00124326511286199
-0.000170832689036615
0.00117600488010794
0.00129728205502033
-0.000545373070053756
0.000443112803623080
0.000534046557731926
-0.00110513635445386
-0.00237366231158376
0.000270323769655079
0.00178823550231755
-0.00121249118819833
-0.00161879195366055
0.000557063205633313
-0.00138985423836857
-0.000814776518382132
-0.000557906983885914
-0.000926009379327297
0.000273668149020523
-0.000170955550856888
0.000840100052300841
0.00144615408498794
0.000743533950299025
-0.0379764735698700
0.0303855240345001
0.0120350774377584
0.0108946515247226
0.0498563498258591
-0.0369905717670918
0.0174918249249458
0.00222215056419373
-0.0117664523422718
-0.00896276533603668
-0.0298398435115814
0.0141836060211062
0.0118744689971209
0.0107902726158500
-0.0217318236827850
-0.0257568899542093
0.0137829482555389
0.0282482542097569
0.0219918750226498
-0.0142267188057303
-0.0164274591952562
0.00106091878842562
0.0259173568338156
0.0110530974343419
-0.00439492799341679
-0.00134960818104446
0.0467992275953293
0.0350586399435997
0.0318284407258034
0.0423218607902527
-0.00991793442517519
0.00818001478910446
0.0123074753209949
0.0155051201581955
-0.00856588967144489
-0.00254870648495853
0.00371859595179558
-0.00116544379852712
0.0148490462452173
-0.0247084945440292
-0.00161179224960506
0.0160310920327902
0.0130755780264735
0.0144163556396961
-0.0199259072542191
0.00426193000748754
0.00996197666972876
0.0209272950887680
0.0110399229452014
-0.0217630881816149
0.000278651656117290
-0.00180451397318393
0.00175315176602453
9.36736068979371e-06
0.000331458024447784
-0.000271091674221680
-0.000222339789615944
-0.00116653274744749
-0.000752690189983696
-0.000835316895972937
0.00165469106286764
0.00178544654045254
-0.000924458203371614
0.00112243334297091
0.00173459923826158
0.000612523290328682
-0.000981985474936664
0.000714796187821776
-0.00105588510632515
-0.000782317889388651
0.000547703937627375
-0.000530555786099285
-0.000745606841519475
0.000428472820203751
0.00127320457249880
-7.43664131732658e-05
0.0188436862081289
-0.0355085209012032
-0.00611067097634077
0.0638789907097817
-0.0140830399468541
0.0350132882595062
0.00251364475116134
-0.00822792481631041
0.000511939288116992
-0.0293818693608046
0.0421303547918797
0.0404920205473900
0.0321452356874943
0.0134124662727118
-0.0140797253698111
0.0242171529680491
0.0615060068666935
0.0496702529489994
0.0185113754123449
0.0293559208512306
0.0222260449081659
0.0484305322170258
0.0151290828362107
-0.0416941232979298
-0.157854020595551
0.0134515194222331
-0.0737010240554810
-0.0280649419873953
0.0268849525600672
-0.103234268724918
-0.0212351027876139
-0.111451499164104
-0.0861796736717224
0.0669093802571297
0.0266143754124641
0.0887888148427010
0.0150638949126005
-0.0401109158992767
-0.0627731382846832
-0.00320353871211410
0.0299798585474491
0.134369656443596
0.0104623520746827
-0.0789396390318871
-0.149288073182106
-0.107017569243908
0.0269123017787933
0.0398479029536247
-0.0943231508135796
-0.00179521914105862
-0.000357518729288131
-0.000779754540417343
0.00127501226961613
0.000120555901958141
0.00113044271711260
0.000722744211088866
0.00262450822629035
0.000536793086212128
-0.000281459855614230
0.000811697100289166
-0.000147351689520292
0.000247461633989587
0.000137001290568151
-5.54825874132803e-06
-0.000175423017935827
-0.00170421507209539
0.000329997419612482
-0.00150117685552686
-0.000263347872532904
0.000351715541910380
-0.000198457142687403
0.000594494806136936
-0.00100480567198247
-0.000843016372527927
0.0221796706318855
0.00242425291799009
0.00487425876781344
-0.0253665763884783
0.0290757641196251
0.0440681762993336
0.0461691617965698
0.0127235287800431
-0.102563269436359
-0.0248390771448612
0.0422120802104473
0.0515967160463333
0.0496321618556976
-0.0752314627170563
-0.0547044165432453
0.0397782251238823
0.0158011671155691
0.0382250025868416
-0.00906652025878429
-0.0190691389143467
0.0554224625229836
0.00951423868536949
0.0136499051004648
0.0132736694067717
0.00105212791822851
-0.0501915179193020
-0.0508978553116322
-0.0550234094262123
-0.0370549671351910
-0.00669968686997891
0.0604949928820133
0.0386927425861359
0.0236246734857559
0.00117615971248597
-0.000302719330647960
0.0331742018461227
0.000930751150008291
-0.0143472654744983
-0.0170914940536022
0.0109993601217866
0.00955545343458653
0.00807750411331654
-0.0264042988419533
-0.0207438673824072
0.0255986973643303
-0.0395854339003563
-0.0421933569014072
-0.0537709221243858
-0.0406575277447701
0.00736908428370953
-0.139550074934959
-0.0870262533426285
-0.0447087474167347
-0.124867089092731
-0.0424206592142582
0.00594198517501354
0.0781326368451119
0.114556625485420
-0.0319960154592991
0.0895297899842262
0.0309381876140833
0.00877567380666733
0.0600624531507492
-0.0106207206845284
-0.00431320769712329
-0.0418299436569214
-0.0919755697250366
-0.0793379172682762
-0.0166600886732340
-0.0758805647492409
0.0419758483767509
0.0723600164055824
0.00793968886137009
0.00692023104056716
-0.00542215676978231
0.000539501837920398
-0.000309704308165237
0.000353284878656268
0.000132356697577052
0.00156254286412150
0.00105883646756411
0.00167035602498800
-1.43383176691714e-05
-1.85783483175328e-05
0.00112292426638305
3.49611764249858e-05
0.000957124575506896
2.74773374258075e-05
0.00211451947689056
-4.93587212986313e-05
0.000957542506512255
0.000108402222394943
-0.00199797656387091
-0.000817857508081943
-0.000180479837581515
0.000160683150170371
0.000795565720181912
-0.00198653759434819
-0.000145939222420566
0.000237078813370317
0.00683334469795227
0.00279153021983802
0.00211903522722423
0.00705390702933073
0.00960725452750921
0.0116671798750758
0.00498184561729431
0.00445851264521480
0.00637779990211129
0.00476948218420148
0.0166391171514988
0.00880187470465899
0.00283595314249396
0.00591466203331947
0.00274308933876455
0.0174884833395481
0.0110277058556676
0.00527007831260562
0.00512322876602411
0.000104142840427812
0.0208331160247326
0.0129846855998039
0.00990203209221363
0.00822171475738287
0.00253834389150143
0.0667477920651436
0.0400569029152393
-0.0161950197070837
0.0116755096241832
0.0303415823727846
-0.0451400242745876
0.0178590733557940
-0.0104110836982727
-0.0285771451890469
0.0352167896926403
-0.0233602896332741
-0.00797794666141272
0.0121651366353035
0.00614213477820158
0.0158520974218845
0.0290420483797789
-0.00712475692853332
-0.0235530510544777
0.00729862181469798
-0.0129954712465405
0.00974738504737616
0.0683683827519417
0.0696218162775040
0.0242037530988455
-0.0168332792818546
-0.000218532077269629
0.000720080104656518
-0.000112479348899797
0.00156996725127101
-0.000219273410039023
-0.000746899633668363
-0.000234342092880979
-0.00103373115416616
0.000155511152115650
0.00211166101507843
-0.000524627859704197
0.000168978047440760
-0.000410075503168628
0.00263184681534767
-0.000581090571358800
-8.12915604910813e-05
0.00249560875818133
-0.000453829678008333
0.000374595605535433
-0.000693069887347519
-0.00181714002974331
0.00168589700479060
0.00125047366600484
0.00120958569459617
0.00221814960241318
-0.0247778650373220
-0.0410373620688915
0.000536349311005324
-0.0275091417133808
0.0425268039107323
0.00430097477510572
0.0381312854588032
0.000979718985036016
-0.0581873096525669
0.0146597502753139
-0.0260848104953766
0.0244933906942606
0.0493106842041016
0.0363957993686199
-0.0131857981905341
-0.0330208428204060
-0.0663829222321510
0.0660163387656212
0.106358371675015
0.00149467913433909
0.0674617961049080
-0.0529864951968193
0.0170173048973084
0.0411513485014439
-0.0298778209835291
0.0338700376451016
0.0364953316748142
0.101581491529942
0.0351897701621056
-0.0663935914635658
-0.0707870647311211
-0.0895632132887840
-0.0433197654783726
0.100913904607296
0.116938695311546
-0.0287879370152950
-0.0449459888041019
-0.157552257180214
-0.0187232028692961
0.138774126768112
-0.0500291064381599
-0.0558166205883026
-0.0429432578384876
-0.0503266789019108
0.0194852016866207
0.00225090328603983
-0.142542704939842
-0.0421631224453449
0.0116732884198427
0.0670774504542351
-0.173234909772873
-0.00113940355367959
-0.144192084670067
-0.0619501322507858
-0.131330877542496
0.151903972029686
-0.0709497556090355
0.140755489468575
0.0920640826225281
-0.161859601736069
0.144515305757523
0.155942589044571
-0.196977615356445
0.0421353429555893
-0.103433936834335
-0.116848394274712
0.0649813935160637
0.0352519415318966
0.138032183051109
-0.0710752382874489
-0.200842678546906
-0.269159853458405
-0.244158059358597
-0.0642369538545609
0.153856381773949
-0.0444685146212578
-0.0104278791695833
-0.0432652123272419
-0.0618332363665104
0.0399104915559292
-0.0267906151711941
0.0263940356671810
0.000963144411798567
-0.0444189943373203
0.00263893092051148
-0.0307851321995258
0.0329559892416000
0.0701774880290031
0.0367460139095783
-0.0280245840549469
-0.0340528227388859
0.00217868667095900
0.0862251073122025
0.0653564706444740
-0.00978619977831841
0.00287253432907164
-0.0335251130163670
0.0274351090192795
0.00794535037130117
-0.0276398379355669
0.00717031443491578
-0.0671785175800324
0.0267998706549406
0.0970956757664681
0.0628101304173470
-0.00526826176792383
-0.101724550127983
-0.116045325994492
-0.325862437486649
0.127253964543343
0.116633936762810
-0.151675119996071
0.0102877737954259
-0.190980389714241
-0.0884131640195847
0.162497594952583
-0.199230670928955
-0.278543889522553
-0.0422743968665600
0.0725563615560532
0.171753391623497
0.136643812060356
0.0590404197573662
-0.0405949428677559
-0.0489695779979229
0.254072993993759
-0.0802929103374481
-0.164612621068954
0.100565530359745
-0.0943669155240059
0.133049443364143
0.0951895862817764
-0.0701352357864380
0.00860055536031723
0.0157850328832865
-0.0208581667393446
-0.0625292435288429
-0.0794314220547676
-0.0555099397897720
-0.0327173769474030
-0.0343242064118385
0.0686217099428177
-0.0449558496475220
-0.0455714948475361
-0.00487797195091844
-0.169059604406357
0.144660398364067
-0.00489664589986205
-0.0131763098761439
0.0340585708618164
0.0140361124649644
0.138063460588455
0.217490345239639
-0.164901942014694
0.0745315924286842
-0.0892748758196831
-0.138494014739990
-0.110331103205681
-0.0745654255151749
0.170917749404907
-0.0351103916764259
0.100581035017967
-0.165332958102226
-0.0982375741004944
-0.0245065093040466
-0.0522873587906361
0.326743990182877
0.192415297031403
0.123533152043819
0.0867879614233971
-0.169653803110123
0.00452889641746879
0.00179986562579870
-0.0215919204056263
0.00381407141685486
-0.0966428369283676
-0.0300539322197437
-0.0908553078770638
-0.0736281722784042
-0.0871336907148361
-0.0866010710597038
0.00737930415198207
-0.0355786345899105
-0.0770433396100998
-0.0619542300701141
0.0100185861811042
0.0466601513326168
0.0743828937411308
-0.0144424643367529
-0.0349792987108231
-0.0389075577259064
-0.0327828191220760
0.0205729231238365
0.0454483292996883
0.0230495911091566
-0.0510500781238079
-0.0286312978714705
-0.0192574989050627
-0.0553433671593666
-0.0381662547588348
0.0107760373502970
2.95375375571894e-05
-0.116351544857025
-0.203370466828346
0.0562349371612072
0.117296732962132
0.0552898980677128
-0.00661699846386910
-0.149578928947449
0.0627338215708733
0.152245432138443
0.0997480154037476
0.264789700508118
0.225424394011498
0.0207657031714916
0.101055100560188
0.0688842162489891
-0.0120818158611655
0.234331488609314
0.129576131701469
-0.000845083384774625
0.0379833467304707
-0.247104138135910
-0.151280164718628
-0.0447532683610916
0.0711775347590447
0.0221586544066668
0.0774833783507347
-0.0245140902698040
0.0206230487674475
-0.0246483832597733
0.0280381757766008
0.166554406285286
-0.0244330260902643
0.00737095391377807
0.0219943746924400
0.00973252672702074
0.0870566144585609
0.0404468588531017
0.0222474392503500
-0.0600023120641708
-0.0713171809911728
-0.0377652607858181
-0.160273835062981
-0.0202210620045662
-0.0525534637272358
-0.0774467810988426
0.0184131748974323
-0.0770046412944794
-0.0491634793579578
0.0211703460663557
0.106287717819214
0.0221752431243658
0.0978450700640678
0.0361868850886822
-0.0277911256998777
0.00213187444023788
-0.0460230894386768
-0.0496906228363514
-0.0833501517772675
0.0430091135203838
-0.0405992493033409
-0.179745167493820
0.223703563213348
-0.0283635184168816
0.0966662466526032
0.101058281958103
-0.183559343218803
0.0185004193335772
0.0118774408474565
0.00191365752834827
0.0797783210873604
-0.0476598255336285
0.0291521493345499
-0.00769347045570612
-0.0222669225186110
-0.0218465924263001
-0.0339033938944340
-0.0229262653738260
-0.0396498218178749
-8.59201463754289e-05
-0.00557551626116037
-0.0314896330237389
-0.0274956859648228
-0.0278699286282063
-0.00491510098800063
-0.00661631720140576
-0.0226288177073002
-0.0237133875489235
-0.0144815407693386
0.00363341276533902
-0.00754438247531652
-0.0213409196585417
-0.0288246516138315
-0.0155234513804317
0.0676547288894653
0.0438442453742027
0.0140127427875996
0.00777839962393045
0.00109078409150243
-0.00139831320848316
-5.43229180038907e-05
-0.00136992160696536
0.000433983659604564
0.000482322735479102
-0.000250302924541757
-0.000750065839383751
-0.00106135092210025
0.000133108362206258
-0.000339916296070442
-0.00190042506437749
-0.00166678929235786
-0.000484246731502935
0.000555157312192023
0.000608089787419885
-0.000670298933982849
-0.000341057399054989
0.00125231069978327
-0.00110728340223432
-0.000949678826145828
0.000841246452182531
0.000809864606708288
-0.000132612782181241
-0.00108458346221596
0.000693440902978182
-0.0655725374817848
0.000705517886672169
-0.0221474952995777
0.00422813883051276
-0.00620392942801118
0.00893992558121681
0.0446380972862244
-0.00142990180756897
0.0323037914931774
-0.0182340256869793
-0.0176509711891413
0.0366501286625862
0.0104824928566813
0.0593674406409264
0.0198813136667013
-0.0366409942507744
0.00774057302623987
0.00207414431497455
0.0507607460021973
0.00608575018122792
-0.0395036153495312
-0.0353274866938591
-0.0380679219961166
-0.0123203527182341
-0.0627523511648178
-0.0405981652438641
0.00349838309921324
0.0131279053166509
-0.0354708284139633
0.0730244144797325
-0.0323106572031975
0.0761553421616554
0.0163843054324389
-0.0961619839072228
0.0379808433353901
-0.0413728058338165
0.0737581998109818
0.0711942464113236
-0.00564050395041704
0.0200987327843905
-0.0338151492178440
-0.00670403940603137
0.0352803766727448
0.0540600456297398
0.0197252836078405
0.0199010353535414
-0.00325429975055158
-0.0150560932233930
0.000817416468635202
-0.0127979181706905
-0.100435346364975
0.0212584063410759
0.214111298322678
0.106382183730602
0.0567390024662018
-0.114311233162880
-0.00142122164834291
0.126287043094635
-0.0957873314619064
-0.0563210360705853
-0.169947907328606
-0.0421352721750736
0.255911022424698
-0.139024391770363
-0.00476043531671166
-0.0981636643409729
-0.132128998637199
0.202474132180214
0.0676641017198563
-0.179719701409340
-0.0322374738752842
-0.0424521341919899
-0.0754442438483238
0.0773748680949211
-0.0618700161576271
-0.00946725346148014
-0.0178330000489950
-0.0397071056067944
-0.0793650969862938
0.101016655564308
0.0281093884259462
0.0711503252387047
-0.0130698084831238
-0.111178413033485
-0.0110887829214334
-0.0539545044302940
0.0717453286051750
0.0695191994309425
0.0393259376287460
-0.00698059983551502
-0.0816238522529602
-0.0286760460585356
0.103035174310207
0.124978959560394
0.0373307839035988
0.0671714097261429
-0.0573621690273285
0.0153847131878138
0.0310167949646711
-0.0422147400677204
-9.13656549528241e-05
-0.00142985011916608
-0.000184262564289384
0.000218814195250161
0.00138227746356279
0.000633941846899688
0.00163998897187412
0.00158228911459446
0.000551905308384448
0.000453776796348393
-0.000469004822662100
-0.000830832810606808
-0.00104678841307759
-0.00142543285619468
0.000548502255696803
-0.000654120056424290
-0.00231098942458630
0.000311197480186820
0.000993875903077424
-8.49887219374068e-05
0.00161789439152926
-0.000680483935866505
-0.00118121400009841
0.00129991129506379
-0.000433551525929943
-0.000342069251928479
0.00131571979727596
-0.000624669133685529
0.00149695237632841
-0.000273245503194630
-0.000522877846378833
0.00212455564178526
0.00111789908260107
0.000253204256296158
0.00134844763670117
0.00152903003618121
0.000922859879210591
-0.000164726472576149
0.00135181471705437
0.000620381732005626
0.00132942467462271
0.000660760095342994
-0.00125362467952073
0.000686084676999599
0.00111253128852695
0.00144660193473101
-0.00200172676704824
-0.000526928110048175
0.000291399599518627
-0.000622453051619232
0.0199385769665241
-0.0514566190540791
0.124707549810410
0.208943068981171
-0.0972637310624123
0.00483530154451728
0.00945531949400902
0.0337071120738983
0.0406297147274017
0.0944331437349320
-0.0708881691098213
0.0715923979878426
-0.00816597416996956
-0.103179812431335
-0.105486445128918
-0.0596265755593777
-0.0343461073935032
0.149582594633102
0.0494951568543911
0.00249074189923704
-0.162205114960670
-0.279197335243225
-0.223175019025803
-0.145882859826088
-0.175640016794205
-0.0168774742633104
-0.0808083564043045
-0.00964208971709013
0.0668965801596642
0.00354826566763222
0.0225641001015902
0.150556907057762
-0.101965181529522
-0.0504112802445889
0.0633710920810700
0.0746946856379509
0.226434662938118
0.260020077228546
0.198213934898376
0.0882324278354645
-0.0382379256188870
-0.0157646294683218
-0.141879931092262
-0.000645392981823534
0.00447594700381160
-0.105716563761234
0.0812761262059212
-0.0633515939116478
0.0389565639197826
-0.0737308040261269
0.00134371710009873
-0.00149227294605225
-0.000161590214702301
-0.00127713335677981
-8.15353414509445e-05
0.00190043833572418
0.000942271144594997
0.000174264612724073
-0.00221388856880367
-0.000768757599871606
-9.80981276370585e-05
0.000928610505070537
0.000275883328868076
-0.00106725282967091
-0.00127897982019931
9.33132760110311e-05
0.000697214680258185
-0.00225718854926527
0.000263738591456786
0.000333747797412798
0.00130179547704756
-0.000310036062728614
-2.57698757195612e-05
0.000648571352940053
-0.000185576907824725
0.00153456651605666
-0.0306591819971800
-0.0775989592075348
-0.0876839905977249
-0.0588849335908890
-0.0148530155420303
0.0293200891464949
-0.0281968843191862
-0.0738032385706902
-0.104331947863102
-0.0362577475607395
0.0551378019154072
0.0714249536395073
0.0398082584142685
-0.0675094947218895
-0.0511274747550488
-0.0152735719457269
-0.0101767461746931
0.00985992141067982
-0.0786355361342430
-0.0487808845937252
-0.00492102606222034
-0.0714797824621201
-0.0901802033185959
-0.120577119290829
-0.0398587435483933
0.147885948419571
0.186479732394218
0.124394424259663
-0.0215957220643759
-0.00396557478234172
0.241614729166031
-0.0103003159165382
-0.00832117535173893
0.210338488221169
-0.0821961387991905
0.0355501547455788
0.101793430745602
0.0395969972014427
0.00927123520523310
0.0161740779876709
-0.0898802205920219
-0.0767699331045151
0.0803037881851196
0.140333235263824
0.0988221913576126
0.0203874837607145
-0.00989708863198757
0.0309680234640837
0.117169320583344
-0.00333061371929944
0.000431082153227180
0.00109564838930964
0.00165866012685001
0.000845555798150599
-0.00496436096727848
0.000585778732784092
0.00198948988690972
0.00112971477210522
0.00362368347123265
-0.00330051360651851
0.000508873257786036
0.00142002082429826
0.00139927247073501
0.00260826572775841
-0.000490903505124152
0.00188923988025635
0.00153588957618922
0.00116966222412884
0.00452205445617437
-9.34394629439339e-05
0.00554398074746132
0.00374533305875957
0.00598493264988065
0.00842515006661415
-0.0242345798760653
0.0580509901046753
0.0157631561160088
-0.0128830494359136
0.0703805312514305
0.0117140030488372
0.0390881709754467
-0.0198851022869349
-0.0296285804361105
-0.0113260690122843
-0.0158283133059740
0.0207466408610344
-0.00797204952687025
0.0143403811380267
-0.00587671389803290
-0.0500935912132263
0.0147046884521842
0.0561817437410355
0.0273670088499784
-0.0142907081171870
-0.0361518040299416
-0.0238857734948397
0.0596411339938641
0.0201252307742834
-0.0128463618457317
4.23669625888579e-05
0.000285789748886600
-0.000699444208294153
-0.00230939779430628
-0.00134686008095741
0.00143257644958794
-0.00161801942158490
-0.000557760882657021
-0.00110642705112696
-0.00118031003512442
-0.00124311458785087
-0.00197403854690492
0.000307449168758467
-5.26877511219936e-06
0.00176338118035346
0.00211738655343652
0.000511214835569263
0.000708258536178619
-0.000350519607309252
0.000391993060475215
-0.00120881735347211
0.000513624341692776
0.00149537646211684
-0.000484122632769868
-0.000530071847606450
-0.0945839434862137
-0.0253258496522903
0.00696271425113082
-0.0869656801223755
0.124750271439552
-0.0960720479488373
0.0976415202021599
0.0613916516304016
-0.145631164312363
0.0244143027812243
-0.116399198770523
0.0772197693586350
0.102575160562992
0.0505674891173840
-0.00135305256117135
-0.0798939242959023
-0.0667540505528450
0.124437056481838
0.186923429369926
0.000272833422059193
0.135213375091553
-0.0651591047644615
0.0212840475142002
0.0450460426509380
-0.146755293011665
0.0338217914104462
0.0266353581100702
-0.139672920107842
-0.00541788479313254
-0.0263267867267132
0.0680412948131561
0.0637157037854195
-0.194140434265137
0.0897553861141205
-0.0411280468106270
0.0781964883208275
0.0979562848806381
-0.261345207691193
0.111811742186546
0.175556600093842
0.0900027602910996
0.143672481179237
-0.126622155308723
-0.00503861019387841
0.136281698942184
0.0413503348827362
0.0866607651114464
-0.0981506630778313
0.0892750620841980
0.107598900794983
-0.0337899476289749
-0.0167782399803400
-0.00178159133065492
-0.0382384993135929
0.0558812320232391
-0.0592574439942837
0.0258486997336149
0.0135843371972442
-0.0986247807741165
0.0117425415664911
-0.0501631759107113
0.00913563370704651
-0.00597263174131513
-0.0381975099444389
-0.0205002836883068
-0.00646136654540896
-0.0133912200108171
-0.0117921642959118
0.0492303147912025
-0.0141942193731666
0.0296284928917885
0.00599024025723338
-0.00261999433860183
0.0390236265957356
-0.0216565057635307
-0.00776689266785979
-0.0241677649319172
-0.0362972691655159
-0.0449347794055939
0.0295709688216448
-0.00379246822558343
0.0521652698516846
-0.00112756993621588
-0.0685367286205292
0.0113125583156943
-0.0277997031807899
0.0492363348603249
0.0308711417019367
-0.00358492042869329
-0.00370836560614407
-0.0416919067502022
-0.0260187834501266
0.0198503993451595
0.0574131719768047
0.0277803763747215
0.0273128878325224
-0.0271308980882168
-0.00883561465889216
0.0113882506266236
0.0130135146901011
0.0282437708228827
0.0144426925107837
-0.0169418044388294
-0.0489912889897823
-0.127840042114258
-0.000901798892300576
-0.00675230938941240
-0.0477682352066040
-0.0206088479608297
-0.0809892490506172
0.00156498758587986
0.0228113885968924
-0.0242960266768932
-0.00149620627053082
-0.00538216996937990
0.0214457940310240
0.0155834807083011
0.0614593625068665
0.0902896896004677
0.0344772711396217
0.00448654172942042
-0.0512282922863960
0.0120731107890606
0.0390835441648960
-0.0343209318816662
0.0335094071924686
-0.0123615637421608
0.0422884114086628
0.0562072917819023
0.0427443161606789
0.0157523471862078
-0.0494470186531544
-0.0402893982827663
0.0133073413744569
0.0802063867449760
0.0490753687918186
-0.0146112972870469
-0.109035119414330
-0.0551974400877953
0.0833986029028893
0.0519510395824909
0.0187197383493185
-0.0481374561786652
-0.0461998693645000
0.0339128114283085
0.0465296953916550
-0.0125923678278923
0.0399163775146008
0.0289546847343445
-0.00198178249411285
-0.0230918042361736
-0.0158621240407228
0.0238402783870697
-0.0585263893008232
0.0942551046609879
0.00495671154931188
0.0592274814844132
0.0502454303205013
-0.111018508672714
-0.00331516750156879
-0.0111188851296902
0.0529419220983982
0.0724560543894768
0.0255399253219366
-0.0155979767441750
-0.0552319288253784
-0.0371880605816841
0.100071273744106
0.111516781151295
0.0104764308780432
0.0516929477453232
-0.0714750513434410
0.0265102572739124
0.0266450401395559
-0.0574346408247948
0.0194149781018496
-0.0412326678633690
-0.0728171169757843
-0.0830892026424408
-0.0178613960742950
0.0558566749095917
0.0436043813824654
0.124557316303253
0.0442887581884861
-0.0446666963398457
0.0714871212840080
0.0368778482079506
-0.0245364960283041
0.0405740886926651
0.0568535774946213
0.0318680256605148
-0.0496029220521450
-0.0585430152714253
0.0270935948938131
0.105473771691322
0.110630631446838
-0.191146954894066
-0.195986807346344
-0.150282606482506
-0.0814727172255516
-0.182958900928497
-0.0739169195294380
-0.154414623975754
-0.100175030529499
-0.0990074500441551
-0.138419881463051
-0.0233996212482452
-0.00443255389109254
-0.0851847007870674
-0.126407831907272
-0.170343860983849
0.0470074750483036
0.149114087224007
0.00838016998022795
-0.136405527591705
-0.0710895061492920
0.0215218495577574
0.0723313242197037
-0.0668799355626106
-0.172756269574165
-0.145271480083466
-0.172830313444138
-0.105844721198082
-0.113375537097454
-0.288219660520554
0.0863715782761574
-0.0114169577136636
-0.0390809141099453
-0.0389185138046742
-0.0970603302121162
0.0642700940370560
-0.0391829349100590
-0.0640586242079735
-0.0440250188112259
-0.0342658236622810
0.0208086855709553
-0.00373782333917916
0.0428736135363579
0.00347877107560635
0.0783206298947334
-0.0262502655386925
-0.0389370955526829
0.0524860434234142
0.00886022206395865
-0.0127119570970535
-0.0520455352962017
-0.0275138746947050
0.0428229421377182
-0.00348339788615704
-0.0208442788571119
-0.0495952069759369
-0.0721239894628525
-0.131668195128441
0.0176215525716543
0.0564340651035309
-0.0330675803124905
0.0284863449633122
-0.100551433861256
-0.163520053029060
-0.0168519038707018
0.0153981540352106
-0.00366946170106530
-0.0127923851832747
-0.0368092991411686
-0.0703428834676743
0.0342588052153587
-0.00339723518118262
-0.0706100314855576
0.0292527917772532
-0.0242864303290844
-0.0327617898583412
0.0196879804134369
-0.0406914018094540
-0.0354552380740643
-0.0461045205593109
-0.0275039561092854
-0.0292730070650578
-0.0251493286341429
-0.0268538817763329
-0.0277010165154934
-0.0241312459111214
-0.0170422568917274
-0.00468534370884299
-0.00766004482284188
-0.0202202703803778
-0.0240552462637424
-0.0122680412605405
-0.00925458408892155
-0.00888939294964075
-0.0175192970782518
-0.0237903315573931
-0.0148568889126182
-0.0180987399071455
-0.0208997931331396
-0.0206825882196426
-0.0185689684003592
-0.0116557721048594
-0.0119810234755278
-0.0163256898522377
-0.0232286024838686
-0.0199222844094038
-0.0179339386522770
-0.0251678433269262
-0.00226763053797185
0.00763852708041668
-0.0236746128648520
-0.0122093018144369
-0.000237199215916917
1.04426385405532e-06
-0.00649078236892819
-0.0288000870496035
0.00445044739171863
0.0361517108976841
0.00916006974875927
-0.0154584133997560
-0.0122526399791241
0.000765297561883926
0.00986177287995815
-0.000818771251942962
-0.00579204736277461
-0.00717367418110371
-0.0182756036520004
-0.0348032154142857
-0.0186938215047121
-0.00679103704169393
-0.0396004728972912
-0.000192594219697639
-0.0101232398301363
0.00213841302320361
-0.0101677393540740
-0.0611839070916176
0.0136072449386120
-0.00736839696764946
-0.0351673029363155
-0.0303574893623590
-0.0510561093688011
0.0580606237053871
0.0246520359069109
-0.0366001948714256
-0.0436905883252621
-0.0405294783413410
0.0520983152091503
0.0161195676773787
-0.0242327097803354
-0.0320553034543991
-0.0279774460941553
0.0250114835798740
-0.0179750341922045
-0.0170250423252583
-0.0289998147636652
0.0165115855634213
0.0236204378306866
0.0175550114363432
0.0521425940096378
0.0382895842194557
0.0512678250670433
0.0194674897938967
-0.0549374334514141
-0.0103682130575180
0.00664221588522196
0.0518666654825211
-0.0230341833084822
-0.0859353169798851
0.00933627877384424
0.0155951166525483
0.0544667765498161
0.00290692830458283
-0.0154571505263448
0.0680883675813675
0.0450489670038223
0.0343795381486416
0.0197099465876818
-0.00741462269797921
0.0201594494283199
0.00483691878616810
0.0139921735972166
0.0113642755895853
-0.00438032625243068
-0.00718610920011997
0.0251497477293015
0.0141595993191004
0.0209663398563862
-0.00666765868663788
-0.0233688838779926
0.0295096393674612
0.0251696761697531
0.0352083817124367
0.0222176369279623
-0.0127788819372654
0.0370080545544624
-0.000931939983274788
-0.0137412883341312
-0.0109796030446887
-0.0277133416384459
0.0112689463421702
0.00996889453381300
-0.00729339104145765
-0.00904351100325584
-0.0135275544598699
0.0109887905418873
-0.0145409721881151
-0.0235755238682032
-0.0456501729786396
-0.0221372414380312
-0.0206555593758822
-0.00883237272500992
0.00762563943862915
0.0185605995357037
-0.000395201466744766
-0.0353944227099419
-0.0333159044384956
0.0306348726153374
0.0865076854825020
0.0169533081352711
-0.0532811358571053
-0.0137181757017970
0.0114626912400126
0.0325217358767986
0.00470184348523617
-0.0233712922781706
-0.00166123919188976
-0.0160553995519876
-0.0382863320410252
-0.0243047401309013
-0.0147421006113291
0.0171018559485674
-0.0339971035718918
-0.202016040682793
-0.101564243435860
0.0197242088615894
0.0650802552700043
0.0592472404241562
-0.182323038578033
-0.0330881811678410
0.0650060251355171
0.0638442263007164
0.100081384181976
0.0389536507427692
0.0874015316367149
0.0611743852496147
0.0139954444020987
0.000706843566149473
-0.0313330143690109
-0.0327852852642536
0.0162049289792776
0.0209686867892742
0.0239011403173208
0.0177883338183165
0.00646556215360761
0.0430362522602081
-0.0276023205369711
-0.0320335291326046
-0.0358754843473434
-0.0245244745165110
-0.0148517424240708
-0.0321582145988941
-0.0188593063503504
-0.00699606444686651
-0.0129646062850952
-0.0285588614642620
-0.0357865616679192
-0.000508865748997778
0.0326118841767311
0.00407807249575853
-0.0308559685945511
-0.0285322964191437
-0.0112430434674025
0.00205080374144018
-0.00833675265312195
-0.0204627607017756
-0.0220796149224043
-0.0296677611768246
-0.0438383594155312
-0.0334567390382290
-0.0235094521194696
0.00484166387468576
0.00583045044913888
0.00679522659629583
0.00730409938842058
0.00834536738693714
-0.000595037301536650
0.00390522950328887
0.000453911314252764
-0.00357123278081417
-0.00153620867058635
-0.00407970137894154
-0.00957894697785378
-0.0124944597482681
-0.0122846877202392
-0.0121407536789775
0.00469401665031910
0.00299970502965152
0.00605735275894404
0.00788436178117991
0.00131349265575409
0.00499273510649800
0.0100311236456037
0.0158507619053125
0.0156956557184458
0.0113120032474399
-0.0271778367459774
-0.0322172343730927
-0.0490462109446526
-0.0297438837587833
-0.0222006645053625
-0.0248238444328308
-0.00264156004413962
0.0163076017051935
-0.00260523217730224
-0.0298481751233339
-0.0408172681927681
0.0147537346929312
0.0692292749881744
0.0136360852047801
-0.0354191251099110
-0.0259307380765677
-0.00282163592055440
0.0151376584544778
0.00142640760168433
-0.0123255793005228
-0.0154134007170796
-0.0260213315486908
-0.0413825809955597
-0.0279751867055893
-0.0145673751831055
0.0297100432217121
0.0235629025846720
0.0313139073550701
0.0342395789921284
0.0186561346054077
0.0140657378360629
0.00434587476775050
0.00716313812881708
0.0158513989299536
0.00690111983567476
-0.0109808389097452
-0.0322894938290119
-0.0304643381386995
-0.0101178502663970
-0.0116219529882073
0.00489098997786641
-0.0124978376552463
-0.00563449412584305
0.0175356399267912
0.0104795349761844
0.0224002562463284
0.0191687047481537
0.0243383180350065
0.0343981944024563
0.0194092374294996
-0.00103883456904441
-0.00114702456630766
-0.000362244085408747
-0.000531220401171595
-0.00104712846223265
-0.000548784970305860
-0.00103560357820243
-9.83055651886389e-05
-0.000350130401784554
-0.00161460030358285
0.000806836585979909
-0.000715841539204121
0.00200108694843948
0.000145598940434866
0.000738163595087826
0.000817262160126120
0.000876075355336070
-0.000635363976471126
0.000721007760148495
1.57486829266418e-05
-0.00145912391599268
-0.000420864555053413
-0.000516029307618737
0.000913137686438859
-0.000955074967350811
0.000561916676815599
8.72273594723083e-05
-0.00137501850258559
9.12649265956134e-05
-4.65285957034212e-05
0.00144428573548794
-6.88737200107426e-05
-0.00183037272654474
-0.00272276205942035
-0.000183412616024725
0.000213501407415606
-0.000288328854367137
-0.000628984125796706
-0.000776231638155878
0.000868805218487978
0.000365560816135258
-0.000568183371797204
-0.00172678835224360
-0.00127106159925461
0.000720838957931846
0.000627722707577050
6.07937290624250e-05
-0.00171215902082622
-0.000430172367487103
0.000415555754443631
-0.0125667368993163
-0.0131802894175053
-0.0113212643191218
-0.0114210722967982
-0.0125929340720177
-0.0124788628891110
-0.0115465894341469
-0.00937047507613897
-0.00839923880994320
-0.0118567952886224
-0.0151664828881621
-0.00632254453375936
-0.00568353338167071
-0.00624492485076189
-0.00852460134774447
-0.0172643531113863
-0.0111003592610359
-0.00831128377467394
-0.00859870295971632
-0.0112591451033950
-0.0126450872048736
-0.0131988469511271
-0.0121620493009686
-0.0135301994159818
-0.0111033050343394
-0.00168677337933332
-0.00477939425036311
-0.00367507664486766
-0.00543942861258984
-0.00441280333325267
-0.00400063302367926
-8.13302758615464e-05
-0.00301749864593148
-0.00265294336713851
-0.00359276146627963
-0.00527711305767298
-0.00130453694146127
-0.000196586857782677
-0.00427726143971086
-0.00377104827202857
-0.00663071218878031
-0.00479514058679342
-0.00361044541932642
-0.00137951830402017
-0.00296143512241542
-0.00277829333208501
-0.00375152821652591
-0.00520919775590301
-0.00219399435445666
-0.00394224468618631
-0.000726118101738393
0.000469532446004450
-0.00132067792583257
0.000917492900043726
-0.00144853047095239
0.000652309157885611
0.000458067981526256
0.000434954534284771
-0.00175739917904139
0.000294170022243634
0.000379922363208607
-0.00123627192806453
-0.000173859298229218
-0.000718932133167982
-0.00173306593205780
0.000589211878832430
0.000851251825224608
0.000786637130659074
-0.00107564195059240
-0.000358677265467122
-0.000380665122065693
0.000421221455326304
0.000489272584673017
0.000768514117226005
-0.000915786949917674
-0.00914143491536379
-0.00979024264961481
-0.0131235131993890
-0.0157055612653494
-0.0171915311366320
-0.00677350629121065
-0.00372826587408781
-0.00588677031919360
-0.0110522313043475
-0.0131984688341618
-0.00991566665470600
-0.00389125663787127
0.00475329253822565
0.000888389477040619
-0.00982475932687521
-0.0162248592823744
-0.00982391461730003
-0.000690976681653410
-0.00216872803866863
-0.0108349341899157
-0.0140960169956088
-0.0139610236510634
-0.0122191375121474
-0.0109754661098123
-0.00995999108999968
-0.0211542472243309
-0.0203457642346621
-0.0177124086767435
-0.00970735680311918
-0.000982701778411865
-0.0206536371260881
-0.0163530465215445
-0.00876365602016449
0.000834990176372230
0.00132912071421742
-0.0208589024841785
-0.00988835096359253
-0.000499828078318387
0.00132412521634251
-0.00216989964246750
-0.0134476684033871
-0.00526400795206428
-0.00495582679286599
-0.00755488080903888
-0.00606081588193774
-0.00914482865482569
-0.00660722097381949
-0.0146560380235314
-0.0112749170511961
-0.00617436273023486
0.000157653485075571
0.00152945006266236
-0.000914437114261091
-0.000715152302291244
-8.63423119881190e-05
-0.00105274957604706
0.00105787476059049
0.000724346667993814
-0.000331904768245295
-0.00187311251647770
0.000540339970029891
-0.000288943148916587
0.000484724820125848
-0.000577522441744804
0.000816876883618534
-0.000728815386537463
5.75710801058449e-05
0.00145983439870179
0.000437751848949119
0.000298703234875575
0.000694498594384641
0.000346410728525370
0.000578500737901777
0.00138491345569491
-0.000495707266964018
0.0356179401278496
0.00645076669752598
-0.0134352836757898
0.00402637943625450
0.00644523557275534
0.0543450266122818
0.00879666488617659
0.00890082027763128
-0.00602462003007531
0.0168559756129980
0.0505059398710728
0.00503003131598234
0.0439239516854286
-0.0103562222793698
-0.0136701064184308
0.0502305962145329
-0.0127942319959402
-0.0230715256184340
-0.0281329695135355
-0.00320935412310064
0.0552912466228008
0.0440954118967056
0.0414191707968712
0.0433520972728729
0.0353947877883911
-0.000106615669210441
-0.00137041183188558
0.000193358297110535
0.000369095825590193
0.000163453107234091
0.000569776224438101
-0.00153096194844693
-0.000740676419809461
-0.000398647243855521
0.00163491978310049
0.000418592040659860
0.00189854134805501
-0.000939492485485971
-0.00109326338861138
-0.000607569061685354
-0.00134881900157779
-0.00118580891285092
0.000247277581365779
-0.00110620073974133
-0.000557135383132845
0.000338298908900470
0.00136946351267397
0.00148610118776560
-0.00164285686332732
0.000277647457551211
-0.0229632481932640
-0.0234996713697910
-0.0168847944587469
-0.0135201299563050
-0.0132192932069302
-0.0237213727086782
-0.0166698377579451
-0.00987881328910589
-0.00301330001093447
-0.0123199764639139
-0.0227555949240923
-0.0133976871147752
-0.0100518446415663
-0.00879524741321802
-0.0135274119675159
-0.0198875796049833
-0.00822262745350599
-0.0115316510200500
-0.0120198866352439
-0.0167946275323629
-0.0109088215976954
-0.00631666323170066
-0.00622046133503318
-0.00996896531432867
-0.0163055546581745
-0.000760169525165111
0.000485868105897680
0.000227427764912136
-0.000314554752549157
-0.000159606832312420
0.000902990344911814
-0.000540886074304581
-0.00129513326101005
-0.000429478794103488
0.000948080560192466
0.000643826671876013
0.000225998432142660
-0.000254061858868226
-0.00108519429340959
0.000642483297269791
-0.00174612517002970
-0.00260075065307319
-0.000947119493503124
0.000651470618322492
-0.000626512628514320
0.000825277762487531
-0.000297438207780942
-0.000194643696886487
-0.000261962093645707
0.00187408830970526
-0.000133604611619376
0.00183223118074238
-0.00205839425325394
0.00108602165710181
0.00160893134307116
5.80921296204906e-05
-6.62197926430963e-05
0.000703528814483434
0.000978179858066142
-7.82476199674420e-05
-1.80480651579273e-06
0.000730243802536279
0.00332737714052200
-0.000309922586893663
-0.000145038837217726
0.00117017328739166
0.000640440091956407
-0.000136504837428220
0.000548780662938952
0.00130687456112355
0.000546718365512788
-0.000550977187231183
-0.000246104202233255
-0.00288821756839752
0.00108558044303209
-0.0102319959551096
-0.00314752431586385
0.00803030095994473
0.00512420153245330
-0.00372830498963594
-0.00575701380148530
-0.00510833645239472
-0.00161450123414397
0.00188376277219504
-0.00848799850791693
0.000665828643832356
-0.00403252709656954
-0.00873582530766726
-0.00911375135183334
-0.00878004636615515
-0.00214164750650525
-0.000580232823267579
-0.00333795044571161
-0.0125550283119082
-0.0146661708131433
-0.00679468642920256
-0.00296571385115385
0.00302564189769328
-0.00472792889922857
-0.0143769364804029
-0.000777118955738843
-7.51321422285400e-05
-0.000700858188793063
-0.000546951603610069
0.000895606644917280
-0.00120077689643949
0.00120536447502673
0.000135734473587945
-7.12486580596305e-05
0.000206463431823067
0.000321544939652085
0.00134557078126818
0.00115817785263062
-0.000234963023103774
-0.000194764259504154
0.000676523079164326
-0.000600658764597029
0.00128368474543095
0.00133678049314767
0.00196320307441056
-0.00328729487955570
-0.000465021119453013
0.000339115882525221
0.000909809954464436
0.000636400072835386
-0.0137394163757563
-0.0190529916435480
-0.0273920428007841
-0.0144716929644346
-0.0118324868381023
-0.0160810388624668
-0.00264216959476471
0.00804820004850626
-0.00528477272018790
-0.0202705506235361
-0.0207060370594263
0.0109993834048510
0.0388290025293827
0.00565411709249020
-0.0206057224422693
-0.0115888034924865
-0.00113282585516572
0.00226982217282057
-0.00745326606556773
-0.0121559984982014
-0.0100280269980431
-0.0210133027285337
-0.0344202294945717
-0.0272054802626371
-0.0195752754807472
0.0379349254071713
0.102370068430901
0.0988935977220535
0.0315573289990425
0.00927631743252277
-0.0219651255756617
-0.0453456193208694
-0.0171941760927439
0.00292053283192217
0.00476140901446343
-0.0649611726403236
-0.0518612004816532
-0.0494743287563324
-0.0425843819975853
0.0565986894071102
-0.0797216445207596
-0.00897707790136337
-0.0288923811167479
-0.0619427636265755
0.0771932378411293
-0.0667069405317307
-0.0815874338150024
-0.0675226375460625
-0.0384226217865944
0.0332782492041588
-0.0116282189264894
-0.0453671142458916
-0.0227055549621582
0.0320830382406712
0.0399801060557365
0.00370640913024545
0.00430547818541527
-0.0283740665763617
0.0170770399272442
0.0565186217427254
0.0420362204313278
0.0259217992424965
-0.107991114258766
-0.0130592733621597
0.0640050917863846
0.0526432394981384
-0.00579180009663105
-0.106811098754406
0.0203504525125027
0.0638278946280479
0.0375165231525898
0.00403539976105094
-0.0211071055382490
0.0315383858978748
0.0160773545503616
-0.00282966950908303
-0.00260976771824062
-0.00739448377862573
-0.00821280665695667
-0.0158883966505528
-0.00483380071818829
0.00260438234545290
0.00549567304551601
-0.00560426572337747
-0.0175795499235392
-0.00771019747480750
0.00507334573194385
0.0140473349019885
-0.00319666578434408
-0.0134459361433983
-0.0105929039418697
-0.00662413705140352
-0.00185998063534498
-0.00279134465381503
-0.00433620857074857
-0.0123484656214714
-0.0151931364089251
-0.0118178017437458
-0.00851628649979830
-0.00822014641016722
-0.0322182737290859
-0.0588827989995480
-0.0848457142710686
-0.0371997766196728
-0.0274506974965334
-0.0147060370072722
-0.0547061301767826
0.00238239136524498
-0.0302825719118118
-0.0451851487159729
-0.0536734834313393
-0.0194361787289381
0.126664623618126
0.00965415127575398
-0.0683430507779121
-0.0485057123005390
-0.0990528389811516
-0.0342779979109764
-0.0652321428060532
-0.0613507591187954
-0.0206657517701387
-0.0568952113389969
-0.0744191557168961
-0.0330757275223732
-0.0275886859744787
0.00272937677800655
0.0152281960472465
-0.0358807705342770
-0.0274569820612669
-0.0132604166865349
0.0113986078649759
0.0669759660959244
-0.0543233118951321
-0.0416824109852314
0.0224478077143431
0.0185792725533247
0.0937263965606690
-0.0779206901788712
-0.0600015558302403
0.0321220941841602
0.0148793980479240
0.0723739638924599
-0.0637784451246262
-0.0533452071249485
0.0134717775508761
0.00737140513956547
0.0477381236851215
-0.0179188717156649
-0.0192521233111620
-0.0111122624948621
-0.0313473306596279
-0.0428326800465584
-0.0544087216258049
-0.0373399816453457
-0.0229180827736855
-0.0420943051576614
-0.0510617569088936
-0.0427916795015335
-0.0440491102635860
-0.0339710339903832
-0.0119516886770725
0.00362671189941466
0.0582712590694428
0.0480373948812485
0.0250206962227821
0.00512640224769712
0.0228377860039473
0.0989771783351898
0.0766049325466156
0.0253423582762480
-0.0283838249742985
-0.0584868863224983
-0.0335875153541565
-0.0337205417454243
-0.0165800172835588
-0.0228543821722269
-0.0203072279691696
-0.0183742996305227
-0.0121556958183646
-0.00966391246765852
-0.0224277246743441
-0.0164427924901247
-0.0108454292640090
-0.00326397456228733
-0.00433111004531384
-0.0209536775946617
-0.0105119179934263
-0.00911633297801018
-0.00286476640030742
-0.00226408522576094
-0.0187121964991093
-0.0121795134618878
-0.00840985309332609
-0.00713628530502319
-0.00808241870254278
-0.0125279175117612
-0.0117376064881682
-0.0126761393621564
-0.00999809429049492
-0.0143247060477734
-0.0106663908809423
-0.0553668998181820
-0.0581887811422348
-0.0464722961187363
-0.0102827586233616
-0.0258857384324074
-0.0487966090440750
-0.0271304380148649
-0.0224261134862900
-0.0158775467425585
0.0299371629953384
0.0374583676457405
0.0735291913151741
0.0734516605734825
0.0238186940550804
0.0338238142430782
-0.0125728128477931
-0.0340290069580078
0.000160913259605877
0.0142860682681203
0.0155481575056911
0.00692121824249625
-0.0567933768033981
-0.0719423145055771
-0.0366260521113873
-0.00733283953741193
-0.0118772443383932
-0.0164839401841164
-0.0182145871222019
-0.0154261998832226
0.00910034775733948
0.0146573893725872
0.0161844678223133
0.0132086277008057
0.00705806352198124
-0.00414030207321048
-0.00446932390332222
-0.000516315456479788
0.00377409462817013
0.00699460459873080
-0.00788370613008738
-0.0125290229916573
-0.0128783350810409
-0.00831980817019939
-0.00495650898665190
0.00781988631933928
0.00959453638643026
0.0123805515468121
0.0104229710996151
0.00407436955720186
0.00344183156266809
0.00475405668839812
0.00413724035024643
0.00322399358265102
0.000206302458536811
0.00334940757602453
0.000414640031522140
-0.000991826294921339
0.00216355943121016
-0.000717135611921549
0.000736852351110429
-0.000763176882173866
-0.00302628916688263
0.00170018000062555
0.00271711871027946
0.00382705801166594
0.00271371495909989
-0.00134402245748788
0.00202299701049924
0.00271003344096243
0.00434094248339534
0.00698067527264357
-0.000825272174552083
7.04522972228006e-05
0.00172322324942797
0.00125185516662896
0.000588086317293346
-0.00169464596547186
0.00185653183143586
-0.00121855072211474
-0.000912585179321468
0.00161767494864762
0.000302449654554948
-0.00172554433811456
0.000848499010317028
0.000793065875768662
-0.000292732351226732
-0.000638989440631121
-9.73082569544204e-05
-0.00187921582255512
0.000668276159558445
8.71522661327617e-06
-0.000268691714154556
0.000468279060442001
0.000515653809998184
0.00118066975846887
0.000136149858008139
-0.000579924380872399
-0.000256126164458692
0.00188972626347095
-0.000104653605376370
0.00102885335218161
-0.00178244605194777
-0.00119760830421001
-3.76526186300907e-05
0.000572679506149143
-0.00194579036906362
0.000672120426315814
8.06855241535232e-05
0.00112783838994801
-0.000750281324144453
-2.19849334825994e-05
0.000830096367280930
0.000996498274616897
0.00144954922143370
-0.000152397929923609
0.000875200319569558
0.000290127005428076
-0.00133007473777980
-0.000624427921138704
-0.000810935685876757
-0.00201420113444328
0.000222934235353023
-3.79593911929987e-05
0.000624776934273541
-0.00640344573184848
-0.00611223513260484
-0.00876300223171711
-0.00838463287800551
-0.00930352229624987
-0.0134975798428059
-0.00795547012239695
-0.00505515467375517
-0.00661239493638277
-0.0103693194687366
-0.00964308530092239
-0.0106520438566804
-0.00783540401607752
-0.00236566807143390
-0.00878445338457823
-0.0137611217796803
-0.0156954620033503
-0.0136035867035389
-0.00981313548982143
-0.00920651201158762
-0.0139337424188852
-0.0101879518479109
-0.0134334079921246
-0.00992744881659746
-0.00831985380500555
-0.0168056841939688
-0.0195655915886164
-0.0303547736257315
-0.0137162227183580
-0.00689334934577346
-0.0181255191564560
-0.00253199273720384
0.0109545486047864
0.000683022430166602
-0.0163971111178398
-0.0272128209471703
0.0118117090314627
0.0551977008581162
0.0147818336263299
-0.0241918675601482
-0.0123151028528810
0.00184591545257717
0.0136500000953674
-0.00135569414123893
-0.0111105041578412
-0.00900799036026001
-0.0182671695947647
-0.0334486924111843
-0.0235912911593914
-0.0133691541850567
-0.0132797304540873
-0.0192850176244974
0.0134476562961936
0.0219945106655359
-0.000227202850510366
-0.0189925618469715
-0.0533174835145474
0.0503702722489834
0.0218990202993155
-0.0156836621463299
-0.0230059046298265
-0.0688024833798409
0.0714262649416924
-0.0127259772270918
-0.0311833433806896
-0.00685501424595714
-0.0556340292096138
0.0640858858823776
0.00691724754869938
-0.0204305797815323
-0.00456779170781374
-0.0450721941888332
0.00675769662484527
0.0179909355938435
0.00739170145243406
-0.0125826559960842
-0.0204649884253740
-0.0322535187005997
-0.0208431314677000
-0.0198402944952250
-0.0167093724012375
-6.58326171105728e-05
0.00571841327473521
-0.0153903551399708
-0.0279324054718018
-0.0267867650836706
0.0103020016103983
0.0460526868700981
0.00519773829728365
-0.0270784776657820
-0.0211555473506451
-0.0127123286947608
0.00385471410118043
-0.00198383000679314
-0.0127149801701307
-0.0180608928203583
-0.0302645191550255
-0.0435890331864357
-0.0276952609419823
-0.0129861738532782
-0.000672055408358574
0.000281425076536834
-0.000404433987569064
-0.00126091705169529
-0.000598205486312509
0.00147461693268269
0.000748499180190265
0.000363922532415018
0.000381651363568381
0.000822550617158413
-0.000576553167775273
0.00139488885179162
-0.000285066373180598
0.000639786885585636
0.000473755557322875
-0.00133188825566322
0.00134046026505530
-0.000369979796232656
-3.69625513485516e-06
0.00191560247913003
0.000199007117771544
-0.00112881604582071
-0.000761713366955519
-0.00185167137533426
-0.00182068580761552
0.000272582983598113
0.000561118824407458
-0.000454352004453540
0.000769786303862929
0.00121295684948564
-0.000944450439419597
-0.00137980910949409
0.000568248273339123
-0.00109925272408873
0.000444197619799525
0.000502439739648253
0.000405371334636584
1.18513898996753e-05
-0.000965276965871453
-0.000488794990815222
0.00178379961289465
-0.000492702878545970
-0.00115468841977417
-0.00121978146489710
0.000689122825860977
-0.000148277860716917
-0.000948266708292067
-0.00211024517193437
-0.00128382281400263
0.000776785309426487
0.0296008884906769
-0.0607725158333778
-0.0995640009641647
-0.0261760111898184
-0.0134358890354633
0.0279700197279453
-0.0417382568120956
0.00854463875293732
0.0395351722836494
-0.0168193448334932
0.0126328868791461
0.0343231484293938
0.0839687064290047
0.0412454493343830
0.0126324091106653
-0.0431796461343765
-0.0615278109908104
-0.0576943792402744
-0.0736594647169113
-0.00887603219598532
-0.0349004566669464
-0.0456692911684513
-0.0632704421877861
-0.0598933026194572
-0.0284861363470554
-0.00968435592949390
-0.0166309904307127
-0.0191286597400904
-0.0171296540647745
-0.0104388874024153
0.0156022692099214
0.0245421100407839
0.0233701299875975
0.0220907740294933
0.0173194929957390
0.00485199270769954
0.0152432257309556
0.0143752796575427
0.00539433537051082
0.00218017282895744
-0.00737659353762865
-0.0109846852719784
-0.0139368427917361
-0.0148100294172764
-0.00776661979034543
0.0211502145975828
0.0262318812310696
0.0218526031821966
0.0198592208325863
0.0199869014322758
-0.000172199695953168
-0.00280655734241009
0.000211682912777178
0.000646410917397589
0.000135846523335204
-0.00173109141178429
-0.000568283954635263
-0.00177734671160579
0.000497132481541485
-0.000635255943052471
-7.19765303074382e-05
0.000334943964844570
-0.000642290571704507
0.000497854023706168
0.000401949393562973
-0.000441201962530613
-0.00177726836409420
-3.92105248465668e-05
0.000402410805691034
-0.000518637418281287
0.000594884855672717
0.000879351282492280
0.00210926472209394
0.00101907062344253
-0.00203695381060243
-0.00531418295577169
-0.00612632324919105
-0.00841944199055433
-0.00840342696756125
-0.0116916550323367
0.00103594490792602
-0.000371490517864004
-0.00210183486342430
-0.00292517966590822
-0.00817070715129376
0.00160651537589729
-0.00214802264235914
-0.00104064331389964
-0.00214988552033901
-0.00617958512157202
-0.00463269604369998
-0.00348513713106513
-0.00241075735539198
-0.00737430807203054
-0.00935463234782219
-0.00569117162376642
-0.00431586476042867
-0.00623532710596919
-0.00869249645620585
-0.00676390388980508
-0.0648170709609985
-0.0689666941761971
-0.0201952457427979
-0.0391377545893192
0.0505661293864250
-0.0701824575662613
-0.0500618442893028
0.0452693924307823
-0.103054568171501
-0.130146980285645
-0.0466759763658047
-0.0253939833492041
0.118442296981812
0.0104121323674917
-0.0784814506769180
-0.0199527293443680
-0.0383863523602486
0.0252242609858513
-0.0368478968739510
-0.0557249113917351
0.0139911724254489
0.0384538248181343
0.00962993316352367
-0.0587313100695610
-0.0533174760639668
0.000886252964846790
-0.000966143212281168
-0.000489356694743037
0.00118440203368664
0.000489869038574398
-0.00108647742308676
-0.000259653490502387
-0.000741606112569571
-0.00121400773059577
-0.000384577200748026
0.000823621405288577
0.00106292031705379
-0.000877185782883316
-0.00102856138255447
5.33275233465247e-05
0.000587226182688028
-0.00151074817404151
0.000703103549312800
-0.000460033334093168
-0.000541107030585408
-0.000418214709497988
0.000513267354108393
0.00168896373361349
-0.000810087600257248
0.000415052025346085
-0.0136961378157139
-0.0139114018529654
-0.0187685322016478
-0.0173420645296574
-0.0197547376155853
-0.0206869076937437
-0.0120273465290666
-0.0131914466619492
-0.0156189640983939
-0.0168281178921461
-0.0206760447472334
-0.0117900567129254
-0.00794348493218422
-0.0125512918457389
-0.0140903545543551
-0.0213534124195576
-0.0184398964047432
-0.0152136515825987
-0.0116831008344889
-0.0121436314657331
-0.0159371588379145
-0.0174608286470175
-0.0176537390798330
-0.0116386665031314
-0.0111858658492565
0.000796661362983286
0.00136216182727367
-0.000442107208073139
-0.000869881827384234
-0.00122311152517796
-0.000713736750185490
0.00105670839548111
-0.000509447359945625
-0.00135141517966986
0.000526149873621762
0.000986544415354729
-0.00127774744760245
0.00184206000994891
-0.00216329749673605
0.00137434003408998
0.00137287657707930
-0.000676577386911959
7.40933246561326e-05
-0.00171067647170275
-0.000398187257815152
0.000737729482352734
-8.73653625603765e-05
0.000524620641954243
0.000775994267314673
-0.000570321106351912
-0.0344224236905575
-0.0340333394706249
-0.0546460337936878
-0.0361619628965855
-0.0300815235823393
-0.0329570211470127
-0.00887346547096968
0.00790822785347700
-0.0136377802118659
-0.0471637435257435
-0.0525521486997604
0.0128696225583553
0.0877648591995239
0.0182023681700230
-0.0556536838412285
-0.0371666401624680
-0.00584983173757792
0.0225676838308573
-0.00343222590163350
-0.0342985689640045
-0.0312750227749348
-0.0426958203315735
-0.0662898942828178
-0.0514638163149357
-0.0338031277060509
0.00657883891835809
0.0174699537456036
-0.0189584437757731
-0.0239114183932543
0.00179775094147772
0.0174309052526951
0.0247826837003231
-0.0218417216092348
-0.0158505644649267
0.0165159013122320
0.0263145193457603
0.0204717051237822
-0.0267009306699038
-0.00847029779106379
0.0296743884682655
0.0196566693484783
0.0194238238036633
-0.0278056897222996
-0.0102535504847765
0.0273435562849045
0.0145188383758068
0.0211465265601873
-0.0190591942518950
-0.00944975204765797
0.0157138463109732
-0.0146706914529204
-0.0154168717563152
-0.0271156132221222
-0.0114982929080725
-0.00817164685577154
-0.0151706095784903
-0.00558807747438550
0.00385073130019009
-0.00343461288139224
-0.0206735767424107
-0.0256071332842112
0.00924153160303831
0.0501997955143452
0.0127053167670965
-0.0271393433213234
-0.0146713508293033
0.00254211807623506
0.0131279891356826
-0.000282546301605180
-0.0149804130196571
-0.0117366770282388
-0.0199306681752205
-0.0357882753014565
-0.0267674177885056
-0.0169089287519455
-0.0147670172154903
-0.0173827856779099
-0.0258075688034296
-0.0168339274823666
-0.0117062507197261
-0.00938188098371029
-0.00368176586925983
-0.00449276063591242
-0.00657915091142058
-0.0117578171193600
-0.0128744971007109
0.00497112283483148
0.0215625967830420
0.00548551278188825
-0.0121951093897223
-0.0154852150008082
-0.00578264426440001
0.00105523772072047
-0.00581855373457074
-0.0115645937621593
-0.0136362053453922
-0.0214045960456133
-0.0301932953298092
-0.0256582964211702
-0.0167758930474520
-0.00839354097843170
-0.00808877218514681
-0.0141836842522025
-0.0163054652512074
-0.0132180592045188
-0.00906397867947817
-0.0104066906496882
-0.0121488515287638
-0.0125305335968733
-0.0160777512937784
-0.00975030660629273
-0.00882705301046372
-0.00664619775488973
-0.00638148095458746
-0.0139916623011231
-0.00917874649167061
-0.00923068728297949
-0.00929662864655256
-0.0116497911512852
-0.0154999932274222
-0.0101689007133245
-0.00987912807613611
-0.0125272683799267
-0.0152378594502807
-0.0118551738560200
0.0385517552495003
0.0822982043027878
0.0781994089484215
0.0354806520044804
0.00706415763124824
0.0203913804143667
-0.0107787428423762
-0.000703357858583331
0.0234663281589746
-0.00246247486211360
-0.0355011858046055
-0.0451176241040230
-0.0275042932480574
0.00599781237542629
0.0513486489653587
-0.0478718392550945
-0.0250536799430847
-0.0263321902602911
0.00314464746043086
0.0694670230150223
-0.00825921818614006
-0.0632362365722656
-0.0250614844262600
0.0243859235197306
-0.00568447867408395
-0.0244583114981651
-0.0249957218766212
-0.0382748730480671
-0.0209272932261229
-0.0149796232581139
-0.0280073266476393
-0.00572056556120515
0.00222523673437536
-0.0110513651743531
-0.0285495799034834
-0.0429716594517231
0.00598151562735438
0.0546250082552433
0.00590458326041698
-0.0399314835667610
-0.0290026664733887
-0.00652611348778009
0.0167508814483881
0.000649070192594081
-0.0200538672506809
-0.0156756024807692
-0.0227379351854324
-0.0354611724615097
-0.0222101751714945
-0.0119893867522478
-0.00552959227934480
-0.0344074480235577
-0.0390511490404606
-0.0222044866532087
-0.0239693578332663
0.0352705530822277
0.0188160687685013
0.0634898766875267
0.0670990645885468
0.0286562144756317
0.00745455594733357
0.00363674713298678
0.0358847640454769
0.0256680585443974
0.000678075826726854
-0.0211253613233566
-0.0357255004346371
-0.0388496480882168
-0.0445122197270393
-0.0372610650956631
-0.00436973851174116
-0.0311945490539074
-0.0270944852381945
-0.00970089994370937
-0.0128571409732103
-0.00754094123840332
-0.00824865885078907
-0.00682710018008947
-0.00155011226888746
-0.00211263867095113
-0.00204253522679210
-0.00321020488627255
0.00405596708878875
0.00641900114715099
-0.00348041881807148
-0.00103902863338590
0.00842120032757521
0.0144807882606983
0.00345958350226283
-0.00584239326417446
-0.000374132156139240
0.00601333146914840
0.00517622241750360
-0.00587684707716107
-0.00656214170157909
-0.000834639300592244
-0.00523491669446230
-0.00865367054939270
-0.00813076738268137
-0.00737712997943163
-0.00469315098598599
-0.00789757445454598
-0.0141038140282035
-0.0193700790405273
-0.0201054550707340
-0.00423124851658940
-0.000204988580662757
-0.00229616416618228
-0.0135538866743445
-0.0144872227683663
-0.00725976983085275
-0.00517723569646478
-0.000513190985657275
-0.00273259426467121
-0.0116608729586005
-0.0123141258955002
-0.0126954140141606
-0.00836164224892855
-0.00545426271855831
-0.00847714859992266
-0.0102900573983788
-0.00769797340035439
-0.00804452504962683
-0.0102369682863355
-0.00581727176904678
-0.0304312519729137
-0.0352728106081486
-0.0477617718279362
-0.0293800961226225
-0.0322111882269383
-0.0202403254806995
-0.0173395425081253
0.000588890921790153
-0.0134687134996057
-0.0280538741499186
-0.0267465133219957
0.00726099079474807
0.0543276891112328
0.0147046893835068
-0.0311613231897354
-0.0210098121315241
-0.00623237295076251
0.0128304222598672
-0.00957685988396406
-0.0222376771271229
-0.0173503588885069
-0.0181668158620596
-0.0287557337433100
-0.0207152049988508
-0.0198533888906240
-0.0345807299017906
0.0178955160081387
-0.0149777531623840
-0.0802980214357376
-0.0408101454377174
-0.0114302150905132
0.0431810617446899
0.0186909120529890
-0.00934932846575975
0.0214894935488701
0.0187305398285389
0.0539396069943905
0.0359171442687511
0.0436163917183876
0.0680517181754112
0.0161614567041397
0.0346844196319580
0.0364978052675724
0.0419858507812023
0.0295723509043455
0.0244152862578630
0.0114278392866254
0.0194991081953049
0.00274100177921355
-0.0135984523221850
0.0594776198267937
0.00363576714880765
0.00663419300690293
0.0453230589628220
0.0409017764031887
-0.00564234890043736
0.000191702478332445
0.00168723415117711
-0.00694441515952349
-0.00877108424901962
-0.0146671114489436
0.0195878185331821
0.00590937165543437
-0.0159176252782345
-0.0177923999726772
0.0297075882554054
0.0310960412025452
0.0108434362336993
0.0341804884374142
-0.00771382218226790
0.0756513699889183
0.0152694750577211
-0.0388031713664532
-0.0209424886852503
-0.0597253218293190
-0.0115216048434377
-0.0558044612407684
-0.0841099545359612
-0.146540820598602
-0.0690918266773224
-0.0443271398544312
-0.0498204790055752
-0.0539375543594360
-0.0390504598617554
0.0948382541537285
-0.0508861616253853
-0.0457608066499233
-0.175553128123283
0.00131549709476531
0.132013350725174
-0.128733098506928
-0.102841660380363
-0.245170682668686
-0.0847527608275414
-0.0330810546875000
-0.0429740995168686
0.0537024065852165
-0.267084479331970
-0.206111267209053
-0.0853071138262749
0.0122058950364590
0.0231090504676104
0.0201621353626251
0.0485452711582184
0.0367301404476166
0.0459397770464420
0.0167814418673515
-0.0528807714581490
-0.0107603538781405
0.00795547477900982
0.0453094653785229
-0.0250595081597567
-0.0826052501797676
0.00906671304255724
0.0142252231016755
0.0475426428020000
0.000540448003448546
-0.0134038906544447
0.0658079683780670
0.0441660732030869
0.0298058856278658
0.0175288449972868
-0.00690745143219829
0.0230159424245358
0.00504730781540275
-0.166383758187294
-0.166861832141876
-0.00244323653168976
-0.143023118376732
0.0376336574554443
0.220030248165131
0.0811491906642914
0.0648439750075340
-0.00373172224499285
0.0622558631002903
0.0746059566736221
0.0986296460032463
0.184305503964424
0.0793553516268730
0.0967274159193039
0.0122211277484894
-0.168692171573639
-0.0176088027656078
-0.0187414251267910
0.0538395009934902
0.0841263681650162
-0.0594920441508293
0.0372536219656467
0.0271743573248386
0.0854905918240547
0.0257277712225914
-0.0626216828823090
-0.0186159312725067
-0.0272703189402819
-0.0689327865839005
-0.0285023078322411
-0.0124426921829581
0.0248392038047314
-0.0235803611576557
-0.0174361653625965
-0.0137006714940071
0.113597601652145
0.0535000823438168
-0.0680584236979485
-0.0285348761826754
-0.0177919249981642
0.0974246561527252
0.0140943555161357
-0.0116524854674935
0.0369964465498924
-0.00979124847799540
-0.0190873686224222
-0.109678193926811
-0.0627262070775032
0.0272709745913744
0.183465749025345
0.180167526006699
-0.315552741289139
-0.304817944765091
-0.263869524002075
0.287565350532532
0.102161027491093
-0.534273743629456
-0.346308857202530
-0.372583955526352
0.273943871259689
0.297478944063187
-0.0710762366652489
-0.0693013370037079
-0.219783037900925
0.0427717566490173
0.0483428537845612
-0.177490234375000
-0.168963909149170
-0.0450558178126812
0.0709152370691299
0.0850713327527046
0.0151220085099339
0.00425292085856199
-0.0624994449317455
0.00740685127675533
7.42164556868374e-05
0.00475795147940517
0.00870710797607899
-0.000926574692130089
-0.0625687614083290
-0.0168793573975563
-0.0121730053797364
-0.0139877507463098
-0.0188520718365908
-0.0562347397208214
0.0289801005274057
-0.00145219906698912
-0.0241153836250305
-0.0157246422022581
-0.0477309226989746
0.0466998107731342
0.0254824571311474
0.0336957387626171
-0.00473248679190874
-0.0185042582452297
0.0273223556578159
-0.0133282234892249
-0.0189852602779865
-0.0409058891236782
0.0417415797710419
-0.0203096009790897
-0.0379333756864071
-0.0291043221950531
-0.0441997423768044
-0.0249560587108135
-0.0999011769890785
-0.145994991064072
-0.134914666414261
-0.157589450478554
-0.0441474206745625
-0.0849973559379578
-0.0775183439254761
-0.0626340582966805
-0.0792630761861801
0.0399887152016163
0.0239860378205776
0.0682558566331863
0.128507435321808
0.104597501456738
0.0671905130147934
0.0380490832030773
0.0669389963150024
0.0959267169237137
0.0425150021910667
-0.0235032197088003
-0.0444628410041332
-0.0144073497503996
0.00299783330410719
-0.0141513673588634
-0.0782072097063065
-0.00554473465308547
0.0312793627381325
0.0221407692879438
0.0265074335038662
0.00821561366319656
0.124494858086109
0.0960665866732597
0.0434119030833244
0.0476611629128456
0.00325239449739456
0.0889685526490212
0.0615761056542397
0.0957448557019234
0.0776613950729370
-0.000668249849695712
-0.0300806276500225
-0.0773567706346512
0.000544790411368012
0.0490517169237137
0.0646386817097664
0.0673660039901733
0.0679672509431839
0.0771927163004875
0.0655402615666390
0.00355494278483093
0.000674478942528367
0.00360069423913956
0.0117988977581263
0.00347929750569165
-0.0367931500077248
-0.0617694370448589
-0.0590685158967972
-0.0377849526703358
-0.0328565314412117
-0.000676044553983957
-0.0135193951427937
-0.00567119941115379
0.0171597395092249
0.00922022573649883
0.0157014559954405
0.0102475378662348
0.0182064343243837
0.0297147482633591
0.0169873684644699
0.00104134331922978
0.000347329187206924
0.000992435379885137
-0.000771319726482034
-0.000160415627760813
-0.000184549091500230
0.00113201711792499
-0.000492656079586595
-0.00136542785912752
-0.000446475663920864
9.49037057580426e-05
0.000280427135294303
-0.000667033018544316
-0.00161018152721226
-0.000660518941003829
-0.00168380734976381
-0.000696730567142367
0.000190605132956989
0.000621301704086363
-0.00131658941973001
-0.00113678688649088
0.00105981784872711
0.000100238226877991
-0.00161640380974859
0.000443541270215064
0.000535932078491896
0.000800152716692537
-0.000676739960908890
-0.00111893913708627
0.000232138991123065
0.000555505044758320
0.000407464045565575
-0.000837897823657841
0.00144083716440946
0.000974261725787073
0.00184913491830230
-0.000112953384814318
-0.000660960911773145
-0.000543195928912610
0.000143884288263507
-0.00147815817035735
-0.000655924261081964
0.00146498857066035
-0.000212353043025360
0.000142472898005508
0.000456459849374369
-0.00179969321470708
-0.000503012910485268
-0.000316994643071666
-0.000470570113975555
-0.0467386990785599
-0.00951007567346096
-0.0105208549648523
-0.0187783297151327
-0.00675710197538137
-0.0243648923933506
-0.00117121322546154
-0.0113292969763279
-0.00836775451898575
-0.00138082588091493
-0.0147823011502624
0.0153413908556104
0.00408879667520523
0.0104778287932277
-0.00189304514788091
-0.0178178921341896
0.0226069279015064
0.0180597305297852
0.0137041546404362
-0.00832444801926613
-0.00311157037504017
0.0182188097387552
-0.00167912640608847
-0.0179683808237314
-0.0326449535787106
0.0172446072101593
0.0192494802176952
0.0276403483003378
0.0253277644515038
0.0140795828774571
-0.0122062070295215
-0.000541945802979171
0.00495012989267707
0.00929107889533043
0.0102601321414113
-0.0270063597708941
0.00334592093713582
0.0118948426097631
0.0163452401757240
0.0190768782049418
-0.0300088487565517
-0.00132426945492625
0.00696709612384439
0.00899049174040556
0.0124970274046063
-0.0317724645137787
-0.0120962634682655
-0.0154198622331023
-0.0121743958443403
-0.00225383695214987
-0.00222892430610955
5.68898685742170e-05
-0.000608814356382936
8.21494249976240e-05
-0.000337254517944530
0.000193104831851088
-0.000151571992319077
0.00226992205716670
0.00132472871337086
0.000421126751461998
0.00196010060608387
0.000148391860420816
0.000922956387512386
0.000812938087619841
-0.000268048810539767
-0.000118109637696762
0.000386983534554020
2.57606679952005e-05
0.000786771764978766
0.00100928114261478
0.000696046452503651
0.000468089070636779
-0.000398275355109945
0.000348425935953856
-0.00117511732969433
-0.00531732523813844
-0.0170864704996347
-0.0250488128513098
-0.0404538773000240
-0.00976179633289576
0.0111638940870762
-0.0211670640856028
-0.0499333366751671
-0.0526240058243275
-0.0158744864165783
0.0149092301726341
-0.00778951076790690
-0.0470007508993149
-0.0517723225057125
0.00674280989915133
-0.0266333706676960
-0.0253502167761326
-0.0531288236379623
-0.0297802947461605
0.0401686206459999
-0.0145388627424836
-0.0316699482500553
-0.0582324378192425
-0.0231451112776995
0.0269178505986929
-0.132610917091370
-0.0397854857146740
-0.0262282211333513
-0.0379978194832802
0.0627646371722221
-0.0759825333952904
0.0726124048233032
-0.0567406155169010
-0.138852179050446
-0.0146723892539740
-0.186413452029228
-0.0282582771033049
-0.0802696049213409
-0.0353007428348064
0.0241449791938066
-0.199933916330338
-0.0306952074170113
-0.0597312375903130
0.0222316198050976
0.0600046478211880
-0.0982437208294869
0.0392525643110275
-0.0605863332748413
0.00491488119587302
-0.000481795548694208
0.00212665018625557
-0.000644385465420783
-0.00170369551051408
-0.00142107391729951
-0.000110957975266501
-0.000613070908002555
0.000184484713827260
0.000845883623696864
0.000757614790927619
-4.53423963335808e-05
-0.000580161344259977
0.000429482461186126
-0.000306913134409115
-0.000335303950123489
0.000111667373857927
0.00151648535393178
-0.000897228193935007
0.000260938366409391
-0.000531603873241693
0.000372124079149216
0.000110830995254219
-0.000586399342864752
0.000376885000150651
-0.000778681889642030
-0.000625275366473943
0.0286367628723383
0.00130715966224670
-0.0173648279160261
-0.0118542108684778
-0.000211440885323100
0.0390871055424213
-0.000302936387015507
-0.00335913174785674
-0.0307765658944845
0.00343168945983052
0.0310421660542488
0.00735861575230956
0.0444730482995510
-0.0215079151093960
-0.0138736860826612
0.0285394228994846
-0.00631369836628437
-0.00760459061712027
-0.0258837211877108
0.00400039041414857
0.0185853578150272
0.0344721339643002
0.0364733412861824
0.0319264344871044
0.0383744165301323
0.00867411494255066
0.0292387176305056
0.0360806845128536
-0.000784673786256462
0.00786727480590344
0.0116644995287061
-0.0106262639164925
-0.0345324948430061
-0.0721958577632904
-0.0460623800754547
-0.00147437513805926
-0.0215995945036411
-0.0303062722086906
-0.0817107260227203
-0.0180566515773535
0.0358286760747433
0.0148084117099643
0.0319145098328590
-0.0294017419219017
0.0615002699196339
0.0210802629590035
0.0315003767609596
0.0586575679481030
-0.00969647802412510
0.0965157225728035
0.0378984585404396
0.0153034208342433
-0.0849758014082909
-0.0644543692469597
-0.0108885541558266
0.0617881901562214
0.0569761395454407
0.108556523919106
0.158877715468407
0.102584034204483
-0.127899080514908
-0.158071503043175
-0.116383939981461
-0.0474537499248982
-0.0261727925390005
0.0804503411054611
-0.0103254541754723
0.0334303826093674
0.0873160436749458
0.0134785016998649
0.0835126340389252
0.0397613607347012
0.102304168045521
0.0960405170917511
-0.0322228297591209
-0.000726003898307681
-0.000113260080979671
-7.85738084232435e-05
-0.00173767225351185
-0.000174540109583177
0.000448043807409704
-0.000612446921877563
-0.000631122791673988
0.000567509443499148
0.00103764981031418
-0.000904264568816871
-0.000272687902906910
-0.000381539255613461
0.000538810680154711
-0.000353184354025871
0.000606705783866346
-0.000926947046536952
0.00197497685439885
0.000413448666222394
0.000699879135936499
-5.17349144502077e-05
-0.000648241606540978
2.59264870692277e-05
-0.000435949885286391
0.00146168656647205
0.000880889536347240
0.000403123471187428
0.00258123571984470
0.00213698833249509
0.00306313601322472
0.00566834164783359
0.00135105056688190
0.00360048003494740
0.00162241584621370
0.000248631928116083
0.00520970253273845
0.00370897469110787
0.00282162940129638
0.00285762152634561
8.07241012807936e-05
0.00787531957030296
0.00364044355228543
0.00285330950282514
-0.000321798201184720
-0.00211584055796266
0.00347875594161451
0.00451790634542704
0.00196193391457200
0.000417233211919665
-0.00209549977444112
-0.00737205985933542
-0.0458164513111115
-0.0672140643000603
-0.0740050375461578
-0.0478668324649334
0.0496448017656803
0.0501301027834415
-0.00988949742168188
-0.0153486393392086
0.0416468568146229
-0.00885181594640017
0.0165591258555651
-0.0529923103749752
-0.0542949028313160
0.0233448185026646
-0.0951285064220429
-0.00644065858796239
-0.0307576116174459
-0.0700590237975121
-0.0594565495848656
-0.0620338618755341
0.0454511940479279
0.0421503856778145
-0.0150142535567284
-0.0128240622580051
-0.000646112428512424
-0.000252162484684959
0.000362090708222240
-0.000996470218524337
-0.000558772939257324
0.000868673319928348
-0.000703999830875546
0.00104700156953186
0.00143214128911495
0.000516575761139393
0.000266366259893402
0.000407818908570334
-0.000829737342428416
0.000542729452718049
-0.00142323144245893
0.000809277524240315
0.000232931139180437
-0.000873559794854373
-0.00145240128040314
-0.000547952309716493
-0.00171567080542445
0.00123581569641829
0.00139707571361214
0.00144422973971814
0.000167452642926946
0.0196808613836765
-0.0130066918209195
-0.0176554173231125
-0.0232607200741768
-0.0245520677417517
-0.0219598766416311
-0.00216220226138830
0.00159635208547115
-0.00764844007790089
-0.00111670431215316
0.0171840712428093
0.0516126416623592
0.0198669731616974
0.00460606021806598
0.0134361088275909
0.0219870842993259
0.0494487062096596
0.0280575715005398
0.0391776785254478
0.00552690075710416
0.0171312410384417
0.0254638958722353
0.000774283485952765
-0.00655766250565648
-0.0304315295070410
0.0262158699333668
0.0877342522144318
0.0870657786726952
-0.0266325399279594
-0.0417352691292763
0.0340712256729603
-0.0381996035575867
0.00506030442193151
0.0519311577081680
0.0605957619845867
-0.00151303457096219
-0.0640556067228317
-0.0756785571575165
-0.0275483131408691
0.0827558115124703
-0.0171395540237427
-0.0517997443675995
-0.101888328790665
-0.0222736988216639
0.143363744020462
0.00661691417917609
-0.0636756643652916
-0.0830083340406418
0.0625121295452118
0.121860027313232
-0.0398553013801575
0.112441256642342
0.148585841059685
0.224068030714989
-0.0486747249960899
0.0207191053777933
-0.158923566341400
-0.196774289011955
0.172057926654816
0.0735561922192574
0.0379364155232906
0.0270206052809954
-0.0297913867980242
0.0670456141233444
-0.106640279293060
-0.199384555220604
-0.117282718420029
-0.120917513966560
0.163297027349472
0.00398582220077515
0.207649290561676
0.295356720685959
0.194140985608101
0.328773975372314
-0.0457269810140133
-0.0391543656587601
-0.00942448806017637
0.0345036014914513
0.0264243111014366
0.0149422120302916
-0.0363422892987728
-0.00777165265753865
0.0160558782517910
0.0228211320936680
0.0394458547234535
0.000184726959560066
0.0179047267884016
-0.0135378763079643
-0.0234541893005371
0.0145728681236506
-0.0213775169104338
0.00452190032228828
-0.0254581160843372
-0.0113576725125313
0.00714866630733013
-0.0176773518323898
0.00349168968386948
-0.0188253261148930
0.00515453517436981
0.0550500340759754
0.0581756904721260
0.0359495580196381
0.0467281974852085
-0.0672396570444107
0.0350463986396790
0.105852924287319
-0.119100429117680
-0.137097328901291
-0.146386861801147
-0.0639446973800659
0.184736698865891
-0.0112719880416989
-0.0432177297770977
-0.199275717139244
-0.0433375127613544
-0.00667337002232671
-0.155209943652153
-0.282085806131363
-0.161197766661644
0.000524577451869845
0.0942088738083839
0.0966360494494438
0.149537876248360
0.0399782322347164
-0.0295828767120838
0.135398536920547
0.0484901033341885
-0.0610437020659447
-0.0288601107895374
0.0177076794207096
-0.0402336418628693
-0.0332078635692596
-0.122210606932640
0.0115705719217658
0.0484810881316662
-0.0348661355674267
-0.0375859141349793
-0.141200482845306
-0.0563028864562511
-0.0135203264653683
0.0988064929842949
0.00942471437156200
-0.0875109657645226
-0.0470531322062016
-0.0110082970932126
0.182474896311760
0.0409180372953415
0.0809453427791596
0.102122418582439
0.00663575809448957
-0.00526150688529015
0.122048527002335
0.0983661711215973
0.0156736988574266
0.107267610728741
-0.0785538330674171
-0.0422361679375172
-0.0185032207518816
0.0249371360987425
-0.00433934293687344
0.162309527397156
0.0789858549833298
0.172364175319672
0.167958900332451
-0.0266273673623800
-0.0242392327636480
-0.0366512946784496
0.0348340719938278
0.00715215504169464
-0.251163214445114
-0.108492173254490
-0.189874485135078
-0.289377152919769
-0.122204340994358
-0.105878762900829
0.0683360621333122
0.0198000501841307
0.0169669631868601
0.0778220221400261
0.0266776345670223
0.0557883419096470
0.0365350209176540
-0.0217310748994350
-0.0534693971276283
-0.0843625441193581
0.0238659884780645
0.00336901005357504
-0.0199381411075592
-0.0479520820081234
-0.0771320238709450
-0.00708333356305957
-0.0334462039172649
-0.0427523590624332
-0.0463106147944927
-0.0164025314152241
-0.0428701750934124
-0.0701082721352577
-0.0524220839142799
-0.0336209610104561
0.0108793741092086
-0.0596020407974720
-0.103646151721478
-0.185605898499489
-0.200677379965782
-0.102466575801373
-0.0348804891109467
0.114662833511829
0.113879352807999
-0.0164671912789345
-0.0571240261197090
0.129620254039764
0.219079047441483
0.0291049368679523
0.0111265284940600
0.0204097237437964
0.0132841030135751
-0.178744390606880
-0.117312036454678
-0.0104197245091200
-0.0185963809490204
0.163170129060745
-0.0283602569252253
0.0929428413510323
0.117115914821625
0.112636469304562
-0.0862559899687767
-0.00834716670215130
0.0648363456130028
-0.104575835168362
-0.0350863486528397
0.0118591571226716
0.128006324172020
0.299736410379410
0.0905977636575699
0.104751549661160
-0.129483863711357
0.00172405911143869
0.143755301833153
-0.0622395016252995
-0.0409126430749893
-0.124435096979141
-0.0554272271692753
0.0388017371296883
-0.0416480749845505
-0.110141545534134
0.00426706578582525
-0.0642370283603668
0.122326716780663
0.0364266224205494
-0.156742006540298
0.00247544003650546
0.0924104750156403
-0.0477479100227356
0.0827221423387528
0.113747864961624
0.0912293270230293
0.113729842007160
-0.00624517584219575
0.0974309295415878
-0.0174068156629801
0.0625074431300163
0.0181409623473883
-0.127277925610542
0.100957199931145
-0.0197074543684721
0.127962440252304
0.202803537249565
0.0266849230974913
0.269124060869217
0.172097101807594
0.0548356771469116
0.108945056796074
-0.134628295898438
0.000703666999470443
-0.132496789097786
0.0178459603339434
0.0276071783155203
0.0208359956741333
0.0150414342060685
-0.00551120936870575
-0.0414771959185600
-0.0174302738159895
-0.00988480169326067
-0.0138875469565392
-0.0520694404840469
-0.0326693058013916
-0.0206945501267910
-0.0154112707823515
-0.00445429282262921
-0.0266268756240606
-0.0302834063768387
-0.0276249740272760
-0.0249379854649305
-0.0180104281753302
-0.0282661300152540
0.0220994204282761
0.0278410259634256
0.0288690216839314
0.0439720377326012
0.0435134358704090
0.000204504001885653
-0.000174288899870589
-0.000986216007731855
0.000179573427885771
0.00116301630623639
-0.00104454683605582
0.000586556852795184
-0.000174250119016506
-0.000781392503995448
0.000636044715065509
-0.000923740444704890
-0.00145153771154583
0.000460022216429934
0.00134664168581367
0.00126882758922875
-0.00153329805471003
-0.000487984885694459
-0.00180123466998339
1.70384137163637e-05
0.000470552069600672
-0.000140164906042628
0.000486568635096774
1.31860724650323e-05
0.000242934911511838
0.00143515039235353
-0.0284759663045406
-0.0217418149113655
-0.0291191227734089
-0.00652092508971691
-0.0112501997500658
-0.000499240180943161
-0.0195668675005436
-0.0395604558289051
-0.0156145412474871
-0.0415997803211212
-0.0196313802152872
-0.00717245927080512
-0.00397745240479708
0.0343619063496590
0.00493360264226794
-0.0341584049165249
0.0103340409696102
0.0119976755231619
0.0423476137220860
0.0315214134752750
-0.0171221457421780
0.0257673878222704
0.000315921148285270
0.00122462806757540
0.000821179768536240
-0.0212149862200022
-0.0360028482973576
-0.0362473800778389
-0.0164334289729595
-0.0132283121347427
-0.00879341736435890
-0.0147500997409225
-0.0143842967227101
-0.0226699318736792
-0.0265520829707384
-0.0142456451430917
0.0221319310367107
0.0519030354917049
0.0235739760100842
0.00936257932335138
-0.0219276174902916
0.0132124312222004
0.0236398093402386
-0.00278026121668518
0.0204033087939024
-0.00248615629971027
0.00847884546965361
-0.0114952865988016
-0.0187838282436132
0.0221391916275024
-0.103711970150471
0.0632579028606415
0.220177948474884
0.0407685898244381
0.0402906909584999
-0.0721510276198387
-0.0509277507662773
0.165550276637077
-0.128971263766289
-0.197367668151855
-0.125519379973412
-0.0151521433144808
0.186488926410675
-0.211534351110458
-0.0872999876737595
-0.147463649511337
0.0948972851037979
0.323858886957169
-0.0323738418519497
0.0119275208562613
-0.100192420184612
0.0419938527047634
0.216558948159218
-0.0710544735193253
0.123848602175713
-0.0276353172957897
-0.00723078614100814
0.0636524632573128
0.0604164376854897
-0.00470244791358709
-0.0497565083205700
-0.0141748851165175
0.0314548611640930
0.0223643053323030
-0.00945989973843098
0.00935128051787615
0.0636412501335144
0.0435079932212830
-0.00596029963344336
-0.0154903521761298
-0.0130856763571501
0.0450452528893948
0.0286387912929058
0.0439751967787743
0.0227210782468319
-0.0242137555032969
-0.0126482928171754
-0.0454537868499756
0.00244923518039286
0.0393475368618965
0.00192097341641784
-0.000328388065099716
0.000758680049329996
0.00117087247781456
-0.000343263673130423
0.00106350297573954
0.000371778063708916
0.000107985608337913
-0.000995900249108672
0.000144513265695423
6.81967649143189e-05
-0.000375065865227953
0.000557051447685808
-0.000469785445602611
0.00105950643774122
0.00236705085262656
0.00123341928701848
0.000625492830295116
0.000208325145649724
-0.00145045190583915
-0.000353276642272249
0.000562521163374186
-0.000787589931860566
-0.000536728068254888
-0.00142338033765554
-0.00130484835244715
0.00239206501282752
-0.000163756310939789
-0.00102763285394758
0.000483987212646753
0.000238328459090553
-0.000408513704314828
0.00128756847698241
-0.00134584202896804
-9.01035673450679e-06
0.000119443189760204
-0.000383020407753065
0.000898947706446052
0.00139967340510339
0.000271373777650297
0.000758395821321756
0.00127792730927467
0.00170170317869633
-0.000153851433424279
0.00194072327576578
-0.000478352187201381
0.000672178808599711
0.00146049563772976
0.000564715126529336
-0.000427532824687660
-0.230740055441856
-0.276703506708145
-0.0710290223360062
-0.0217946209013462
-0.0411234386265278
0.129264920949936
-0.0401494428515434
0.102919392287731
0.0715020969510078
0.144870713353157
0.0357207581400871
-0.00594057235866785
-0.00780062470585108
0.0155879743397236
0.159035980701447
-0.0574863068759441
-0.145257204771042
-0.213346615433693
-0.138541325926781
0.0617665015161037
0.0415006875991821
-0.0156158655881882
-0.000551644421648234
0.0267688948661089
-0.0409458875656128
0.00147382670547813
-0.0880034640431404
-0.0955056846141815
-0.115877829492092
-0.0943254306912422
0.0879800245165825
0.195028692483902
0.157059326767921
0.00945718865841627
0.0860494896769524
-0.0836058184504509
0.00790164247155190
0.0971659198403359
-0.104746118187904
0.0456001237034798
-0.0909691676497459
-0.0897516459226608
-0.0348971448838711
-0.100335322320461
0.000774015206843615
0.0747582837939262
0.0452093593776226
0.0793899893760681
-0.0226226411759853
0.0300859045237303
-0.00122786790598184
0.00131398730445653
-0.000105698985862546
0.000551779870875180
0.000891426636371762
-0.00170590681955218
-0.00156157684978098
-0.000190427061170340
0.000440545845776796
0.00106542336288840
-0.00101616699248552
0.000106338127807248
-0.000507593969814479
0.000533006154000759
-0.00116614939179271
-0.000604391214437783
8.20390851004049e-05
-2.58902546192985e-05
-0.000474762957310304
-0.000370598398149014
-0.00194734334945679
0.000553309917449951
-0.000531130935996771
0.000536236504558474
0.000409573316574097
0.0468444786965847
0.0951479151844978
0.0225409828126431
0.0377115197479725
0.0602053478360176
0.0197387728840113
0.0473308451473713
0.00287524447776377
0.0559038668870926
0.0940080732107163
-0.0161160416901112
0.00947249773889780
-0.0309804845601320
0.0481764078140259
0.103864781558514
-0.0316534787416458
-0.00348966312594712
-0.0686609372496605
-0.0452543273568153
-0.0298195872455835
3.11761468765326e-05
0.0257833134382963
-0.0646321922540665
-0.0407285988330841
-0.0107951257377863
0.00748367514461279
0.0655589178204536
-0.0647483095526695
0.000718780560418963
-0.0103041930124164
-0.0723084434866905
0.168406546115875
-0.0464757084846497
-0.268355846405029
-0.266775220632553
4.06556282541715e-05
0.199803799390793
0.228534355759621
0.150660425424576
0.187888577580452
-0.302054584026337
-0.221730113029480
-0.156131267547607
-0.240738719701767
0.0735237523913384
-0.0714437440037727
0.0908718183636665
0.0394564494490624
0.0276900082826614
-0.0322080478072166
0.00244673644192517
0.00269172503612936
0.00158240483142436
0.000275299564236775
0.00252558547072113
0.00308627216145396
0.00266911438666284
0.00106008944567293
0.00185495556797832
0.00354446494020522
0.00630400888621807
0.00471336115151644
0.00334533699788153
0.000772440165746957
0.00303182867355645
0.00906971376389265
0.00823239609599114
0.00364684173837304
0.00328496098518372
0.000197743400349282
0.00830672774463892
0.00599739374592900
0.00551232136785984
-0.000103106918686535
0.000469702412374318
-0.0611729621887207
0.00199134927242994
0.00733145931735635
-0.0129963224753737
0.00498344888910651
-0.00878335535526276
0.0237015988677740
0.00797945633530617
0.00362218823283911
0.0171132460236549
-0.0144057245925069
0.00485019199550152
0.00105653423815966
0.00680277496576309
-0.00741260033100843
0.00516724959015846
0.00593695556744933
-0.00266215601004660
-0.00367740890942514
-0.0257760956883430
0.00166962854564190
-0.0208672415465117
-0.0293487925082445
-0.0199590027332306
6.60783844068646e-05
0.00111513328738511
0.000661536294501275
0.00107202795334160
-5.58348474442028e-05
-0.000946594693232328
0.00139740051236004
0.000735848152544349
-0.000787040975410491
-0.00141353043727577
-0.00226620095781982
-0.000545302871614695
0.00113728339783847
-0.000663788872770965
-0.00114531943108886
-0.00145699852146208
0.000449059414677322
0.000253079371759668
0.000929296249523759
4.33817804150749e-05
-0.00133642519358546
0.00153818028047681
0.00156093225814402
3.32984891429078e-05
-0.000752951367758215
0.000177536174305715
0.0108252083882689
-0.0633911043405533
0.000598277722019702
0.0369743295013905
-0.0152771351858974
-0.0986398383975029
-0.0574607811868191
-0.0157942082732916
-0.0257598571479321
-0.0195651985704899
-0.0869930535554886
0.0890129953622818
0.0555166341364384
-0.0313089825212956
0.0134650329127908
-0.123088531196117
0.0822515189647675
0.0557394064962864
0.0678651407361031
0.0766708701848984
-0.0500623732805252
0.0352730974555016
-0.0358927138149738
-0.00932366121560335
0.0117865232750773
0.0642978847026825
0.0326171964406967
-0.192636102437973
0.0979231372475624
0.105086110532284
0.0727094039320946
-0.0705615282058716
-0.333703815937042
-0.0335335806012154
-0.00400514062494040
0.0559777095913887
-0.0276492349803448
-0.389050453901291
0.109120137989521
0.201631128787994
0.0444004312157631
0.0226067360490561
-0.218537777662277
0.242373451590538
0.156383648514748
0.0915357023477554
-0.0658884346485138
-0.231724023818970
0.0745517387986183
0.102527350187302
-0.0116360550746322
-0.0304713044315577
-0.0220878068357706
-0.00708633987233043
0.00252559105865657
-0.0369385965168476
-0.0388490967452526
-0.0197299998253584
-0.0309439431875944
-0.0266018565744162
-0.0605492629110813
-0.00870783440768719
0.0421237684786320
0.00323373218998313
-0.00980965141206980
-0.0643517300486565
0.000285387999610975
0.0287959426641464
-0.00465403450652957
0.0255723446607590
-0.0492589063942432
0.00105054699815810
0.000259693741099909
-0.0257103256881237
0.0439858660101891
-0.00469374004751444
0.0188382621854544
0.0207071229815483
-0.0149810090661049
-0.0459556318819523
-0.00652535073459148
0.00855069048702717
0.00473848357796669
-0.0163688715547323
-0.0377702377736568
0.0154927261173725
0.0416893288493156
0.00901345722377300
-0.00907446164637804
-0.00653781136497855
-0.00897537916898727
0.0454795248806477
0.0382955409586430
0.0420057065784931
0.0121934078633785
0.0199735984206200
0.0506853945553303
0.0325766652822495
0.0115719120949507
-0.0404833145439625
0.00274723325856030
0.0109867630526423
0.00297826854512095
-0.00535384565591812
-0.000391973997466266
0.0379360876977444
0.00211727409623563
-0.0172504987567663
-0.00513256853446364
0.0228801500052214
0.0415744185447693
-0.00181941746268421
-0.0153975868597627
0.00236058072187006
0.0406960323452950
0.0196856446564198
0.00558930728584528
0.0202191974967718
0.0462674424052238
0.0920653566718102
-0.0542739257216454
-0.0566218085587025
-0.0384659357368946
-0.0404597111046314
0.00165590213146061
0.0465475544333458
0.0888605788350105
0.0839116200804710
0.0315996296703815
0.0137472441419959
0.0231689848005772
-0.0106036067008972
-0.00169567158445716
0.0232886075973511
0.00902648922055960
-0.0301378127187490
-0.0383131504058838
-0.0276967901736498
0.00199329713359475
0.0568014569580555
-0.0272635854780674
0.00133518979419023
-0.0143124628812075
0.00338252214714885
0.0677110701799393
0.0117751676589251
-0.0293532758951187
-0.00453843176364899
0.0285858549177647
-0.00631604623049498
-0.0200719628483057
-0.0408713594079018
0.0207481719553471
0.0617350190877914
0.0318920239806175
-0.0944804325699806
-0.0367927551269531
0.0158223733305931
0.0158782433718443
0.0238554775714874
-0.0653586760163307
0.0559813492000103
0.0490664355456829
-0.00654328661039472
0.00313585693947971
-0.0394581034779549
0.0526990890502930
0.0358141064643860
0.0569607876241207
0.0456420257687569
-0.00876423530280590
-0.0416325218975544
-0.0792798250913620
0.00976510904729366
0.0684212520718575
0.0461214222013950
0.0539410561323166
0.0305968075990677
0.0191975217312574
0.0285855792462826
0.0295960642397404
0.00519993435591459
0.0351734906435013
0.0581454485654831
0.0285589117556810
-0.0733979567885399
-0.0875310152769089
-0.0122902560979128
-0.0385037697851658
-0.138466328382492
0.131897240877152
0.0420573130249977
-0.0748620480298996
-0.0418109893798828
0.0645690709352493
0.0720816478133202
-0.0795194730162621
-0.153103858232498
-0.170759811997414
-0.204543963074684
-0.180681347846985
-0.111638478934765
-0.115547992289066
-0.117626912891865
-0.0580901913344860
-0.0135458065196872
0.102744795382023
0.0986447781324387
0.0494567342102528
0.110400445759296
0.0376725867390633
0.185527920722961
0.0685908645391464
-0.0790262967348099
-0.0144757805392146
-0.0548472516238689
0.0125725734978914
-0.105601310729980
-0.0592942275106907
0.0589588880538940
-0.109397128224373
0.0298741143196821
-0.0271453931927681
0.0145640727132559
0.0805415287613869
0.105719439685345
-0.0156642608344555
-0.0492446906864643
-0.0719214156270027
-0.133972525596619
0.0616486594080925
-0.0726140812039375
-0.158680796623230
-0.151152208447456
-0.157839491963387
0.0246182996779680
-0.0340229533612728
-0.0593172796070576
0.00403152173385024
-0.0409464314579964
0.0794283300638199
0.0402227602899075
-0.0274405460804701
0.00168969226069748
-0.125249966979027
-0.0730310380458832
-0.0449326597154141
-0.0448700264096260
0.0553887970745564
0.00261833937838674
-0.107923448085785
-0.101306110620499
-0.0383004657924175
0.00879531074315310
0.0163137875497341
-0.0600855126976967
-0.0278132110834122
-0.0138734327629209
-0.0448886826634407
-0.00577108468860388
-0.00157378264702857
0.0919382125139237
0.0628081858158112
-0.0271286424249411
-0.00438178610056639
-0.0933204367756844
-0.00426650792360306
-0.0332424156367779
-0.00702242366969585
0.0461768284440041
-0.0111858611926436
0.0227712225168943
0.0237366314977407
0.0909814387559891
0.114824399352074
0.0147238289937377
-0.0450178124010563
-0.0314592458307743
0.0102633032947779
-0.0316752940416336
0.0108375037088990
-0.0183144491165876
-0.0164817050099373
0.0368263572454453
0.0428873896598816
0.000303389970213175
-0.0134566929191351
-0.0325576253235340
-0.00616769632324576
0.0262010730803013
0.0111720673739910
0.0324171595275402
0.0189246945083141
0.0139823164790869
0.0154556911438704
-0.0146233541890979
0.0168860722333193
0.0102149927988648
0.00370003236457706
0.00191396160516888
0.00964930653572083
0.0158136207610369
0.0313127487897873
0.0516983307898045
0.0598963089287281
-0.00222593639045954
-0.00931297801434994
0.0517450869083405
0.0677308738231659
0.0386369973421097
-0.0169295333325863
-0.0124446228146553
0.106876872479916
0.109286569058895
0.0460427775979042
0.00546658085659146
-0.0248628333210945
0.0546473003923893
0.0520355254411697
0.000607891182880849
0.0343593843281269
-0.0347492657601833
-0.0106783891096711
0.000731552718207240
-0.0146859297528863
0.0596053302288055
0.0197789054363966
0.000511421239934862
-0.0756130963563919
-0.0358558483421803
0.0517654791474342
-0.00701475469395518
0.0131989801302552
-0.0539750345051289
-0.0992962494492531
0.0385581664741039
0.0569570176303387
-0.0624954737722874
0.00315254717133939
-0.0209074597805738
0.00483859004452825
0.0531110875308514
0.0247443560510874
-0.0289940461516380
-0.0636256411671639
0.0766977965831757
0.0208249781280756
0.0132331997156143
-0.0463837273418903
-0.0475738495588303
0.0108550274744630
0.0254993252456188
0.0199589654803276
0.0480973608791828
0.0366553179919720
0.0413370132446289
0.0164673402905464
-0.0521500892937183
-0.0133639592677355
0.00564440805464983
0.0445575453341007
-0.0222966894507408
-0.0831041559576988
0.00916638225317001
0.0152437081560493
0.0469041466712952
0.00291765853762627
-0.0154725350439549
0.0633335188031197
0.0426148399710655
0.0285743065178394
0.0170712843537331
-0.00520798936486244
0.0219209548085928
0.00665028765797615
-0.00258860574103892
0.0305123850703239
-0.0149175953119993
-0.0219295918941498
0.0441770441830158
0.00824193470180035
0.0334128104150295
0.0121298860758543
-0.0193290431052446
-0.0298098661005497
0.0466193631291390
0.00646757101640105
-0.0141215017065406
-0.0848104208707809
-0.0454382561147213
-0.0485850647091866
0.0375742651522160
-0.0341146551072598
-0.0521665699779987
0.0534764565527439
-0.0519716925919056
0.0269027072936296
-0.0315852649509907
-0.0896064341068268
0.0118721649050713
0.00332182482816279
-0.0701452493667603
-0.0351500436663628
-0.0474797822535038
-0.0787317454814911
0.0212374720722437
-0.0779707804322243
0.0381044968962669
-0.0206802636384964
-0.0800995901226997
0.00199191272258759
-0.000142396951559931
0.137073114514351
0.0175902321934700
-0.0865451171994209
-0.0321387909352779
-0.0326598025858402
0.0810985341668129
-0.0190091934055090
-0.0860032066702843
0.0152766210958362
-0.0728028640151024
-0.0422632098197937
-0.0331192873418331
-0.0418778136372566
-0.145219489932060
0.116210214793682
-0.143269345164299
-0.0253705997020006
-0.00700238859280944
-0.0168103650212288
0.116785876452923
-0.302085548639298
0.0605002231895924
0.0917012691497803
0.00413333065807819
0.0502647608518600
0.136205956339836
0.0938719213008881
0.0246954858303070
-0.0121650118380785
-0.0118764992803335
-0.0243508908897638
-0.0556502342224121
-0.00192608137149364
-0.0448125340044498
-0.0171817261725664
-0.00505109876394272
-0.0104558030143380
0.00832928996533155
0.0104735735803843
0.0183471478521824
0.0281850863248110
0.0283523555845022
0.0223481971770525
0.0329042933881283
0.0251396447420120
0.0466801635921001
0.0557871237397194
0.0496555790305138
0.0184229202568531
0.00461963610723615
0.0442709103226662
0.0526154562830925
0.0303458385169506
0.0230497084558010
0.0141217410564423
0.0297950189560652
0.0371644720435143
-0.00416910788044334
0.0274437144398689
-0.0181417427957058
-0.0209858920425177
0.0168452728539705
0.0203015320003033
0.0341351777315140
-0.0428632572293282
0.0225900616496801
0.0641100183129311
-0.00300355255603790
