-0.00800509005784988
-0.0319864712655544
-0.0160788800567389
-0.00344793265685439
0.0154969748109579
-0.00960518512874842
0.0231218189001083
0.0392241887748241
-0.0577242709696293
-0.00623356504365802
-0.0531711652874947
0.00697474880144000
0.166843637824059
-0.000156699519720860
-0.00908192526549101
-0.0101956315338612
-0.0730898827314377
0.00802887044847012
-0.0218832958489656
-0.0259887278079987
0.0452774502336979
0.0140633722767234
-0.00799090228974819
-0.00944988708943129
-0.00369152612984180
-0.00616497267037630
-0.00689184572547674
-0.00874550547450781
-0.00754795037209988
-0.00329125043936074
-0.0116051724180579
-0.0150336604565382
-0.00167631462682039
-0.0146109107881784
-0.0114962002262473
-0.0125723369419575
-1.76205958268838e-05
0.0678719431161881
0.00204005255363882
-0.00881490949541330
-0.0100094610825181
-0.0115900244563818
0.00118597666732967
-0.00980892498046160
-0.00575525779277086
-0.00531011447310448
-0.00921260286122561
-0.0137613713741302
-0.0108990957960486
-0.00710201775655150
-0.000437924696598202
-0.0250780452042818
0.0161080770194531
-0.00635669054463506
-0.0161667317152023
-0.0170693416148424
-0.108722761273384
-0.0113372793421149
-0.0280166864395142
-0.0410194918513298
0.0235481690615416
-0.00710994843393564
0.159804999828339
0.0230224709957838
-0.00179973617196083
-0.00183303456287831
-0.00513510545715690
0.0601252727210522
0.000921927392482758
-0.00259261461906135
-0.0140040079131722
-0.0553657300770283
-0.0210306923836470
-0.0259670838713646
-0.0162956919521093
-0.00992799084633589
-0.00373191107064486
-0.00440728059038520
-0.0154762510210276
-0.0153659582138062
-0.0195442810654640
-0.0163747239857912
0.00866318959742785
-0.00952651817351580
-0.0277838818728924
-0.0184067934751511
0.0127456272020936
0.100751988589764
0.00883772317320108
-0.0146208796650171
-0.00855999719351530
0.00929918233305216
0.0201604142785072
-0.000598365499172360
-0.00874151848256588
-0.00422968575730920
-0.00919268280267716
-0.0130876153707504
-0.0227972753345966
-0.0104716671630740
0.00346161285415292
0.0355955958366394
0.0480844490230084
0.0325209386646748
0.00759709440171719
0.0244637206196785
-0.0443095043301582
-0.0792556181550026
-0.0440616570413113
0.0279344078153372
0.0425673201680183
-0.0655114799737930
0.142361074686050
-0.0778871029615402
0.0441318675875664
0.0228444952517748
-0.0240147970616817
-0.0494738444685936
-0.0273307077586651
0.0230095852166414
-0.00513362977653742
0.00970712024718523
0.0375589877367020
0.0124319922178984
-0.00498469546437264
-0.00128427450545132
0.00372054195031524
0.00180137506686151
0.00618712184950709
-0.000662935432046652
0.00563961034640670
-0.0163572318851948
-0.0125477677211165
-0.0145109957084060
0.00510414643213153
0.00342792039737105
-0.0121720843017101
0.0681418403983116
-0.0106994612142444
0.000234163453569636
0.00595016218721867
-0.0147820552811027
-0.0146272471174598
-0.0154821109026670
0.00456795236095786
-0.00164345826487988
0.00641808984801173
0.00226773670874536
0.00647072819992900
-0.00128855893854052
0.0248292312026024
-0.000603960186708719
-0.0250220466405153
-0.0410765297710896
-0.00114680523984134
-0.000268153031356633
-0.0426714085042477
0.0136576928198338
0.00188839680049568
-0.00486914208158851
-0.0133479954674840
0.00681689660996199
0.171636030077934
0.0312158688902855
-0.0358846932649612
-0.0283207427710295
-0.00873742066323757
-4.60396149719600e-05
-0.0939125269651413
-0.000400335935410112
-0.00224511441774666
-0.00858300272375345
-0.0386622138321400
0.0103993639349937
0.0593056604266167
-0.00160962529480457
-0.00319453980773687
-0.00603583827614784
-0.00377694889903069
0.000332019058987498
-0.00497314101085067
-0.0127280252054334
0.000395940121961758
-0.0108434837311506
-0.00684753945097327
-0.00658476771786809
0.000800575653556734
0.0727290958166122
0.00397307286038995
-0.00561099685728550
-0.00326563720591366
-0.0101764472201467
0.00105352338869125
-0.00742493756115437
-0.00198730663396418
-0.00140947243198752
-0.00487879384309053
-0.00969044677913189
-0.00523531110957265
-0.00339290942065418
-0.00569308223202825
-0.00612676935270429
-0.00650489190593362
-0.00869316328316927
-0.00535873742774129
-0.0135750379413366
-0.0121664758771658
0.00268319924362004
-0.0161622129380703
-0.0128409387543798
-0.0143983522430062
0.0100990179926157
0.0870921686291695
0.00467200577259064
-0.00836118590086699
-0.00803687423467636
-0.00235255295410752
0.0106517085805535
-0.00410744221881032
-0.00378885399550200
-0.00353812100365758
-0.0103144478052855
-0.0181100852787495
-0.0132660968229175
-0.00816675741225481
-0.00258189905434847
0.00590959377586842
0.00860975962132216
0.00429018866270781
0.00269849831238389
-0.00875007547438145
-0.00788949150592089
-0.0297902114689350
-0.0271560475230217
0.00274618831463158
-0.00101487932261080
0.00435296073555946
0.0947249233722687
-0.0251449812203646
0.0166254453361034
0.00327856489457190
-0.0111801028251648
-0.0208721850067377
-0.0206067878752947
0.0125736538320780
-0.00509587675333023
0.00347380409948528
0.000862654764205217
-0.00203688698820770
-0.000765709846746177
-0.00347556802444160
-0.00547229219228029
0.00164299830794334
-0.00842882134020329
-0.00500169256702066
-0.0104737840592861
-0.00863084383308888
0.00847453530877829
-0.00805889070034027
-0.00832181610167027
-0.00273569091223180
0.00476217083632946
0.0579934380948544
0.00396061548963189
-0.000704165548086166
-0.00189008016604930
0.000543145695701242
0.0138585865497589
-0.00649318704381585
-0.000954711344093084
-0.00567484414204955
-0.0118440380319953
-0.00121173844672740
-0.0150042138993740
-0.00830025132745504
-0.000296378537314013
-0.000255450722761452
-0.000306398695101962
-0.000299861683743075
-0.000285214831819758
-0.000276341073913500
-0.000270439893938601
-0.000295132922474295
-0.000271734519628808
-0.000229812518227845
-0.000314754288410768
-0.000274514546617866
0.0311270691454411
-0.000268759933533147
-0.000334435520926490
-0.000302573957014829
-0.000253503443673253
-0.000238354448811151
-0.000263122434262186
-0.000288528681267053
-0.000312955584377050
-0.000256226951023564
-0.000260936008999124
-0.000249487260589376
-0.000223058043047786
0.00797316152602434
0.00240114843472838
0.00208685151301324
0.00190923514310271
0.00126291322521865
0.00860439613461494
-0.0274419542402029
-0.00848103687167168
-0.0197184905409813
-0.00457860575988889
0.00806984398514032
-0.0130796032026410
0.0723869875073433
-0.000618090911302716
-0.00169980409555137
0.00578172551468015
-0.0273130722343922
-0.0107716778293252
-0.0209732931107283
-0.00191607011947781
0.00449765240773559
0.00250551570206881
0.00329452194273472
0.00533847417682409
0.00402693776413798
0.00242317141965032
0.00380618451163173
-0.00600615562871099
0.00289447326213121
0.00163302093278617
0.0148742049932480
0.0154032325372100
0.00770372850820422
0.0154121611267328
0.0128141846507788
-0.000946087064221501
0.00665827514603734
0.0507257468998432
-0.00322039960883558
-0.00917517207562923
0.00354710896499455
0.00851713865995407
0.00603824760764837
0.00137299264315516
-0.00650585722178221
0.0181141104549170
0.0187204070389271
0.0138940596953034
0.0165222380310297
0.0128803513944149
-0.00124615780077875
-0.0361261367797852
-0.00998059194535017
-0.00136539177037776
-0.0118897696956992
-0.00930344592779875
-0.0283574294298887
0.00147237081546336
-0.0311179365962744
-0.0107141202315688
0.00588109483942390
-0.0118632800877094
0.168854191899300
0.0329312197864056
-0.0189074389636517
0.00388510595075786
-0.0500854104757309
-0.0135035188868642
0.000892031937837601
-0.0463809259235859
-0.00124451506417245
-0.00664342334493995
0.00346366781741381
-0.00862266495823860
-0.00831809639930725
0.000416329450672492
0.00426325993612409
0.000100822071544826
0.00487112300470471
0.000536032137461007
0.00660759024322033
-0.0160941462963820
-0.0113634699955583
-0.0149465315043926
0.00393724068999291
0.00306308595463634
-0.0116969970986247
0.0671050101518631
-0.00955630652606487
-0.00169122184161097
0.00614895531907678
-0.0155070163309574
-0.0142698837444186
-0.0157173555344343
0.00393662601709366
-0.000149162151501514
0.00655095046386123
0.00158591265790164
0.00697901239618659
0.000661925121676177
0.00338590703904629
0.00299642980098724
-0.00569572113454342
-0.00620538927614689
-0.00205577001906931
-0.00660924520343542
-0.00860526598989964
0.0135329421609640
0.00366950337775052
-0.0107905128970742
-0.0122192325070500
0.0165988951921463
0.103908360004425
0.0148725407198071
-0.00547486916184425
-0.00984823051840067
0.00530621502548456
0.0166793446987867
0.00498848455026746
-0.000507857708726078
-0.00954670459032059
-0.0191217456012964
-0.0195492655038834
-0.0134241525083780
-0.000310373055981472
-0.00560027454048395
-0.00750683201476932
-0.0117076132446527
-0.0203529838472605
-0.00718991830945015
-0.0136726470664144
-0.0118726417422295
0.00723588187247515
-0.0153367677703500
-0.0225797276943922
-0.0275859665125608
0.0144335255026817
0.116251215338707
0.0177392046898603
-0.0237466022372246
-0.0209193415939808
-0.00667709484696388
0.0334794819355011
-0.0138348499312997
-0.0178996939212084
-0.00743849994614720
-0.0198378134518862
-0.0257977824658155
-0.0224946904927492
-0.00517400028184056
-0.000810365425422788
0.00631749490275979
0.00788893643766642
0.00921920500695705
-0.000914650387130678
0.00756593048572540
-0.0209369827061892
-0.0167449470609427
-0.0180182699114084
0.00601135799661279
0.00676948996260762
-0.0191739331930876
0.0696055665612221
-0.0144672505557537
0.00282582105137408
0.00693007232621312
-0.0188925750553608
-0.0181850455701351
-0.0183462258428335
0.00676835607737303
-0.00178534409496933
0.00774118816480041
0.00740964896976948
0.00970935728400946
-0.00131229206454009
-0.00129963981453329
-0.00327612669207156
-0.00526867201551795
-0.00386402406729758
2.41244979406474e-05
-0.00700083514675498
-0.00871279276907444
0.00277662673033774
-0.00822659488767386
-0.00803037546575069
-0.00713264197111130
0.00509064923971891
0.0662685632705689
0.00680770818144083
-0.00540609145537019
-0.00453348085284233
-0.00470168981701136
0.00536680594086647
-0.00401401612907648
-0.00197523087263107
-0.00143697904422879
-0.00500676780939102
-0.0102435201406479
-0.00759411184117198
-0.00285162986256182
0.00248805084265769
-0.00330004841089249
-0.0159245654940605
0.00462688598781824
-0.000221547466935590
0.0154462512582541
-0.0106868613511324
-0.00230040913447738
0.0161429252475500
0.000326689216308296
0.0209160018712282
-0.0418703295290470
0.0671199560165405
0.000778431829530746
-0.00761344423517585
0.0100312335416675
-0.0258781649172306
-0.0499138869345188
-0.00960304029285908
-0.00273270532488823
0.00420721760019660
0.0117323147132993
0.0232155360281467
0.0184721499681473
0.000851984776090831
0.00112247816286981
-0.000120145108667202
0.000653161841910332
-0.00151038274634629
0.000523407536093146
-0.000270000338787213
-0.00208370946347713
0.00149140227586031
-0.00260682310909033
-3.89737469959073e-05
-0.000885755987837911
-0.00134016585070640
0.0341608263552189
-0.00344207836315036
-0.000128977786516771
-0.000226482487050816
-0.00128215842414647
0.000992317101918161
-0.00369315221905708
-0.000457631453173235
0.000117395356937777
-0.00134180777240545
-0.000196397028048523
-0.00223069800995290
0.000143453187774867
-0.00172337098047137
0.00941230170428753
0.00731494463980198
0.0154976351186633
-0.00383460242301226
0.00730252545326948
-0.0258863251656294
-0.0291579272598028
-0.0270919594913721
0.00864970032125711
0.0133115947246552
-0.0239492133259773
0.108774222433567
-0.0285348147153854
0.0121559724211693
0.0122885191813111
-0.0189221445471048
-0.0405467189848423
-0.0140063557773829
0.00934764463454485
-0.00333014316856861
0.00908040534704924
0.0124706635251641
0.00896407570689917
-0.00635784072801471
0.000136585513246246
0.00228677270933986
-0.00198357808403671
0.00224425666965544
0.000374242197722197
0.00373786524869502
-0.0134093584492803
-0.00786750949919224
-0.0130503736436367
0.00207070494070649
5.25341274624225e-05
-0.00568730523809791
0.0653179883956909
-0.00599318509921432
-0.00252064154483378
0.00299950293265283
-0.0124124288558960
-0.00799361988902092
-0.0130246290937066
0.00219909357838333
-0.000514448038302362
0.00313457241281867
-0.00206736940890551
0.00371459661982954
0.000908313377294689
-0.00440517580136657
-0.00331470929086208
-0.00726575311273336
-0.00734153809025884
-0.00259829754941165
-0.0106028281152248
-0.00956144090741873
0.00714311050251126
-0.00923190731555224
-0.00854481291025877
-0.0112029816955328
0.00887970067560673
0.0862914621829987
0.0102412244305015
-0.00444620847702026
-0.00695433653891087
-0.00550116179510951
0.00861103553324938
-0.00307169114239514
-0.00149377947673202
-0.00186125119216740
-0.0101903425529599
-0.0176035910844803
-0.00999740697443485
-0.00520505895838141
-0.00444249575957656
-0.00534930825233460
-0.00598606979474425
-0.00445191981270909
-0.00237317918799818
-0.00681219389662147
-0.00822229497134686
0.00102782854810357
-0.00773503165692091
-0.00440022582188249
-0.00630910042673349
0.00396676175296307
0.0569640100002289
0.00364824244752526
-0.00390891823917627
-0.00601537944748998
-0.00641846982762218
0.00212742853909731
-0.00686287600547075
-0.00384090025909245
-0.00551618961617351
-0.00590795557945967
-0.00763494428247213
-0.00604857737198472
-0.00337135116569698
-0.00605507194995880
-0.0168099217116833
-0.00432948954403400
0.00576195493340492
-0.0155009301379323
-0.0124753573909402
-0.0327589325606823
0.0172441489994526
0.00225818483158946
-0.0292401518672705
-0.00687380228191614
-0.0232456643134356
0.0947704762220383
0.0192967932671309
-0.0219087898731232
-0.0101716257631779
-0.0180157311260700
0.0184532254934311
0.00724260602146387
-0.0126250497996807
-0.000992424902506173
-0.0110688367858529
-0.00905297137796879
0.00154911074787378
-0.00572655675932765
0.00536793563514948
0.00508520053699613
-0.000251399702392519
0.00281625031493604
0.00933030340820551
-0.000530809629708529
-0.0354704111814499
-0.0212868414819241
-0.0335914418101311
0.00225018057972193
0.0119953434914351
-0.0199441090226173
0.150524929165840
-0.0128742512315512
-0.00353380851447582
0.00664590019732714
-0.0315330624580383
-0.0249542873352766
-0.0367880500853062
0.00654962705448270
0.00359701225534081
0.00109431112650782
0.00587962381541729
2.16635380638763e-05
0.00955026689916849
-0.000815051607787609
0.00149878172669560
-0.00160322012379766
-0.0118701383471489
0.00379668292589486
-0.0193174295127392
-0.00166123709641397
0.0342592820525169
-0.0338951349258423
-0.0233897399157286
-0.0441774390637875
0.0134046496823430
0.124316461384296
-0.0553602948784828
-0.0160128530114889
-0.0448481626808643
0.0201182626187801
0.0439904890954495
-0.0605708062648773
-0.00153641391079873
-0.0187918208539486
0.0108874375000596
0.0129513675346971
-0.0245216954499483
-0.00296654924750328
-0.0219746716320515
-0.0244575068354607
-0.0149815706536174
0.00570018729194999
0.0159845072776079
-0.0374210029840469
0.00829291157424450
-0.00533190229907632
-0.0239036008715630
0.0317092351615429
-0.0114721609279513
0.00315469503402710
0.0761114954948425
-0.00960996095091105
0.0156375877559185
0.0182375609874725
-0.000151454878505319
-7.89731420809403e-05
0.000949293549638242
-0.00385343655943871
0.00399811472743750
0.0122089348733425
-0.0215993206948042
-0.0393937155604363
-0.00751381739974022
0.0346179939806461
0.0261395871639252
0.0184251852333546
0.0195784401148558
0.0223743300884962
0.00239446433261037
-0.0507741123437882
-0.0352385044097900
-0.0503185763955116
0.00528825260698795
-0.000480637943837792
-0.0274621453136206
0.0715783238410950
-0.0322783961892128
0.0123392837122083
0.0122111355885863
-0.0249945297837257
-0.0180131644010544
-0.0243912618607283
0.00337965763173997
0.0201029833406210
-0.000271821161732078
0.000653587048873305
0.00555393937975168
0.00281863892450929
-0.00348769454285502
-0.00491993594914675
-0.00719197327271104
-0.00592398131266236
-0.00382266682572663
-0.00509303621947765
-0.0115911150351167
0.000728529354091734
-0.00776871293783188
-0.00626435084268451
-0.00665322504937649
-0.00145094795152545
0.0752478614449501
0.00354125886224210
-0.00456785550341010
-0.00294857122935355
-0.00774388434365392
-0.000417181319789961
-0.00360380276106298
-0.00152253068517894
-0.00643811048939824
-0.00557360472157598
-0.00581234367564321
-0.00170988007448614
-0.00320162530988455