-0.0249493755400181
0.0549108535051346
0.108023472130299
0.0531932115554810
0.0337344706058502
0.108948417007923
0.0578216984868050
-0.0820873677730560
-0.0160590913146734
-0.0908543914556503
-0.0869484320282936
-0.0147213777527213
0.0200778469443321
0.0470138490200043
0.0980516597628593
0.0317989401519299
-0.0864657610654831
-0.0539848729968071
-0.125074744224548
-0.115061730146408
-0.0402908213436604
-0.0110038006678224
0.0323485732078552
0.0984123200178146
0.0107912141829729
-0.0539877563714981
-0.0296049378812313
-0.0435850396752358
0.00216545048169792
-0.00746534857898951
-0.0606950297951698
-0.0639288872480393
0.0201342664659023
-0.0165949538350105
0.0108517929911613
0.0131835136562586
0.000549696909729391
0.0619772858917713
-0.0147613156586885
-0.0570770092308521
-0.0708806365728378
-0.0460955835878849
-0.0302308686077595
0.102455943822861
0.0332334972918034
0.0507977567613125
0.0937368422746658
0.0131919672712684
-0.000362904305802658
-0.0103024085983634
-0.0564821399748325
-0.0730414018034935
0.138806149363518
0.0929599851369858
0.0636644586920738
0.0882540941238403
0.0409766994416714
0.0133050233125687
0.0195179060101509
-0.0180799923837185
-0.0923121646046639
0.0553162395954132
0.0773519277572632
-0.0875701531767845
-0.0361362732946873
-0.0513087622821331
-0.0586301535367966
0.000986743369139731
-0.00962248258292675
-0.0996942445635796
-0.0269536804407835
0.00700881844386458
-0.0562600083649159
0.0344853103160858
0.0196977127343416
0.0230985544621944
0.124283775687218
0.0653483346104622
-0.0585910603404045
0.0281277969479561
0.0875959172844887
0.0582219995558262
0.0873133540153503
-0.0836981162428856
-0.129286110401154
0.0135539444163442
0.0123949795961380
-0.000781198090407997
0.0227742586284876
-0.0354400463402271
0.0933107733726502
0.0215552169829607
-0.0468954816460609
-0.0389982201159000
0.00799701828509569
0.0250861104577780
0.0622383393347263
-0.00326783885248005
0.0173468515276909
-0.0471705347299576
0.0486938878893852
0.0465985350310802
-0.00886051915585995
-0.0772615373134613
-0.0390970259904861
0.0938796550035477
-0.00728242425248027
0.0145029015839100
-0.134677082300186
0.0750999450683594
-0.0243954174220562
0.0616300031542778
0.174686864018440
0.0387758836150169
0.0259091258049011
-0.00615798123180866
0.0463779792189598
-0.0561170950531960
0.0909398645162582
-0.0748436227440834
0.169646114110947
0.418446928262711
0.123078331351280
-0.0537123680114746
-0.0754149556159973
0.0489649996161461
-0.0434805080294609
0.0642890334129334
0.0117217693477869
0.129592850804329
0.167764380574226
-0.00926166493445635
-0.0181077644228935
-0.119382351636887
-0.0563203468918800
-0.0312774106860161
0.0214848481118679
0.0257896184921265
-0.00302988872863352
-0.0925770401954651
-0.0731124877929688
0.121381707489491
-0.0178831741213799
-0.0129945855587721
0.0457515679299831
0.0440510101616383
-0.0293063241988421
-0.0165157485753298
-0.000869865354616195
0.0142908133566380
0.118918627500534
0.0121301719918847
0.0435055866837502
-0.0496919453144074
0.0404841527342796
-0.0225208792835474
-0.00946657732129097
0.00561745697632432
-0.0422115623950958
0.0324876420199871
-0.00393739622086287
-0.0675758793950081
0.0171026457101107
-0.125072836875916
4.29870706284419e-05
0.114108130335808
0.0413295291364193
0.0602501109242439
-0.0433325171470642
0.0187526382505894
-0.00313328462652862
-0.0851076245307922
0.138211533427238
0.189985856413841
-0.103557124733925
-0.308393865823746
0.0270424354821444
0.0748334527015686
-0.0397290848195553
0.00301621831022203
-0.0274846889078617
0.0801109671592712
-0.0643496140837669
-0.0612446889281273
-0.115832008421421
-0.0447245165705681
0.0106937466189265
-0.0390998721122742
0.000661467958707362
0.147766992449760
-0.122156552970409
-0.565548062324524
0.215951353311539
0.557305216789246
-0.0616676881909370
-0.110933907330036
0.169620305299759
0.0256254170089960
0.140030100941658
-0.236165434122086
-0.746214509010315
0.313216030597687
0.905897796154022
-0.0245895013213158
-0.268397569656372
0.120559401810169
-0.0614757649600506
0.0618833638727665
0.0181702524423599
-0.314592987298965
0.0538080818951130
0.446538627147675
0.0637938231229782
-0.0855359211564064
0.0727761462330818
-0.0347996391355991
-0.102060012519360
0.177424371242523
0.0869371443986893
-0.255405843257904
-0.269783020019531
-0.0629888698458672
0.0390217192471027
0.00891077611595392
-0.00621769018471241
-0.0754316076636314
0.0909953564405441
0.182702258229256
-0.0256244726479054
-0.117049112915993
0.0128103299066424
0.00703755952417851
-0.0525132566690445
0.0404907613992691
0.0359182506799698
-0.0968071147799492
-0.0909592658281326
0.0723223611712456
0.102186217904091
0.000605886685661972
-0.0331096947193146
-0.0199136100709438
0.0331661514937878
-0.0289437342435122
-0.0245656520128250
0.0129655422642827
0.00917209591716528
0.0157315004616976
-0.00418193778023124
-0.0261424556374550
-0.0444770827889442
-0.0517146252095699
-0.00816328823566437
-0.0169108528643847
0.00845148041844368
-0.0602123886346817
-0.0899032279849052
-0.0339013226330280
-0.0280531235039234
-0.0874872878193855
-0.00177030765917152
0.0127603765577078
-0.0601904019713402
-0.103344216942787
-0.139575272798538
-0.0882441550493240
0.0141558162868023
-0.0215555895119905
-0.125934526324272
0.0402319617569447
0.0317378304898739
-0.131509080529213
-0.173669606447220
-0.00755233969539404
0.150451898574829
0.148993477225304
-0.0150319347158074
-0.149335399270058
0.0737508311867714
0.0690466240048409
-0.117968089878559
-0.0744067281484604
0.202970653772354
0.278798907995224
0.0860136151313782
-0.134393215179443
-0.205282196402550
0.0902943536639214
0.0669660121202469
-0.0659453496336937
0.0297120176255703
0.210685417056084
0.0817224606871605
-0.160148471593857
-0.244532868266106
-0.219557479023933
0.0453361049294472
0.0126963555812836
-0.104478746652603
-0.0246319640427828
0.0601190216839314
-0.120522528886795
-0.247551053762436
-0.148388534784317
-0.0935034602880478
0.0107940016314387
-0.0306861940771341
-0.140566483139992
-0.119304135441780
-0.0632019713521004
-0.126305177807808
-0.149006068706512
-0.0204998217523098
0.0217067245393991
0.0190401580184698
-0.0141548393294215
0.00424386188387871
0.0135044902563095
0.0285413973033428
0.0429651029407978
-0.00153060641605407
-0.00168540747836232
0.00479702837765217
-0.0197390168905258
-0.00639801239594817
-0.0341380387544632
0.0900963395833969
-0.0590633787214756
0.109955444931984
0.100429750978947
-0.0414872989058495
-0.00383943109773099
-0.145089715719223
0.00451151421293616
-0.0636513009667397
0.124110497534275
-0.125260606408119
-0.144660308957100
-0.233649224042892
-0.173087447881699
0.258178383111954
0.326257169246674
0.0693540051579475
-0.0929913371801376
-0.0101524572819471
-0.0364851988852024
0.295290291309357
-0.00829660333693028
-0.484720170497894
-0.0786217823624611
0.123985983431339
0.119998469948769
0.0306002460420132
-0.0757355839014053
0.0103660970926285
0.661388933658600
0.293675363063812
-0.660332083702087
-0.409529000520706
-0.0921642035245895
-0.0180347412824631
0.111258901655674
-0.0779414549469948
-0.200294986367226
0.336621075868607
0.299781709909439
-0.296333879232407
-0.101996481418610
0.0485953912138939
-0.106163010001183
0.0490583330392838
0.0174322333186865
-0.255054116249085
0.0395059473812580
0.363895654678345
0.154036045074463
0.145277604460716
-0.0236752554774284
-0.0164787247776985
-0.0758852809667587
0.0935619547963142
-0.0912864506244659
-0.0970041751861572
0.103130996227264
-0.0136730158701539
0.0260682702064514
-0.0714172422885895
0.0557184070348740
-0.0730851590633392
0.126714259386063
0.0961012318730354
-0.0541529133915901
-0.140362277626991
-0.253731608390808
-0.0103265224024653
0.101381033658981
0.0224164240062237
-0.0580330118536949
-0.0301094073802233
-0.0376082994043827
0.0480146594345570
0.150916174054146
0.0455529093742371
0.0473988763988018
-0.0766911804676056
-0.00395189784467220
0.0147360824048519
-0.0243839118629694
0.0201507862657309
0.115990526974201
-0.00951514393091202
-0.0966592580080032
0.0430704802274704
0.0500873401761055
0.0340349264442921
0.0117318853735924
0.00937422644346952
-0.0129773486405611
-0.0564931258559227
-0.0278118774294853
0.0410193838179112
-0.0395688787102699
-0.0173940919339657
-0.0229310672730207
0.0645074546337128
0.0488175302743912
-0.0600516870617867
-0.181366547942162
-0.0787420719861984
0.146233811974525
0.0274008903652430
-0.0583808235824108
0.0217880047857761
-0.0434668622910976
-0.233523622155190
0.0782210603356361
0.261325240135193
-0.0485764779150486
-0.101155146956444
0.0192543175071478
0.0260797888040543
0.156750783324242
-0.0738428458571434
-0.303392767906189
0.393943130970001
0.858879208564758
0.192478090524673
-0.250865370035172
-0.00471922848373652
0.102909609675407
0.0215240810066462
-0.0770436823368073
-0.0804196968674660
0.198976546525955
0.343664407730103
-0.0165798347443342
-0.158764272928238
0.0188998989760876
-0.00787624251097441
0.0103107877075672
-0.0287726130336523
0.163913324475288
-0.0191642586141825
-0.267105430364609
-0.183807924389839
0.0689893588423729
0.0826322883367539
-0.0272380691021681
0.0387757681310177
-0.0899704247713089
0.00545152649283409
-0.0293718259781599
-0.118078045547009
-0.0803723037242889
-0.00579899875447154
-0.0127767389640212
0.00155505805741996
-0.00702623417600989
0.00578088685870171
-0.0342788472771645
0.0835116654634476
0.161073490977287
0.0225095599889755
-0.0110356789082289
0.0632883906364441
-0.00492090266197920
-0.00686764018610120
0.0480334088206291
-0.0517028048634529
-0.0253811087459326
-0.0694707855582237
-0.0314379036426544
-0.0130223482847214
0.00279491813853383
-0.00508320378139615
-0.0240205563604832
0.0106511628255248
-0.0499209016561508
0.147811546921730
0.164442762732506
0.0912648662924767
-0.0463266074657440
0.0196048319339752
0.0162326116114855
-0.0225352738052607
0.00760404299944639
-0.0850308761000633
0.0716282948851585
0.00933501496911049
0.0113689582794905
-0.0832904428243637
0.0147929629310966
-0.0265680812299252
-0.0131156733259559
0.148087605834007
0.0514645278453827
-0.133843868970871
-0.391190886497498
-0.0226508472114801
0.0626299232244492
0.106259763240814
-0.0274384524673224
-0.0835652053356171
0.0243814233690500
-0.0550404265522957
-0.0143542066216469
-0.104195117950439
0.0616839043796063
-0.140010431408882
0.0478276722133160
-0.0848044157028198
0.173289909958839
-0.157521933317184
-0.298121631145477
0.498698085546494
0.841228008270264
0.320181518793106
-0.484410077333450
0.0729790404438973
0.151519626379013
0.199223369359970
-0.138813912868500
-0.298222631216049
0.406682282686234
0.781072020530701
0.312250465154648
-0.512182891368866
0.0300180613994598
0.102129422128201
-0.0621240921318531
0.0318104401230812
-0.0513054206967354
-0.122652843594551
-0.149043187499046
0.0816614627838135
-0.112406693398952
0.0948755741119385
-0.0800151899456978
-0.0268871765583754
0.0722264498472214
0.0574872530996800
-0.0356601886451244
-0.222112283110619
0.00211401632986963
-0.00345252687111497
0.0975273326039314
-0.0453419983386993
0.0561173558235168
0.0321354381740093
-0.0369094982743263
-0.0314978472888470
0.0465163476765156
0.0249760970473290
-0.0443704314529896
0.00645696697756648
0.0414993055164814
0.0392885990440846
-0.0933212563395500
-0.0701265856623650
-0.0314317308366299
-0.00481861643493176
0.0592083148658276
-0.00241332850418985
-0.0762337297201157
0.00806930568069220
0.0266677681356668
-0.00134850433096290
0.0383481904864311
-0.0199473295360804
-0.0901072025299072
0.0376650951802731
0.0658141225576401
-0.0261300764977932
0.00198060693219304
0.0323651134967804
0.0661626234650612
-0.0243896301835775
0.0328494533896446
0.0855550989508629
0.0253700241446495
-0.0279894489794970
0.0247793290764093
0.0211136508733034
0.0819240361452103
0.0871133208274841
-0.0717036798596382
0.143764927983284
0.344881087541580
0.0939413011074066
-0.104750484228134
0.0221638828516006
0.0271298419684172
0.0296013765037060
0.0566563941538334
0.00381060247309506
0.0675616860389710
0.134783521294594
0.0163810793310404
-0.0490521788597107
-0.000896010664291680
-0.0302130300551653
-0.0258968360722065
-0.0212095659226179
0.0266414806246758
-0.0463429391384125
-0.109872184693813
-0.0588216818869114
0.0101395454257727
-0.0396650843322277
-0.0302932746708393
0.00468203006312251
-0.0795307978987694
-0.0716071352362633
-0.0281471796333790
0.0201475657522678
0.0292921066284180
-0.0211784578859806
-0.100587770342827
-0.00184937578160316
0.0143785160034895
-0.00517442543059588
-0.0652669519186020
-0.00170147942844778
0.0845009759068489
0.0587973296642304
0.0113854017108679
-0.000908792251721025
0.0306094605475664
-0.0202577896416187
0.0147576285526156
0.0247343685477972
0.0669942796230316
0.0786879956722260
0.0267040301114321
0.00584719656035304
0.00928106624633074
0.00215281429700553
0.00467238249257207
0.0209820494055748
-0.0320484787225723
-0.0223193597048521
-0.00217449897900224
-0.0231616683304310
-0.00668942974880338
0.0127638485282660
0.00370579399168491
0.0223102290183306
0.00299932085908949
-0.0915662497282028
-0.128656566143036
-0.120750099420547
-0.118714220821857
-0.0760830193758011
-0.0134525541216135
0.00485470518469811
0.0365971215069294
0.0223512984812260
0.0621493868529797
0.142301380634308
0.137951582670212
0.0680985972285271
0.0249316133558750
0.00939533952623606
-0.0111519619822502
-0.0148118389770389
-0.0514377169311047
-0.000525556213688105
0.0746123343706131
0.107597388327122
0.120289251208305
0.0818726345896721
0.0131228901445866
-0.0443046204745770
0.0601177103817463
-0.0738602057099342
-0.258503615856171
-0.437638044357300
-0.380993604660034
-0.127641707658768
-0.00770933367311955
0.00981885753571987
0.00191496149636805
0.188303604722023
0.109954394400120
-0.0830501988530159
-0.307046622037888
-0.272888451814652
-0.0278790146112442
0.0630646273493767
0.0527503639459610
0.0303153470158577
0.0288289841264486
0.0519954077899456
0.0173131357878447
-0.0654321163892746
-0.0458555258810520
0.0627815127372742
0.0761393532156944
0.0188429038971663
-0.0239132270216942
-0.0361024700105190
0.0222186539322138
0.0413898937404156
0.0161124151200056
0.00912964809685946
0.0156917627900839
-0.00388597673736513
-0.0319559983909130
-0.0140265543013811
0.0471063666045666
0.0371374301612377
0.0125644216313958
0.102357149124146
0.220259755849838
0.131606549024582
0.0315178558230400
0.0192387476563454
0.0311532802879810
-0.0486528836190701
-0.0345626026391983
0.00407661078497767
0.0548599883913994
0.0958600267767906
0.0839439556002617
0.0249752700328827
-0.0758603066205978
0.0407266058027744
-0.104211382567883
0.0538979358971119
0.0252220649272203
-0.0591848939657211
-0.129973456263542
-0.0496362932026386
0.0681071579456329
-0.0579313933849335
-0.0308216344565153
-0.0806655734777451
0.0832680910825729
-0.151444792747498
-0.00187170936260372
0.120644055306911
-0.0875063762068749
-0.0983146578073502
-0.0293330941349268
0.0444510169327259
-0.00122686964459717
0.106414988636971
-0.239520698785782
0.167013764381409
0.553933739662170
0.100937888026237
-0.171989038586617
0.0121673103421927
0.162505313754082
0.0105150258168578
0.116961292922497
-0.110207162797451
0.0144944107159972
0.222309991717339
0.0436201356351376
-0.0185763388872147
0.0544503852725029
0.0969753041863442
-0.0144485272467136
0.0655895918607712
0.0583087466657162
-0.100039251148701
-0.188879579305649
-0.0984179750084877
0.0674784928560257
-0.00150367245078087
0.0236723050475121
-0.0248865354806185
-0.0239463020116091
-0.0105234505608678
-0.0502146892249584
-0.0264124255627394
-0.0393663793802261
-0.0615681931376457
-0.116315945982933
0.0237771570682526
0.0217930078506470
0.0822710841894150
-0.0464478507637978
-0.0193963404744864
0.134704679250717
0.0401820726692677
-0.0324427410960197
0.00339813088066876
0.0235799271613359
0.00995122082531452
0.0230054762214422
0.0323901139199734
0.0427369885146618
0.0354773476719856
-0.0116539625450969
-0.00544239021837711
0.0343231484293938
0.0158941596746445
0.0551776327192783
0.00788915250450373
-0.0322086364030838
-0.0411543175578117
-0.0658824369311333
-0.106932818889618
-0.0545819401741028
0.0371280610561371
0.0595388039946556
0.0483524203300476
-0.0291368011385202
-0.0854654535651207
-0.105525746941566
-0.149789750576019
-0.183497205376625
-0.106994807720184
-0.00351686635985971
0.0449198819696903
0.0283943675458431
-0.0586674921214581
-0.115099340677261
-0.114786885678768
-0.136384233832359
-0.182363361120224
-0.141729012131691
-0.0629128143191338
0.00930657703429461
0.0348356552422047
-0.0184528753161430
-0.0378402918577194
0.0227022785693407
0.0699578374624252
0.0236048921942711
-0.0166213866323233
-0.00710864644497633
0.0352973081171513
0.0455247424542904
0.0406812839210033
0.0532693751156330
0.109509639441967
0.160197541117668
0.131224870681763
0.0776056647300720
0.0540108568966389
0.0577485151588917
0.00289877853356302
-0.00388435623608530
-0.0161746684461832
-0.0213089175522327
-0.0196315515786409
-0.0352664850652218
-0.0398796722292900
-0.0239965450018644
0.00658315932378173
-0.0248922333121300
-0.0375583134591579
-0.0567197054624558
-0.0652157515287399
-0.0548611171543598
-0.0749507248401642
-0.0763589516282082
-0.0474210418760777
-0.00452898303046823
-0.0245417170226574
0.000297523045446724
0.0109346443787217
0.0344128869473934
0.0773890987038612
0.0591329783201218
0.0153772635385394
0.00692610396072269
-0.00122624437790364
-0.00104385730810463
0.000700895267073065
0.000611322931945324
-0.000952867907471955
-0.000279226340353489
-0.000947480613831431
-0.00139440689235926
-0.000461755174910650
-0.000997138209640980
-2.84629932139069e-05
0.000122562967590056
-0.000998038682155311
-0.00137832597829402
-0.00191100826486945
-0.000303815468214452
-0.000420535128796473
-0.000245475530391559
0.000901927822269499
0.000238587119383737
-0.00130180874839425
-0.000193893705727533
-9.73252535914071e-05
8.20825225673616e-05
-0.000746695965062827
0.000140342497616075
-0.000565885275136679
-0.00119985279161483
0.000377225747797638
-0.00195164675824344
-0.00203326484188437
-0.000331632792949677
-0.00100637238938361
-0.000452288222732022
-0.000623432395514101
0.00121587340254337
-0.00217642355710268
-0.00194188661407679
0.00113003072328866
-0.00127081829123199
-0.00124038965441287
-0.000627056520897895
-0.000183918717084453
-0.00147819891571999
-0.000666376261506230
-0.00235175131820142
-0.000411524291848764
-0.00126177829224616
-0.000731422333046794
-0.000869840965606272
0.000122815981740132
0.000849586213007569
0.000661056488752365
-0.00139764708001167
0.000173418535268866
-0.00125239777844399
-0.000626877066679299
-0.00241010519675910
-0.000957050011493266
-0.00119679491035640
-0.000315637182211503
-0.00107318069785833
-0.000254758371738717
0.000344105152180418
0.000242025067564100
-0.000508609751705080
-0.000210159167181700
-0.00150694767944515
-0.00150014704558998
-0.00224014325067401
-0.000368648499716073
-0.000751104264054447
-0.00116497988346964
-0.000639402365777642
-0.00144528434611857
-0.00211677374318242
5.21447800565511e-05
-0.000480932445498183
-0.00101248722057790
-1.36820190164144e-05
-0.00272359885275364
-0.000385915656806901
-0.000432453874964267
-0.000590256531722844
0.000135301772388630
0.00128593761473894
0.000315156212309375
0.000769050151575357
-0.00172404316253960
-2.73678597295657e-05
-0.000348876928910613
-0.000589500879868865
-0.000712840177584440
8.87062997207977e-05
0.000255638617090881
9.37533914111555e-05
0.000241314919549041
-0.000153310160385445
-0.000826307339593768
-0.000757192610763013
-0.000469215709017590
-0.00144335324876010
-0.000676060910336673
-0.000164583048899658
-0.000307193491607904
-0.000747333338949829
-0.000349283276591450
-0.000919676967896521
-0.000908782298211008
-0.000460735172964633
-0.000280544656561688
-0.000693549751304090
-0.000409651431255043
-0.000682273006532341
-0.00177181256003678
0.00150171690620482
-0.000766860495787114
-9.59166573011316e-06
-0.000111184577690437
0.000144625737448223
-0.000204866126296110
3.89982997148763e-05
-3.53791256202385e-05
-0.000546422088518739
-0.00186077679973096
-0.00147222145460546
-0.000658305420074612
0.00116271956358105
0.000420759752159938
3.31774535879958e-05
-0.000305960013065487
9.84674479695968e-05
-0.000207530465559103
0.000265056791249663
-0.00245353672653437
-0.00100395584013313
-2.71442422672408e-06
-0.000838693755213171
-0.000144620382343419
0.000860207946971059
-0.00123488169629127
0.000833465426694602
0.000155967951286584
-0.000653780938591808
-0.000623843865469098
-0.00256815599277616
0.000386694970075041
0.00106099492404610
0.000424278376158327
-0.00152929488103837
-0.000909970491193235
-0.00138605432584882
-0.00191302585881203
-0.00109202112071216
0.000704663107171655
-0.000218067827518098
-0.000835437851492316
0.000719567178748548
-0.00108460825867951
0.000527303665876389
-0.00116308429278433
-0.000182760515599512
0.000335050252033398
0.0284763183444738
0.0118671022355556
0.00446405168622732
-0.0180131085216999
-0.0270451549440622
0.00127337162848562
-0.00646174605935812
0.00821845512837172
0.0650976896286011
0.0187768954783678
-0.0554998815059662
-0.0403606891632080
-0.0384489297866821
-0.0333453044295311
0.0212873797863722
-0.00202425592578948
-0.00977876689285040
0.0435908138751984
0.0464868657290936
-0.0358474589884281
-0.0110901137813926
-0.0178290028125048
-0.0283321384340525
0.0169200710952282
-0.0277972389012575
-0.0246428567916155
0.0169857516884804
0.0730399116873741
0.0108632910996676
0.00663558114320040
-0.0284185539931059
-0.0454108342528343
-0.0142359565943480
-0.0524677187204361
-0.0155493710190058
0.00120141112711281
0.0481150969862938
0.0101865250617266
0.00909496191889048
-0.0375176034867764
-0.0454015471041203
0.000251986639341339
-0.0257699508219957
0.0229616034775972
0.00354675110429525
0.0270930547267199
-0.00475873518735170
0.0146737573668361
-0.0280597694218159
-0.0270105041563511
0.0160355065017939
-0.00861128140240908
0.0308571197092533
0.00433944445103407
0.0719184204936028
0.0181409604847431
0.0164865478873253
-0.00813532993197441
-0.00423208437860012
0.0174653399735689
-0.0158532112836838
0.00281269778497517
-0.00360686983913183
0.0703839585185051
0.0131623726338148
-0.00110816117376089
-0.00103712128475308
0.0236244723200798
0.0476526618003845
0.00545797543600202
-0.0119062447920442
-0.00265994761139154
0.0231335684657097
0.0101444842293859
0.0243113115429878
0.0341361314058304
0.0618980526924133
0.106330722570419
0.0539611242711544
0.00332145881839097
0.0199374817311764
0.0533925183117390
0.0443886108696461
0.0333548784255981
0.0323586650192738
0.0438552387058735
0.0326036848127842
-0.00123542023357004
0.0278188996016979
0.0750196203589439
0.0360931828618050
0.0235388353466988
0.0168130975216627
0.00528635038062930
0.0135189285501838
0.00902053341269493
-0.0375111252069473
-0.0230505298823118
0.0337410382926464
0.0361564904451370
-0.0106596462428570
-0.0156583674252033
-0.0197634510695934
-0.0151157202199101
-0.00720164692029357
-0.0537089481949806
-0.0592392645776272
-0.0182206574827433
0.0582044310867786
-0.00603651348501444
-0.0332483015954495
-0.0380953885614872
-0.0288645587861538
-0.0188641119748354
-0.0442859604954720
-0.0400225482881069
-0.0176439732313156
0.0539201870560646
-0.00106719532050192
-0.0275448691099882
-0.0400660485029221
-0.0359436422586441
-0.0208450742065907
-0.0323992632329464
-0.00875921454280615
0.00717219850048423
0.0264335218816996
-0.00929932203143835
-0.0119312182068825
-0.0197676569223404
-0.0104266367852688
0.00153485592454672
-0.0122048342600465
0.00843621976673603
0.0106344707310200
0.0188254173845053
-0.0140995625406504
-0.0105054648593068
-0.00428622076287866
0.00900824926793575
0.0110054053366184
-0.0153078716248274
-0.00346622965298593
0.00243478897027671
0.0142318522557616
-0.0118110608309507
-0.00605447264388204
-0.00557773094624281
0.0129722384735942
0.0194303896278143
-0.0174764655530453
-0.00686693750321865
0.0207813456654549
0.0123986164107919
0.0144399395212531
0.0152898551896214
0.0146333891898394
0.0406054779887199
0.0544562451541424
0.00553632341325283
0.0127066345885396
0.0624667294323444
0.00117844424676150
0.00123428786173463
-7.56953340896871e-06
-0.000595404475461692
-0.00246929004788399
0.00156194216106087
-0.000335988530423492
-0.000856841157656163
-0.000256784405792132
0.000890884373802692
-0.000442131276940927
-3.91931425838266e-05
0.000820548564661294
-0.00147839030250907
-0.000969140091910958
-0.000467541423859075
0.000333149160724133
-0.000715567555744201
-0.00166384561453015
0.000811054720543325
-0.00114370172377676
-0.000911069626454264
0.000771313265431672
0.000537623418495059
-0.000198049616301432
-0.000444287026766688
-0.00215351395308971
-0.00119658757466823
-0.000561932916752994
-0.000407167681260034
-0.000163751639775001
-0.000488202960696071
-0.000621539482381195
-0.000416453287471086
-0.00138499657623470
-0.000577485305257142
-0.00140106584876776
8.65023775986629e-06
-0.000257015140959993
-0.00174212176352739
-0.000981506775133312
0.000655091484077275
-0.00140482024289668
0.00131831038743258
0.000211495265830308
-0.00174092059023678
0.00119199464097619
-0.00241608731448650
0.000480142654851079
5.51341399841476e-05
2.63111160165863e-05
0.00150595279410481
-0.00125314609613270
-4.03080412070267e-05
-0.000472185289254412
-0.00103285897057503
-0.00214433227665722
0.000707853410858661
4.27697850682307e-05
0.000106836014310829
0.000650796224363148
-0.000676969531923533
-6.95385751896538e-05
0.000322300591506064
-0.000196848413906991
0.000996208051219583
-0.00170571915805340
-7.35305293346755e-05
-0.00144950428511947
-0.00167289329692721
-0.00127613765653223
0.000277471350273117
-0.00164662755560130
0.000714907539077103
-0.000178710120962933
-0.00125456380192190
0.000679489749018103
-0.00100088049657643
-0.000805317773483694
-0.000105276776594110
-0.000507001008372754
0.0491380952298641
-0.0352612137794495
0.0296158343553543
0.0421036444604397
0.0239995513111353
-0.0227500554174185
-0.0377793386578560
0.0461359247565270
0.00373016949743032
-0.0196163244545460
-0.0674830600619316
-0.000711976259481162
-0.0218916367739439
-0.0146468169987202
-0.0214026514440775
-0.0667311698198319
0.0377186499536037
0.0388412810862064
0.0687257051467896
-0.00317880697548389
-0.000325742090353742
-0.0641765817999840
-0.0401524938642979
-0.00644000340253115
-0.0463332198560238
0.0873407348990440
0.0836328193545342
0.138210937380791
-0.0164147783070803
-0.0592338293790817
-0.0827182903885841
-0.0508135445415974
-0.0129475565627217
-0.0306121185421944
0.100893273949623
0.0571409240365028
0.0763969272375107
-0.0661707744002342
-0.0525656268000603
-0.0562659911811352
-0.00907004997134209
0.0401751250028610
-0.0120754269883037
0.0830232650041580
0.0362139716744423
-0.000540321227163076
-0.0853306651115418
-0.0408016145229340
-0.0869188085198402
-0.00384381134063005
0.127350464463234
0.0557178966701031
0.0906711742281914
0.0652542486786842
0.00106810370925814
-0.0691316947340965
-0.0256322883069515
-0.0806236118078232
-0.0191548112779856
0.120080828666687
0.0451487079262733
0.0372372083365917
0.0484126172959805
-0.00441430229693651
-0.0498318746685982
0.0232190210372210
0.0165990088135004
0.0250590275973082
0.0672980919480324
-0.0323529355227947
-0.0367927066981792
0.0119444485753775
0.00255878432653844
-0.0120297055691481
0.0441569685935974
0.0475448556244373
0.0332749262452126
0.0586586445569992
0.00717496266588569
0.0115105854347348
0.0257076229900122
-0.0490750819444656
0.0953825488686562
0.00716748833656311
0.0798689350485802
0.0403224527835846
-0.0739599317312241
-0.0209160763770342
-0.0225277338176966
-0.000330280716298148
-0.0178892333060503
0.0947558209300041
-0.157962426543236
-0.136583268642426
0.00284272944554687
0.0715600848197937
0.129110991954803
-0.0298204999417067
0.0492224730551243
-0.00287085794843733
0.0467288270592690
-0.0719728767871857
0.0741859301924706
-0.0522026233375073
-0.130769237875938
0.109049603343010
-0.125395521521568
0.0102872187271714
-0.00687281228601933
-0.000193886386114173
-0.0280497763305902
0.434103101491928
0.0716423615813255
-0.312353819608688
0.149461001157761
-0.0670655295252800
-0.0319667346775532
-0.0552310496568680
-0.00928849633783102
-0.116030126810074
0.470009386539459
0.0166527405381203
-0.478678941726685
0.190993309020996
0.0629563480615616
-0.0441285744309425
-0.00195357319898903
0.0955290794372559
-0.0564913414418697
0.403037905693054
-0.162537306547165
-0.606577038764954
0.0997555926442146
0.0357331112027168
-0.0400643125176430
0.0217978488653898
0.117497824132442
-0.117896161973476
0.191034808754921
-0.0498447343707085
-0.215860202908516
0.136468514800072
-0.0298354700207710
-0.0114776557311416
-0.0821841433644295
0.0596726387739182
-0.213396355509758
-0.0426528826355934
0.0741515979170799
0.159531608223915
0.135703608393669
-0.0818824395537376
0.00351037061773241
-0.0383208319544792
0.131853878498077
0.0246986970305443
0.0489241406321526
-0.0835216119885445
-0.0683323517441750
-0.0331291891634464
-0.0451503805816174
0.0490662045776844
0.00208181375637651
-0.000682048557791859
0.000420872005634010
8.36962062749080e-05
0.00122220651246607
0.000622642517555505
-0.000251831399509683
-0.00130850588902831
0.00112134555820376
0.000455164670711383
-0.00190319039393216
-0.00164472276810557
0.000234736915444955
-0.000625556567683816
-0.00185352948028594
6.43015519017354e-05
-0.00120072334539145
-0.00114915205631405
-0.000817492255009711
-0.00230036256834865
-0.000500296067912132
-0.00147139979526401
0.000102072488516569
-0.000150467778439634
-0.000254738813964650
-0.000231858735787682
-0.000509419653099030
-0.000567684648558497
-0.00103618972934783
0.00128067960031331
0.000901687657460570
0.000975008471868932
4.33478817285504e-05
-0.00136478594504297
-0.000946201500482857
-0.000480771705042571
-0.000215518462937325
-3.89426568290219e-05
-0.00118702172767371
-7.88313627708703e-05
-0.00102149171289057
-0.000647519889753312
0.000684422848280519
9.85136794042774e-05
-0.000622554682195187
-0.00225792545825243
-0.000841780565679073
-0.00106336490716785
-0.000840914552100003
0.000105498591437936
0.000467433477751911
-0.00267922412604094
0.00138773443177342
0.000368629844160751
-0.00205193622969091
9.78621828835458e-05
0.000612567295320332
0.000735079229343683
-0.000199706119019538
-0.000163427743245848
0.000503378396388143
0.00274889380671084
-0.000648656103294343
0.000202078692382202
-0.00257232575677335
0.000525307725183666
8.85751069290564e-05
-0.000630192866083235
0.000673250120598823
-0.000498085282742977
0.00183510722126812
-0.000405383005272597
-0.000325446511851624
-0.00176460680086166
-0.000884572742506862
0.000230934922001325
-0.00176400865893811
-0.000698805204592645
0.000369950546883047
-0.000408249587053433
-0.00190096837468445
-0.0403496958315373
-0.0178852677345276
-0.0141616668552160
0.0766815468668938
0.0492883697152138
0.00560848088935018
-0.0249729380011559
-0.0216309931129217
-0.0324725992977619
-0.0242729801684618
-0.0111039662733674
-0.0295207481831312
0.0171843692660332
-0.0447819940745831
-0.0498138666152954
-0.0296005886048079
-0.0143589563667774
-0.00724383350461721
-0.0436639934778214
-0.0488479398190975
-0.0336399078369141
-0.0133006526157260
-0.132625177502632
-0.0969918072223663
-0.0265981387346983
-0.0602218620479107
-0.0506863705813885
0.00325910281389952
-0.0392332263290882
-0.0511354841291904
0.125397682189941
0.0909018218517304
-0.00267536030150950
-0.0497113354504108
-0.0537575148046017
-0.0268924087285996
0.0219312012195587
-0.0397850908339024
-0.0939697250723839
0.211948990821838
0.285750329494476
0.0742124542593956
-0.0739644765853882
-0.0242233034223318
0.0107280984520912
0.0142090199515224
-0.0252726487815380
-0.0452353283762932
0.151040107011795
0.142320975661278
0.0331579446792603
-0.00905077531933785
0.00229725404642522
0.00647098384797573
-0.0187521632760763
-0.0508467592298985
-0.0480388142168522
0.00576705532148480
-0.0973505675792694
-0.0780449435114861
-0.00167774036526680
-0.0351480655372143
-0.0443997271358967
0.00770954554900527
-0.0127456141635776
-0.0508847571909428
0.0140385180711746
-0.0289863310754299
-0.0484276488423348
-0.0264757815748453
-0.0237454939633608
-0.0282741319388151
-0.0235287267714739
0.000874061195645481
-0.0422713421285152
0.0353345014154911
0.0306219495832920
-0.0125014148652554
-0.0291328765451908
-0.0150435166433454
-0.0293013080954552
0.0264586359262466
0.0331256911158562
0.0168305318802595
-0.0427843593060970
-0.0593201853334904
-0.00645061256363988
0.00231329887174070
-0.0155387893319130
-0.0133468406274915
0.0540008172392845
-0.0248223599046469
-0.0758501514792442
-0.103978075087070
-0.104386948049068
-0.0160694159567356
0.0170268286019564
-0.0331992805004120
-0.0440003909170628
0.0288089439272881
-0.120614960789680
-0.160849839448929
-0.107105098664761
-0.0737857669591904
0.0616141147911549
0.148732602596283
0.0755751207470894
0.0408962815999985
-0.0194585025310516
-0.176159515976906
-0.153844282031059
-0.0577396042644978
-0.0405820533633232
0.122181504964828
0.224598348140717
0.122539997100830
0.0588101670145988
0.0196880847215652
-0.101472236216068
-0.0325200334191322
0.0352713204920292
0.00672424118965864
0.147848919034004
0.195433065295219
0.0557446889579296
-0.0268255937844515
0.0458353459835053
-0.0526752173900604
0.0128370039165020
0.0412640199065208
-0.00339621747843921
0.0973430052399635
0.103816308081150
-0.00682823080569506
-0.0575366914272308
0.0166959278285503
-0.0728433802723885
-0.0338054075837135
-0.00398388132452965
-0.0121684242039919
0.0514326617121697
0.0241997428238392
-0.0305437911301851
-0.0363873913884163
0.0311660729348660
-0.0457680001854897
-0.0278478227555752
0.00811936054378748
0.0301694571971893
0.0579068213701248
-0.00165235495660454
-0.0284647662192583
-0.00860482454299927
0.0285041537135839
-0.0249373428523541
-0.0148654105141759
0.00632593641057611
0.0350758396089077
0.0512124225497246
-0.0111698191612959
-0.0212513059377670
0.00613697012886405
-0.00305282091721892
0.0587242878973484
-0.0478770695626736
-0.0174746494740248
0.0423031151294708
0.0534967146813870
0.0673717930912972
0.00144316034857184
-0.00471679586917162
-0.0204556323587894
0.0600657239556313
-9.92801578831859e-05
-0.0728509873151779
-0.0680390521883965
-0.0279453117400408
-0.0435122586786747
-0.0788759514689446
-0.0132826426997781
-0.0361111946403980
-0.00872237142175436
-0.0681633800268173
-0.0752671658992767
0.00873033143579960
0.0141212809830904
-0.104093842208385
-0.0771719962358475
0.0857585668563843
0.0612829476594925
-0.0279312971979380
-0.0501184500753880
0.181107670068741
0.331627428531647
0.197141900658607
0.0213988479226828
0.00644774641841650
0.0618251487612724
0.0876578986644745
-0.0377065762877464
-0.0402751639485359
0.316720604896545
0.426582276821137
0.145342975854874
0.0348939001560211
0.0784433484077454
-0.0432724505662918
-0.00557854166254401
0.00487765483558178
-0.0134966829791665
0.175349533557892
0.172938778996468
-0.124497190117836
-0.118748061358929
0.0698332563042641
-0.0667396783828735
-0.0524030029773712
0.0568462312221527
-0.0109128663316369
-0.118472717702389
-0.262998223304749
-0.361654341220856
-0.167230531573296
0.0267260242253542
-0.0490739084780216
-0.0481783002614975
0.0512940920889378
0.000518629560247064
-0.234782725572586
-0.413160175085068
-0.265736281871796
0.0193261038511992
0.0608267113566399
-0.00383139238692820
-0.0479219667613506
0.0310337040573359
0.0857958719134331
0.0264757797122002
-0.0355451181530952
0.0680015981197357
0.160214811563492
0.0381325595080853
-0.0347479619085789
0.00188150885514915
0.000325926695950329
-0.00102015654556453
0.00103419367223978
0.000716458831448108
0.000497193890623748
3.50836235156748e-05
-0.000506539887282997
-0.000592723430600017
-0.00106052274350077
-0.000857085804454982
-0.00224372814409435
0.000591603165958077
-0.000834968406707048
8.96792771527544e-05
-0.000747553014662117
3.00817082461435e-05
0.000639059289824218
0.000210228143259883
-0.000244197493884712
-0.00186403340194374
-0.000172351006767713
0.000175761451828294
-0.000831875076983124
-0.00127925514243543
7.73595165810548e-05
0.00180590234231204
-0.000654262956231833
0.00208581262268126
0.000366135122021660
-0.000264465052168816
-0.000289769668597728
-0.000366555497748777
9.63825223152526e-05
-0.00139991787727922
-0.000925074331462383
-0.00141249084845185
-0.000240809589740820
-0.000158773138537072
0.000353816692950204
-0.000346562155755237
-0.000391770066926256
-0.00196644919924438
0.00132765551097691
-0.00210477574728429
0.00205010385252535
-0.000768906145822257
-0.00126079400070012
0.000403995305532590
0.00114393385592848
0.000834055070299655
0.000365143525414169
-0.000108492968138307
-0.000822109868749976
-0.000198151843505912
-0.000122936689876951
-4.89987032779027e-05
0.000682041165418923
-0.000806656433269382
0.000907206267584115
8.39627409732202e-06
-0.00143568741623312
0.000569348281715065
0.000875828089192510
-0.00145972159225494
-0.000229415338253602
0.000755854358430952
-0.000879240571521223
-0.000178091155248694
-0.000767717952840030
-0.00125291931908578
-0.000190353166544810
-0.00174784800037742
-0.000454796158010140
-5.66282797080930e-05
-0.000208329016459174
0.000251116318395361
-0.000856752798426896
0.00128472119104117
0.000191203245776705
0.00156412471551448
-0.00925104971975088
-0.00716314883902669
-0.00209119473583996
0.00266162538900971
0.00759979803115130
0.00345906149595976
0.00402200408279896
0.00344374123960733
-0.00182801811024547
-0.0106582846492529
-0.00867165811359882
-0.00255769607611001
0.00389747275039554
0.0112840272486210
0.00926429685205221
0.0105125764384866
0.00362516241148114
0.000488960824441165
-0.0162278357893229
-0.0147272096946836
-0.00445117615163326
0.00596685567870736
0.0109798889607191
0.0116353249177337
0.00869170576334000
0.00771738728508353
0.00132564385421574
-0.0168384257704020
-0.0133900912478566
-0.00463333493098617
0.00780224613845348
0.0125778801739216
0.0134397884830832
0.0116755692288280
0.00723054166883230
0.00230356957763433
-0.0219035372138023
-0.0171102322638035
-0.00760980974882841
0.00639280909672380
0.0131825422868133
0.0147048905491829
0.0153771657496691
0.0122919073328376
0.00446127494797111
-0.0252407267689705
-0.0216505583375692
-0.0116575788706541
0.00346199097111821
0.0111486148089170
0.0128451138734818
0.0159846153110266
0.0170528460294008
0.00825345143675804
-0.0206234473735094
-0.0209655351936817
-0.0137977302074432
-0.00297747505828738
0.00692134164273739
0.0102998176589608
0.0159801580011845
0.0172748435288668
0.00951715651899576
-0.0181643124669790
-0.0189171247184277
-0.0155378337949514
-0.00585706764832139
-0.000764892320148647
0.00421014800667763
0.0113978516310453
0.0155414389446378
0.0113685233518481
-0.0104765640571713
-0.0147135220468044
-0.0155911119654775
-0.0137055134400725
-0.0102285277098417
-0.00483084516599774
0.00154390162788332
0.00890144240111113
0.00822161696851254
-0.0384137816727161
0.0333175621926785
0.0345312319695950
-0.180872410535812
-0.185251653194428
0.0718167796730995
0.0312378108501434
-0.0909512266516686
0.00483314646407962
-0.0272633563727140
0.0283103585243225
0.0392336398363113
-0.152202412486076
-0.153786972165108
0.0404171645641327
-0.000790457939729095
-0.0749781653285027
-0.0963036045432091
0.0352936871349812
0.0516742952167988
0.0642388835549355
-0.0469789206981659
0.0234383158385754
0.160215511918068
0.0979359969496727
0.0969487130641937
-0.0158840138465166
0.00292593683116138
0.0266513656824827
0.0866111442446709
-0.00556068774312735
0.0599210597574711
0.143842875957489
0.0721630826592445
0.155939564108849
0.0360758602619171
-0.0498198904097080
-0.0491917654871941
0.0472962111234665
0.00193074194248766
-0.0167359840124846
-0.0592935793101788
-0.106870599091053
0.0683568641543388
-0.0434377752244473
-0.0196413248777390
-0.0694742724299431
0.00107711704913527
0.0532935522496700
0.0369132645428181
-0.131972044706345
-0.175511777400970
0.0576091557741165
-0.0458638817071915
0.0551353283226490
-0.00773569522425532
0.0134500283747911
0.0657693445682526
0.0942533165216446
-0.0479728095233440
-0.0805301964282990
0.129408597946167
0.0337454788386822
0.0323278643190861
-0.0167947560548782
0.0142942741513252
0.0298697780817747
0.0178445503115654
-0.0639600604772568
-0.0339207872748375
0.100506156682968
0.00686512608081102
-0.000289514078758657
-0.0669821649789810
0.0399106405675411
0.0910807922482491
-0.0128278583288193
-0.122718825936317
-0.0601817779242992
0.0276847276836634
-0.0389315299689770
0.000383055419661105
-0.00121561367996037
-0.000902683997992426
3.83169972337782e-05
-0.00188378291204572
-0.000149812593008392
-0.00188437767792493
0.00178380240686238
0.000178483911440708
0.000230966747039929
7.64733922551386e-05
0.00139522308018059
4.76142049592454e-05
0.00118911650497466
0.000840626831632108
-0.00204955111257732
-0.000136660382850096
-0.000627837609499693
0.00168021733406931
-0.00129575410392135
0.000474033004138619
-0.000441613985458389
-0.000925571308471263
0.000178816015250050
-0.00142544228583574
-0.000750338949728757
0.00161965773440897
-0.000511627818923444
-0.000453899760032073
-0.000549832941032946
0.00133814709261060
0.00206868490204215
-0.00110028719063848
-0.000545580405741930
0.00231198244728148
-0.000324589898809791
-0.00181690091267228
0.000358250428689644
-0.000901314022485167
-0.00209996686317027
0.000132976361783221
0.000528455304447562
-0.00102826661895961
-0.00175320438575000
-0.00209376681596041
0.00132061389740556
0.000632335257250816
0.000975031813140959
-0.00106674653943628
0.000741019903216511
-0.00116245809476823
-0.00104397360701114
-0.000311783456709236
-8.38525302242488e-05
-0.00105782272294164
0.000447497033746913
3.51905146089848e-05
4.23275159846526e-05
0.00175187562126666
-0.00149263895582408
0.000692443049047142
0.000151851752889343
-0.000737420690711588
-0.000922088045626879
-0.00182149338070303
-0.00115786923561245
-0.00206296006217599
-0.000296367506962270
0.000282507156953216
0.000301715306704864
-0.000692939152941108
-0.000204975061933510
-0.000374282448319718
0.000952421396505088
-0.000202836235985160
-0.000182705582119524
0.000263473979430273
0.000354980933479965
-0.00344319175928831
-0.00183446484152228
3.39141547556210e-06
-0.00402950448915362
0.0295573696494102
0.00275554461404681
-0.00706040160730481
0.0581092797219753
0.0396679714322090
-0.0246927365660667
-0.0455909222364426
-0.00284877163358033
0.00676193740218878
-0.0188467968255281
-0.0142389098182321
0.00576245132833719
0.0344574935734272
0.0519174449145794
0.0425831116735935
-0.0481362193822861
-0.0272752121090889
-0.0229770131409168
0.0306075848639011
0.0249415542930365
-0.0457277372479439
-0.100947283208370
-0.0189128536731005
0.0847135186195374
0.00971061922609806
-0.0191570091992617
-0.0709784850478172
0.0319440290331841
-0.0532446615397930
-0.0366688035428524
0.0265657063573599
-0.0201996341347694
-0.0137239871546626
0.0388889685273171
0.0378244817256928
-0.0105961579829454
0.0718403309583664
-0.0948901697993279
0.0782062262296677
0.322657644748688
0.0935715958476067
-0.0828437581658363
0.0580174811184406
0.0770924463868141
0.00120465736836195
0.0748756155371666
-0.00693811615929008
0.0520119816064835
0.162874430418015
0.0103949429467320
-0.0636712759733200
0.0312390215694904
-0.00227910373359919
-0.0404394455254078
-0.0175849553197622
0.0515966005623341
-0.0213631931692362
-0.0891380757093430
-0.0916044935584068
-0.0144591694697738
-0.0127037195488811
-0.0396376289427280
-0.00244127004407346
-0.0672048702836037
-0.0407291986048222
-0.0103470906615257
0.0307548511773348
-0.00804527569562197
-0.0172959305346012
-0.0272913426160812
0.0190319009125233
0.0283264778554440
0.0139720086008310
-0.0631393194198608
0.0258627850562334
0.152911379933357
0.0210986286401749
-0.0346992015838623
0.0249338671565056
0.0141637800261378
-0.0176723916083574
-0.0795244351029396
-0.0436562001705170
0.0308292731642723
-0.0134316366165876
0.00893816631287336
0.0208717957139015
-0.0210792347788811
-0.0976086556911469
-0.0145302340388298
-0.00657323421910405
0.0428216010332108
-0.0344964601099491
-0.177570611238480
-0.140075102448463
-0.137034341692925
-0.0515991896390915
-0.0501816011965275
-0.0413845069706440
-0.0119729666039348
-0.0690809115767479
-0.234015077352524
-0.141915559768677
-0.0410072654485703
-0.275329828262329
-0.143284261226654
-0.0203165933489800
-0.0366138219833374
-0.00425129663199186
-0.0977881029248238
-0.0981666594743729
0.504469454288483
0.686170279979706
0.0143403224647045
-0.0664820447564125
0.0473253540694714
0.0165869351476431
-0.0286625530570745
-0.101386770606041
-0.157624438405037
0.322631418704987
0.453714877367020
-0.152856290340424
-0.181147545576096
-0.0329154804348946
0.00883558299392462
0.0123883159831166
0.0586040690541267
-0.195985376834869
-0.222520336508751
-0.137367203831673
-0.276349782943726
-0.102483093738556
-0.00786015670746565
-0.0903774574398994
-0.0127360457554460
0.150581628084183
-0.0258756373077631
-0.107197336852551
0.0117793204262853
-0.0154806552454829
0.0570288710296154
0.0245822332799435
-0.0176774207502604
-0.0669126361608505
0.0310945883393288
-0.00630171271041036
0.00636645220220089
0.0769771486520767
-0.0188918914645910
-0.0474077649414539
-0.0564641393721104
0.0458121113479137
-0.0751268714666367
-0.0736145302653313
0.0131728183478117
-0.0334623046219349
-0.0785384848713875
-0.0509269572794437
-0.0477381907403469
-0.0218401215970516
-0.000842887850012630
-0.0324564278125763
0.0946526154875755
-0.00384589377790689
0.0466223545372486
-0.0840763896703720
-0.0266179945319891
-0.0890244692564011
-0.00304410932585597
0.0634474158287048
-0.238037019968033
-0.165617719292641
-0.108270749449730
0.270985096693039
0.184678226709366
0.132542446255684
0.119927622377872
0.0894960463047028
0.101849831640720
-0.241755276918411
0.210071995854378
0.427980870008469
0.188851535320282
-0.514126360416412
-0.297594875097275
0.145635560154915
-0.175793200731277
0.0502019338309765
0.0413404703140259
0.460291534662247
0.428091078996658
-0.0422965846955776
-0.637278258800507
-0.159351572394371
0.311210930347443
-0.233196079730988
-0.221942365169525
0.232997670769691
-0.0458106845617294
-0.586928546428680
-0.276682496070862
-0.0516998469829559
0.138570904731751
0.258758127689362
0.0262243673205376
-0.100037612020969
0.338511228561401
-0.222967535257339
-0.720888137817383
0.126104444265366
0.488739520311356
0.112926602363586
-0.0540931969881058
0.0516973733901978
0.00897602643817663
0.0847762078046799
0.0353306792676449
-0.0730097442865372
0.300692051649094
0.181984290480614
-0.119320161640644
-0.107206337153912
0.0245682653039694
-0.0466464161872864
-0.163585394620895
0.147637471556664
0.139528647065163
0.0273199211806059
-0.201311349868774
-0.165176138281822
-0.0178249627351761
0.0559887960553169
0.0282752998173237
0.0418729148805141
0.0490684658288956
-0.240371152758598
-0.135299518704414
0.153333708643913
0.184385806322098
-0.0193599369376898
-0.0301420781761408
-0.0281240995973349
-0.0676391199231148
0.0171296522021294
0.0170327238738537
0.00268900138325989
0.000317761092446744
-0.0331920944154263
0.00994152389466763
0.0244818720966578
0.0199096985161304
-0.0132731562480330
0.0464382991194725
0.0330658368766308
0.00833036564290524
-0.0112868621945381
-0.0500211305916309
-0.0271283704787493
-0.0293489620089531
0.0750172138214111
0.0198806580156088
0.0481295473873615
0.00904138479381800
-0.0296430494636297
-0.0310993250459433
-0.0127006508409977
0.0170089881867170
-0.0574922710657120
0.0158927943557501
-0.0485893003642559
-0.0392466261982918
-0.0221181996166706
0.0270070545375347
0.00109497224912047
-0.00851428322494030
0.100147530436516
0.0206522922962904
-0.00431271363049746
-0.0555641464889050
-0.0675436481833458
0.00203127693384886
0.165053755044937
0.0720288679003716
-0.0189815759658813
0.161404967308044
0.0954853445291519
0.0301850661635399
-0.0266940239816904
-0.0487570501863956
-0.0359747149050236
0.100726231932640
0.0358378775417805
-0.0260290224105120
0.144721210002899
0.0573646239936352
0.0288611352443695
-0.0352074131369591
0.00641228025779128
-0.0486746393144131
-0.0374765433371067
-0.0617442056536675
-0.0632230043411255
0.0412394925951958
-0.0344248078763485
0.0297312922775745
-0.0359843075275421
0.0374583601951599
0.00745066301897168
-0.0177072007209063
-0.0425922237336636
-0.0681140422821045
-0.0325390435755253
-0.0510729104280472
0.0197333581745625
-0.0257196091115475
0.00749422376975417
0.000664077582769096
0.0118163600564003
0.0127682872116566
-0.00989337731152773
0.00907602254301310
0.00140169542282820
0.0247135255485773
-0.0141978440806270
-0.132585316896439
0.0826509073376656
0.268065899610519
0.000853747769724578
-0.0833259299397469
0.00199055531993508
-0.00871754437685013
0.0203142836689949
0.0136729227378964
0.146465927362442
0.0463440977036953
-0.147933319211006
0.0702355206012726
0.0884516239166260
-0.0618889592587948
-0.0102816633880138
-0.183143317699432
0.0495108962059021
0.0283691305667162
-0.436385840177536
-0.643181383609772
-0.184918224811554
-0.0130954338237643
0.0655047670006752
-0.0870127379894257
0.136083319783211
0.163532882928848
-0.125869497656822
0.139962404966354
0.618326127529144
0.371574133634567
-0.192773550748825
0.190407544374466
0.0487846359610558
0.0986053347587585
-0.252025395631790
-0.558151006698608
0.316493391990662
1.08237469196320
0.386853367090225
-0.671244263648987
-0.123751737177372
0.116521142423153
0.0776418372988701
0.0942824929952622
-0.0244516413658857
0.265844404697418
0.516264617443085
0.119221650063992
-0.342415869235992
0.140810668468475
0.158342227339745
-0.0982646793127060
0.0454772189259529
0.0697130039334297
-0.189383387565613
-0.380787849426270
-0.209516733884811
-0.0277248099446297
0.125344410538673
-0.0750902444124222
0.0292036719620228
-0.0694244652986527
-0.00545831071212888
-0.0403453260660172
-0.124829404056072
0.0760340690612793
0.0905636847019196
-0.0188246145844460
-0.0476081855595112
0.00959480460733175
0.0308828130364418
-0.0398093387484551
0.0453923828899860
0.166760176420212
0.0467605777084827
-0.0905667990446091
-0.0271652434021235
0.0270262006670237
-0.0120081361383200
-0.0439257286489010
0.109107390046120
-0.0680821314454079
-0.0324614420533180
-0.0552528388798237
0.0915767922997475
0.00787057261914015
-0.0345513522624970
0.0278962869197130
-0.0106822364032269
0.0245680138468742
-0.118827022612095
0.154351264238358
0.0365443006157875
0.0392959304153919
-0.0259051173925400
0.0325754322111607
-0.00382440420798957
0.0105237392708659
-0.00807174481451511
-0.0455091856420040
0.322678595781326
-0.194050818681717
-0.204377546906471
-0.0385381318628788
0.0625165849924088
-0.0105960825458169
-0.0313325300812721
0.0418500304222107
-0.0852334275841713
0.0551068000495434
-0.320652723312378
0.231404989957809
0.220074892044067
-0.180430755019188
0.0270073004066944
-0.0749136731028557
0.159387469291687
0.00271321483887732
-0.195158749818802
-0.232176870107651
0.901145160198212
0.280423045158386
-0.655048191547394
0.00589642953127623
-0.0789922997355461
0.141314074397087
0.0687738582491875
-0.0306358430534601
-0.212154805660248
0.704125285148621
-0.0168992914259434
-0.639749944210053
-0.0126403290778399
-0.0634013339877129
-0.00604242086410523
-0.104297608137131
0.167062938213348
-0.181620702147484
0.176652818918228
-0.144286602735519
0.0397995673120022
0.0362875126302242
0.0323494523763657
0.0719678401947022
-0.107888661324978
0.182461068034172
-0.160626709461212
-0.0314598269760609
-0.174762398004532
0.296914875507355
-0.0370830669999123
-0.0148258246481419
0.0539712272584438
-0.113592378795147
0.124471351504326
-0.0918797925114632
0.176443740725517
-0.0527879148721695
-0.117053523659706
0.0411893837153912
0.0110011789947748
-0.0346928834915161
-0.0491872094571590
0.00580214662477374
-0.0300925765186548
-0.0192015487700701
0.0138078881427646
0.00907026696950197
0.00930062588304281
-0.0744234248995781
-0.0280466843396425
0.0625904574990273
0.186272799968719
0.0483179688453674
-0.0452495701611042
0.0130489459261298
-0.0444087274372578
-0.0883936733007431
0.0880520790815353
0.185420289635658
-0.00436762208119035
-0.143386945128441
-0.118332229554653
0.113812550902367
0.198588982224464
-0.0628588795661926
-0.0433049798011780
0.159663826227188
-0.157461002469063
-0.357005298137665
-0.113927476108074
-0.150362566113472
-0.252536207437515
-0.00944972783327103
0.0136394305154681
0.0809300765395165
0.0709872320294380
-0.210665076971054
0.199397280812264
1.04673898220062
0.755121409893036
-0.141028180718422
-0.129485815763474
0.110774017870426
0.000535500119440258
-0.133182048797607
0.0870798528194428
0.105941519141197
0.0865694582462311
0.210530057549477
0.0162168201059103
-0.0537724010646343
0.0440198779106140
0.00348461326211691
-0.0740506350994110
0.273857504129410
-0.280603587627411
-1.09501016139984
-0.633426666259766
0.0244504008442163
0.0682501122355461
-0.0911493897438049
-0.0279417280107737
-0.0326881371438503
0.106188356876373
0.139760583639145
-0.0850130692124367
0.00935225095599890
0.150224059820175
0.100174732506275
-0.00850490666925907
0.0223826318979263
-0.0106188897043467
-0.169408112764359
0.0810479000210762
0.147551730275154
0.104883730411530
-0.0488300547003746
-0.141207218170166
0.0231771878898144
-0.0406330414116383
0.0175790097564459
-0.0377474427223206
-0.0504952706396580
0.0464780777692795
0.0439452454447746
0.0253990162163973
0.0147293256595731
-0.00382087472826242
0.0181041825562716
0.0103969844058156
-0.0230834688991308
-0.00953804329037666
0.00548921059817076
-0.0451993569731712
-0.0376909859478474
-0.0132614988833666
0.102118685841560
0.0406735949218273
0.0216928254812956
-0.0154613247141242
0.0315077565610409
-0.0515012592077255
-0.215409547090530
-0.189369335770607
-0.113584868609905
0.101854749023914
0.0487520210444927
0.0581250786781311
-0.00354961398988962
0.0594533495604992
-0.0319524817168713
-0.239813059568405
-0.230990305542946
-0.151375979185104
0.0910229161381722
0.00123253744095564
0.0337052047252655
0.0392266288399696
0.172816053032875
0.132155165076256
-0.0199124328792095
-0.0557976029813290
-0.0993557274341583
0.0763354301452637
-0.0174590609967709
-0.00994233600795269
0.0425678677856922
0.208360776305199
0.201669812202454
0.0900713950395584
0.0426933504641056
-0.0677712187170982
0.0102314408868551
0.00756931537762284
-0.0281160734593868
-0.0355536974966526
0.0649812817573547
0.0846791416406632
0.0347570888698101
0.0313084870576859
-0.0156438965350389
0.0263544414192438
-0.0172190256416798
-0.0657351315021515
-0.103492543101311
-0.0662895962595940
-0.0236063152551651
0.0135191092267632
0.0361699312925339
-0.000125567181385122
0.0238381214439869
0.0796613246202469
0.0482123233377934
0.000942355603910983
-0.0230999067425728
-0.0169417820870876
0.0363016016781330
0.0622597411274910
0.000403335056034848
-0.0256943162530661
-0.0225239172577858
-0.0397970378398895
0.0570967495441437
-0.0526417419314384
-0.0780574902892113
0.0688891559839249
0.0473779290914536
-0.0547875724732876
-0.0717535540461540
0.0823915675282478
-0.0247997455298901
0.210384801030159
-0.0298710446804762
-0.246062904596329
-0.135384231805801
0.0625107735395432
0.219635382294655
0.0770178213715553
0.113961361348629
-0.296955406665802
0.00537571730092168
0.0388733595609665
0.121224299073219
0.104901701211929
-0.251103252172470
-0.203041642904282
0.0325485616922379
0.0927217677235603
-0.105572201311588
0.0463606081902981
0.327832698822022
0.824381768703461
0.737601816654205
0.0223669577389956
-0.145520716905594
0.113421939313412
-0.0578122325241566
0.161530628800392
-0.136496663093567
-0.168693035840988
0.0157157573848963
-0.0571505166590214
0.00138147233519703
0.0814673155546188
-0.0196034666150808
-0.164076939225197
0.229577809572220
-0.0744843259453774
-0.523905217647553
-0.895991384983063
-0.815597414970398
-0.0545717850327492
0.164621174335480
-0.144282191991806
-0.0715701505541802
0.0399716645479202
0.211780309677124
0.213768705725670
0.148570626974106
0.170178219676018
0.273439198732376
0.0869747027754784
-0.0504489801824093
0.0916017964482307
-0.159727424383163
-0.0856446027755737
0.0696316882967949
0.187665343284607
0.0902148559689522
-0.156827732920647
-0.195789784193039
0.0790328457951546
-0.0217336602509022
0.0437259897589684
0.000956741278059781
-0.0566368661820889
-0.0487226881086826
-0.0765378847718239
-0.0186822786927223
0.115801207721233
-0.0365266539156437
-0.000786419608630240
-0.0700337812304497
0.0706949159502983
0.103574328124523
0.0122920228168368
0.0104022482410073
0.114563338458538
0.0147908953949809
-0.0903496444225311
0.00478550419211388
0.0533720627427101
0.157036915421486
-0.210851073265076
-0.562799394130707
-0.287523061037064
0.165237173438072
0.134318709373474
-0.0282408781349659
-0.100344918668270
-0.0305280126631260
0.137367531657219
-0.249320432543755
-0.657717168331146
-0.411293953657150
-0.0170973483473063
-0.0266252867877483
-0.0380814597010613
0.0173826087266207
-0.114089660346508
0.124913588166237
0.226639196276665
0.197574332356453
0.200731649994850
0.0389619655907154
-0.127708554267883
0.0416487306356430
0.118535079061985
-0.151408076286316
-0.00145691551733762
0.243293479084969
0.374420464038849
0.385669082403183
0.0857642218470573
-0.149755224585533
0.102994337677956
0.111107729375362
-0.104493662714958
-0.0432788282632828
0.0857611894607544
0.0807807222008705
0.119721032679081
-0.00946812983602285
-0.164960160851479
0.114131405949593
0.0484225489199162
-0.0487241633236408
-0.0533156171441078
0.0125563247129321
0.00490428181365132
0.0111194653436542
-0.0317844785749912
-0.0850057527422905
0.0818827375769615
-0.0299162063747644
0.0692117363214493
0.0123329963535070
-0.0498048663139343
-0.0526565127074719
-0.0103640817105770
0.00796332210302353
0.00881543010473251
-0.0100732175633311
-0.0422078557312489
0.0545344054698944
-0.0376898311078548
-0.0370584465563297
0.0583240352571011
0.0698067024350166
-0.00948565639555454
-0.0163452643901110
-0.0116464113816619
0.0736862942576408
0.0263049267232418
-0.0998077914118767
-0.107605770230293
-0.0816203206777573
-0.0762190073728561
0.0363227091729641
0.0363313518464565
-0.0279984939843416
-0.121369868516922
-0.0679688602685928
0.0290278661996126
0.154185146093369
0.220835566520691
0.166235223412514
0.0826651379466057
-0.0937841609120369
0.0183941386640072
0.0695834606885910
0.171980768442154
0.128983899950981
0.104894146323204
-0.0155520457774401
-0.0840959027409554
0.0314309149980545
-0.207130536437035
-0.0460793115198612
-0.0131966695189476
-0.0183059163391590
-0.354464262723923
-0.267159074544907
-0.0240010432898998
0.0432575941085815
0.209422692656517
-0.0623952895402908
0.0638459622859955
-0.0700408741831780
-0.176229909062386
-0.384263873100281
0.0307783912867308
0.460962563753128
0.373658806085587
0.293223500251770
-0.0235577169805765
0.0958525612950325
0.174682244658470
0.0530557595193386
-0.194486543536186
-0.0273008849471807
0.0105371987447143
-0.198380827903748
-0.0724651515483856
-0.149522647261620
-0.0473838672041893
0.178291961550713
0.162272676825523
-0.194187238812447
-0.282627403736115
-0.199605330824852
-0.189867183566093
0.0440615080296993
0.0358262993395329
0.0190599653869867
-0.0766081586480141
0.0203007590025663
-0.0254289153963327
0.0677951127290726
0.252300590276718
0.225029930472374
0.163406342267990
-0.0167847517877817
-0.0377326607704163
0.0251930188387632
-0.0518403239548206
-0.0514547005295754
0.0716527253389359
-0.00534178409725428
-0.164238050580025
-0.0559296533465385
-0.0416446924209595
0.0299658644944429
-0.0172119569033384
-0.0181170199066401
0.0110585568472743
0.0589361824095249
0.0566746219992638
0.0380781590938568
0.0306640230119228
-0.0182502008974552
-0.0786004588007927
-0.0329026542603970
0.00634522223845124
0.0485225580632687
0.0760654285550118
0.0646929964423180
0.0684551224112511
0.0847883373498917
0.0260192248970270
-0.0629134327173233
-0.0334568917751312
0.0196478459984064
0.0528697781264782
0.0461365170776844
0.0274411998689175
0.0724085494875908
0.116959817707539
0.0585623644292355
-0.0477384626865387
-0.00419541122391820
0.0277585256844759
0.0404408350586891
0.0102634578943253
-0.00238501466810703
0.0606021955609322
0.100374065339565
0.0613217912614346
-0.00716126244515181
-0.00584558583796024
-0.00695046456530690
-0.00749716907739639
-0.0303507875651121
-0.0265851765871048
0.0155138568952680
0.0203414130955935
0.00168452400248498
0.0103373806923628
0.00224063452333212
-0.0214803256094456
-0.0154213886708021
-0.0114500047639012
0.00163506157696247
0.00513642467558384
-0.0437952727079392
-0.0523434355854988
0.0268371179699898
0.0124597586691380
-0.0186014566570520
-0.0254537221044302
-0.0270360223948956
-0.0245636310428381
-0.0436026677489281
-0.105345375835896
-0.0866852626204491
0.0286223646253347
0.0235233698040247
-0.0115594090893865
-0.0506315529346466
-0.0922439098358154
-0.108140669763088
-0.114815779030323
-0.138546377420425
-0.0934036821126938
0.0264619532972574
0.0633901059627533
0.0330071225762367
-0.0193315483629704
-0.0690547153353691
-0.0660246610641480
-0.0338393487036228
-0.0322761312127113
0.00788483209908009
0.0990619957447052
-0.000587209709919989
-0.00123271916527301
0.00163808162324131
0.000307196372887120
-0.000418333831476048
-0.00184141215868294
0.000403455633204430
0.000591801421251148
0.00158389972057194
0.00129967881366611
-0.00199328013695776
-0.00108191848266870
0.000796509790234268
-0.000468386511784047
0.00120362848974764
-0.00111452606506646
-0.000751724117435515
5.64131369173992e-05
-3.09119532175828e-05
-6.77825009915978e-05
-0.00105293525848538
-0.00189880677498877
-0.000844900961965323
0.00111155596096069
3.29493523167912e-05
4.11088467444642e-06
-0.00135701324325055
-0.000249080796493217
-0.00103100773412734
-0.00161323579959571
0.000525046314578503
0.000999539741314948
-0.00166855705901980
-5.58087267563678e-05
-0.00214681285433471
0.000427717168349773
-0.000218943430809304
-0.000151049942360260
8.80745719769038e-05
0.000181132360012271
0.000571785029023886
7.76156302890740e-05
-0.00254306709393859
-0.000918024801649153
-0.00101377384271473
-0.000207625984330662
0.00111992622260004
-0.000133515306515619
0.000261453678831458
-0.00206604250706732
0.000521386682521552
-0.00144652742892504
0.000389059248846024
0.000691801949869841
-0.000346953631378710
0.00186542840674520
-0.000201977847609669
-0.00105383864138275
-0.000867462425958365
-0.00185935955960304
-0.000747930491343141
0.000833466998301446
-0.00141586083918810
0.000221461217734031
-0.00178399065043777
-0.000737781228963286
-0.000800053880084306
3.61958736903034e-05
-0.000195018757949583
-0.000281239539617673
-0.00244805775582790
0.00117630558088422
-0.00174387695733458
0.000289380055619404
0.00150512263644487
-0.00130604847799987
0.000302830158034340
0.000508477154653519
0.000665058090817183
0.000172524742083624
0.000441279669757932
0.00688168499618769
-0.0212689023464918
-0.00860296003520489
-0.0228338912129402
-0.0465086102485657
-0.0614660754799843
-0.0580205358564854
0.0137417614459991
-0.0251585636287928
0.0589042939245701
-0.0523887053132057
-0.0643943473696709
-0.0577910467982292
-0.0203662235289812
0.0122583685442805
-0.0291290283203125
0.0107328388839960
0.00681784329935908
0.0901307985186577
-0.0502484291791916
-0.0319545455276966
-0.00829455628991127
0.0446171425282955
0.115687333047390
0.0298501010984182
0.0335478112101555
0.0449082851409912
0.0605822354555130
-0.0956791415810585
-0.0545153543353081
-0.0408998616039753
-0.0420217812061310
0.00842579733580351
-0.0381593704223633
-0.0211696084588766
-0.0353967845439911
0.0591132752597332
-0.0669161304831505
0.0129839656874537
0.0394756309688091
-0.00595002621412277
-0.00954483728855848
-0.0421236306428909
0.0116728562861681
-0.0228165686130524
0.00655318144708872
-0.0774498283863068
0.0108041204512119
0.0547196827828884
0.0597608871757984
0.0734710544347763
0.00262301671318710
0.0459810644388199
0.0310152303427458
-0.00139884639065713
-0.0780063644051552
-0.0593890398740768
-0.0329686775803566
0.0164181366562843
0.0459168031811714
-0.0414596833288670
-0.0207607001066208
-0.0104962168261409
0.0566214844584465
0.00991083588451147
0.000504621246363968
0.00127879087813199
0.0248170644044876
0.0273023024201393
-0.0430443994700909
-0.0208896528929472
-0.00545236933976412
-0.0303153283894062
-0.00379127659834921
0.0293678604066372
0.0167852751910687
0.0213450659066439
0.0333064384758472
-0.0252000056207180
0.00293602468445897
0.0207637362182140
-0.00742956204339862
0.00361604755744338
-0.0230669900774956
0.0282376669347286
0.0936762243509293
0.0342529974877834
-0.0100902765989304
-0.0311664268374443
-0.0372673794627190
-0.0329165905714035
-0.0161834117025137
-0.0241059642285109
-0.00549975922331214
0.0151427751407027
-0.0101973731070757
-0.00953771080821753
-0.0375694110989571
-0.0388907045125961
-0.0609319992363453
-0.00304058520123363
0.00239884690381587
-0.0589978806674480
-0.101116187870502
-0.0620834343135357
0.0296598058193922
-0.00935939885675907
0.00120654457714409
-0.0290017388761044
-0.00204945518635213
-0.0954530537128449
-0.00222769775427878
0.101804800331593
-0.0180812384933233
-0.0634492859244347
-0.0176847800612450
0.0447981245815754
0.0529463291168213
0.0537470802664757
-0.0889535024762154
0.176187247037888
0.396297037601471
0.0896884202957153
-0.109339810907841
-0.00526134949177504
0.0746022760868073
0.00629682792350650
0.0428291857242584
-0.00922114681452513
0.111676700413227
0.171692326664925
-0.00552613567560911
-0.0518275201320648
-0.0214858260005713
0.00482983514666557
-0.0616901628673077
-0.0276868958026171
-0.0134102962911129
-0.0775721967220306
-0.150919273495674
-0.121290862560272
-0.00225593848153949
-0.0544180832803249
-0.0501643307507038
-0.0273350290954113
-0.0367794707417488
-0.0575873404741287
-0.0663878843188286
-0.0565888546407223
-0.0645726248621941
-0.0316072553396225
-0.0524017550051212
-0.00952783692628145
-0.00764411594718695
-0.0125728305429220
-0.0397599600255489
0.0286198817193508
0.0876821652054787
0.0169923584908247
-0.00441259285435081
0.00253131543286145
0.0173869691789150
-0.110162846744061
-0.0370909981429577
0.146712303161621
0.107306957244873
-0.0158262848854065
-0.00623276596888900
-0.0879632979631424
0.0952946394681931
-0.0452373661100864
0.176285415887833
-0.0553326308727264
-0.194300413131714
-0.158244669437408
0.0158207826316357
0.152747184038162
-0.0738449022173882
0.0566481389105320
0.0106075359508395
0.0767150223255158
-0.0115366503596306
0.153888419270515
-0.0941453054547310
-0.169592961668968
0.150540858507156
-0.114166736602783
0.00613463018089533
-0.0228901635855436
-0.187468856573105
-0.386605024337769
0.521458685398102
0.446648925542831
-0.237204819917679
0.0222534090280533
-0.0189022980630398
0.0475797839462757
-0.0249337460845709
-0.432419598102570
-0.886625528335571
0.423956841230392
0.728449702262878
-0.200968056917191
-0.0323582738637924
0.0707659348845482
0.0659638196229935
-0.0196890570223331
-0.112285941839218
-0.399004876613617
0.421203970909119
0.375729680061340
-0.216331869363785
0.0883105769753456
-0.0298344902694225
-0.000956844305619597
-0.0436767749488354
0.208811849355698
0.0527193620800972
0.0995849817991257
-0.164464190602303
-0.233849063515663
0.193255141377449
-0.0848904103040695
-0.0124542117118835
0.0262047220021486
0.109081953763962
-0.0512697435915470
-0.156798660755157
-0.110481828451157
-0.0204872321337461
0.200776398181915
-0.0604225397109985
0.0171691402792931
-0.0147161614149809
-0.103508248925209
-0.0593791939318180
0.0894475206732750
0.146820321679115
-0.0536819547414780
0.0178690236061811
-0.0974321141839027
0.0798807442188263
-0.0129508068785071
-0.0540643334388733
-0.0151166664436460
0.0230430848896503
0.0497180745005608
0.0802616775035858
-0.0369992814958096
-0.0964278057217598
0.0434513725340366
0.0323173925280571
-0.0161473378539085
-0.0648535192012787
-0.0168877057731152
0.0136158177629113
0.0280217044055462
-0.00678442558273673
-0.0468515418469906
-0.00704972352832556
0.0261491201817989
0.0455944761633873
0.0484310612082481
0.0672881826758385
-0.0240548253059387
-0.0945889875292778
-0.0354195348918438
0.0418114326894283
0.0482511781156063
-0.0275272931903601
-0.00679368292912841
0.0126050254330039
-0.0330969132483006
0.0187745075672865
0.103390075266361
-0.0132825290784240
-0.0624427832663059
0.0583386085927486
-0.0211882069706917
-0.0189312547445297
-0.0184458401054144
-0.104095488786697
0.120345316827297
0.449913471937180
0.183323502540588
-0.119753338396549
0.0327563956379890
0.0256306771188974
-0.0278491582721472
-0.0260258819907904
-0.0344484448432922
0.00432164268568158
0.229202806949615
0.173510015010834
0.00294265872798860
0.0440691299736500
-0.00999223906546831
0.00924112182110548
-0.0388088375329971
0.0642547458410263
-0.0640847012400627
-0.0910165458917618
0.00939614046365023
0.0462899766862392
0.0117319328710437
-0.0253340620547533
0.0933777987957001
-0.0224239956587553
0.0379463583230972
0.0279265437275171
0.0315141491591930
0.0234106667339802
-0.0358681343495846
-0.0678005442023277
-0.0235537756234407
0.0222692266106606
0.0254165641963482
-0.0215107798576355
-0.0164830610156059
0.0554563440382481
0.0232483241707087
-0.0261518880724907
0.0134675102308393
-0.0317154377698898
-0.000422933138906956
-0.00100722815841436
-0.00119299406651407
0.00173180503770709
-0.00126058864407241
-0.000260889326455072
-0.000503609888255596
0.000502431706991047
-0.00115026149433106
-0.000342891347827390
0.00146179599687457
-0.000826991745270789
0.000902839121408761
-0.000360976555384696
0.000335298827849329
0.000445191806647927
-0.00199645850807428
0.000157501272042282
-0.000245886883931235
-0.00141754082869738
0.000245240778895095
0.000979224336333573
-0.00106254289858043
0.00104490527883172
-0.000705004902556539
-0.00126215582713485
0.000715901958756149
0.000491840473841876
0.000963322934694588
-0.000225549461902119
-0.000434032146586105
0.00100828672293574
-0.00114974903408438
-0.000901777297258377
-0.000157515416503884
-0.000390286848414689
-0.000145708021591418
-0.00122139393351972
-9.10437156562693e-05
0.00113124551717192
-0.000936209398787469
-0.00154745555482805
-0.000650909030809999
6.01176034251694e-05
7.20265670679510e-05
0.000904502347111702
0.000263216381426901
0.000352167262462899
0.000903347856365144
-6.86146449879743e-05
-0.000875089084729552
-0.000730673782527447
9.81853954726830e-05
0.000225390089326538
0.000454972527222708
-0.000732886197511107
-0.000900869839824736
-0.000645558116957545
0.000296596641419455
0.000227452779654413
0.000854093872476369
-0.000636601063888520
-0.00142382271587849
6.64813123876229e-05
-0.00112273765262216
0.000332003080984578
0.000410824373830110
-0.000906318193301559
-9.97932147583924e-05
-3.90500827052165e-06
-0.000510465353727341
0.000198432346223854
-0.000112343572254758
-0.000318508362397552
0.000653480878099799
-0.000666213862132281
0.000691431690938771
-0.000218218934605829
1.98100824491121e-05
-1.71494084497681e-05
0.000228533419431187
0.00157712481450289
-0.000739871291443706
0.00149879872333258
-0.00115989614278078
-0.00162371725309640
-3.85784696845803e-05
0.000140234929858707
-0.000186543751624413
3.64795632776804e-05
0.000584953057114035
0.00124462938401848
-0.00126309797633439
0.00158194650430232
-0.00108443864155561
-0.000718202500138432
-0.000111812267277855
-0.00168547523207963
-0.00111490895505995
-0.00119263713713735
-0.00147286825813353
-0.00116598512977362
-0.00124920962844044
-0.000719573523383588
-0.000585772737395018
-0.000886669964529574
-0.00212523015215993
0.00154689361806959
-0.00185426522511989
0.000991400447674096
0.00109645747579634
-0.000693280948325992
-0.00142542971298099
0.00118623650632799
0.000354479561792687
-0.00130158581305295
-0.000166485115187243
-0.00186180195305496
0.00167752301786095
0.000454354361863807
-0.00159781228285283
0.00140612828545272
-0.00194498430937529
-0.00136822089552879
0.000338915036991239
0.000618839403614402
-4.92019171360880e-05
0.00192233012057841
-0.000579062092583627
-0.000811052334029228
0.000200305614271201
-0.00144788960460573
-0.000533464248292148
0.000230213117902167
-0.000684091355651617
-0.000186639328603633
-0.000886499707121402
0.00109257560689002
-0.000291833450319245
0.00148868956603110
-0.000977985560894013
-0.000752310443203896
-0.000460696464870125
0.000352483533788472
-0.000595476652961224
-0.00116324040573090
-0.00156047835480422
0.000106562707514968
-0.00145809480454773
0.000634463038295507
0.000691540248226374
0.000599393562879413
0.000278624705970287
-0.000510023208335042
0.000516367785166949
-0.000431851367466152
0.000239276923821308
0.00114641233813018
0.000440382456872612
0.00147267291322351
-0.000940429279580712
-0.00188587012235075
0.0964067503809929
-0.0992268323898315
-0.0565476119518280
0.000766939483582974
0.121444322168827
0.134908095002174
0.0149876084178686
-0.0876326560974121
-0.00320661207661033
-0.101264901459217
0.0228066425770521
0.222772881388664
0.0998864397406578
-0.205256223678589
-0.224368199706078
0.0822151154279709
0.168442621827126
0.000951998052187264
-0.0342903845012188
0.0798950493335724
-0.131267011165619
-0.306542962789536
-0.174164131283760
-0.147705659270287
-0.183607235550880
-0.120319165289402
-0.0121993906795979
0.139252290129662
0.104553423821926
-0.202288866043091
0.221934184432030
1.11866056919098
1.01813125610352
0.204143151640892
-0.171683758497238
0.171826526522636
-0.0397661663591862
-0.0233962219208479
-0.123493149876595
0.0151453847065568
0.303802371025085
0.134809210896492
-0.100313000380993
-0.0893833190202713
-0.0241013206541538
-0.0620439685881138
0.00507758511230350
0.219157069921494
-0.293086916208267
-0.809150576591492
-0.833313345909119
-0.278239190578461
0.283663749694824
-0.0640942081809044
-0.0106201879680157
-0.0814642161130905
0.324423789978027
0.0843123272061348
-0.261236757040024
-0.232477679848671
0.0748616307973862
0.279858171939850
-0.0846489667892456
0.0508974120020866
-0.157166689634323
-0.0717316716909409
0.0275544635951519
0.0206348411738873
0.0637298077344894
0.0773351192474365
-0.0956174507737160
-0.105564720928669
-0.0110060824081302
0.0621334053575993
-0.0516152456402779
0.0110997883602977
0.0258693229407072
0.0399025827646256
0.0187051463872194
-0.111336231231689
0.105581156909466
-0.000835710146930069
0.0752545371651650
-0.0175859630107880
-0.0957844555377960
0.0781462043523789
0.0716215074062347
-0.101303577423096
0.0152702294290066
0.0455028265714645
-0.0398230999708176
-0.00223680771887302
-0.0137023022398353
-0.0292777679860592
0.0491902977228165
0.0447173304855824
-0.0295499116182327
0.0236341431736946
-0.0695587620139122
-0.0330966599285603
0.0491994842886925
0.0447581522166729
-0.0253511201590300
-0.0303631518036127
-0.000837952422443777
0.0239406973123550
0.0533422976732254
-0.00218409462831914
-0.0113701932132244
0.0582231581211090
-0.0452244840562344
-0.0992070809006691
-0.0888790413737297
-0.106551110744476
-0.0773653686046600
-0.0862171575427055
0.0584424138069153
0.0424057431519032
0.0126263704150915
-0.101042367517948
0.123974390327930
0.232103720307350
0.118277847766876
0.114327214658260
-0.0818833336234093
0.0815869942307472
0.0813815295696259
-0.0277584549039602
-0.117044039070606
0.212317541241646
0.505628108978272
0.396951705217361
0.223636984825134
-0.0958932191133499
-0.0227854382246733
0.0195291601121426
-0.0556051693856716
-0.0194616876542568
0.0572513453662396
0.202715367078781
0.150238230824471
0.0258630048483610
-0.0554164201021194
0.00524619035422802
-0.0496850945055485
-0.0567508041858673
0.125177964568138
-0.146595686674118
-0.617251634597778
-0.618652939796448
-0.196290090680122
0.0726377442479134
0.00540253613144159
-0.0239759515970945
-0.0714202225208283
0.261138975620270
0.105738416314125
-0.483245700597763
-0.394986540079117
0.183629184961319
0.252841532230377
-0.154341921210289
-0.000322657171636820
0.000756098481360823
0.00105385342612863
-0.000233243481488898
-0.000324021035339683
-0.000960199104156345
0.000451341824373230
-0.00136894464958459
-0.00160791666712612
-0.000777062319684774
0.000671956513542682
-0.00113646825775504
3.66623453373904e-06
-0.00106903701089323
0.00151911284774542
0.000248802360147238
-0.00146099959965795
0.000831158307846636
-0.00159033876843750
-0.00183745706453919
0.000342696293955669
-0.000773064850363880
-0.00127700995653868
0.000833337369840592
-0.00149230391252786
0.00221742433495820
-0.000374249357264489
-0.000817939464468509
0.00180433643981814
0.000523130176588893
-0.000965272425673902
0.000721119344234467
-0.000614390301052481
0.000452164182206616
0.000791236758232117
-0.000267158378846943
-0.000276904698694125
0.000484254298498854
-0.000390877656172961
0.000703553610946983
-0.00130419246852398
-0.000469473394332454
0.000471370294690132
0.000520550820510835
-0.00109290960244834
-0.000585751316975802
1.93228097487008e-05
8.06535317678936e-05
0.000653692579362541
0.000521593203302473
-0.00167488888837397
-0.000738228147383779
-0.000293092423817143
-0.000736700196284801
-0.00126642477698624
-0.000765538658015430
-0.00147974269930273
-0.00167614733800292
-0.000925432541407645
0.000673405127599835
-0.000597875856328756
0.00108190707396716
-0.000130936023197137
4.87153411086183e-05
0.000659978191833943
-0.00136376696173102
0.000865758338477463
-0.000259382708463818
-0.000683604390360415
-0.000216242828173563
0.000249743810854852
-0.000186764824320562
-0.000733507331460714
0.000928378023672849
-0.00134438322857022
-0.000157284433953464
-0.00164468376897275
-2.76361515716417e-05
-0.000156367663294077
-0.000398290139855817
0.000524104747455567
0.0244364291429520
0.0241949614137411
0.0984502062201500
0.0587847232818604
-0.0657656639814377
-0.0806267112493515
-0.0209265369921923
0.0160687472671270
-0.00635071098804474
-0.0414602681994438
-0.0592713095247746
0.0416042096912861
0.0347562581300736
0.0119284112006426
0.0250212103128433
0.0101050101220608
0.0154375545680523
-0.0680253729224205
-0.0119690466672182
-0.0275037102401257
-0.0126081164926291
-0.156064614653587
-0.101080462336540
0.0182170979678631
0.0323677994310856
0.128646507859230
0.0272006634622812
0.0527983941137791
0.0800148695707321
0.0509278215467930
-0.241731911897659
-0.203294545412064
-0.0350049249827862
-0.0269913822412491
0.132660105824471
0.0165741853415966
-0.0598454810678959
0.0359626896679401
0.0783270597457886
-0.193865180015564
-0.0967660397291184
0.0898854732513428
0.0237359255552292
0.124374687671661
-0.0517351254820824
-0.105496518313885
-0.00141558551695198
0.0489212684333324
-0.174007937312126
0.00107298977673054
0.240696534514427
0.137554153800011
0.163454473018646
-0.0323636531829834
-0.0252579916268587
0.0404965206980705
0.0600686483085156
-0.148975938558579
-0.0320329926908016
0.167168363928795
0.0653460770845413
0.0611649416387081
-0.0775703117251396
-0.00299301999621093
0.0248566847294569
0.0586446523666382
-0.0710028335452080
-0.0228154882788658
0.0584233589470387
-0.0620267465710640
-0.0795102491974831
-0.128910183906555
-0.0361713878810406
-0.0362242422997952
0.0146953584626317
-0.0100166322663426
0.0619646087288857
0.118861600756645
0.0149199916049838
0.0100488746538758
0.00471836933866143
-0.0174925625324249
-0.0437330603599548
-0.0551376119256020
0.144433736801147
0.177316561341286
0.0229492560029030
-0.107995793223381
-0.0771294459700584
0.0308360196650028
0.0205351840704680
0.0401009134948254
-0.0791071951389313
-0.187105029821396
-0.159473538398743
0.0372590720653534
0.160943523049355
0.123375870287418
-0.0507156029343605
-0.00168275332543999
-0.0499795898795128
0.261207759380341
0.224998727440834
-0.183255091309547
-0.300310164690018
-0.0810789093375206
0.185180172324181
-0.170782998204231
0.117131754755974
-0.288540840148926
0.156924769282341
0.455450773239136
0.269798249006271
-0.0205457359552383
-0.246085390448570
0.114515848457813
-0.0373779349029064
0.0706931427121162
-0.392139881849289
-0.404156416654587
-0.122406996786594
0.323594689369202
0.425166189670563
-0.260971724987030
-0.190217256546021
0.188052758574486
0.0915807560086250
0.152823805809021
-0.395036429166794
-0.693532109260559
0.164373025298119
0.819073021411896
0.0575127378106117
-0.198239177465439
0.196752145886421
-0.0207444541156292
0.424150526523590
-0.0312182009220123
-0.761034667491913
-0.303288847208023
0.211324125528336
-0.101805873215199
-0.0476888529956341
-0.0622343085706234
-0.0894541069865227
0.255399078130722
0.434270262718201
0.143675044178963
-0.0182534754276276
-0.176320329308510
-0.181228086352348
0.191924527287483
-0.0205937810242176
0.00199713697656989
-0.0898329466581345
-0.0984190404415131
-0.123392932116985
0.0394940599799156
0.101644672453403
0.00735553307458758
0.0714381411671639
-0.0709816068410873
0.0166365560144186
0.0147178536280990
0.0137877184897661
0.0135645326226950
0.0102923177182674
0.00842346809804440
0.00694350758567452
0.00677028950303793
-0.00227285805158317
0.0149383749812841
0.0138244973495603
0.0116739487275481
0.00906973239034414
0.00335595384240150
0.00350530724972487
0.00398730067536235
0.00325710163451731
-0.000181140640052035
0.0145165519788861
0.0110236350446939
0.00711809983476996
-0.00275685940869153
-0.00751567305997014
-0.00845390651375055
-0.00723924161866307
-0.00512156356126070
-0.00630370667204261
0.0129895024001598
0.00975996162742376
0.00326356664299965
-0.00829268526285887
-0.0161872413009405
-0.0167163591831923
-0.0136734917759895
-0.00917508639395237
-0.00977612379938364
0.0118967359885573
0.00765345618128777
-0.00535135529935360
-0.0123239634558558
-0.0191759243607521
-0.0199903398752213
-0.0145231187343597
-0.0116582103073597
-0.0112284189090133
0.00848750025033951
0.00163926079403609
-0.00485033961012960
-0.0148113751783967
-0.0170054920017719
-0.0139794498682022
-0.0115686496719718
-0.00829320680350065
-0.00820070505142212
0.00885324832051992
0.00252928049303591
-0.00188826117664576
-0.00896664522588253
-0.0109669025987387
-0.00851156190037727
-0.00635468401014805
-0.00636489596217871
-0.00544406753033400
0.00733378343284130
0.00350167346186936
-0.00360675202682614
-0.00695157935842872
-0.00944678205996752
-0.00568749103695154
-0.00439217360690236
-0.00635943701490760
-0.00669154711067677
0.00622143782675266
0.00191014434676617
-0.000613252574112266
-0.00353063503280282
-0.00515219662338495
-0.00400994904339314
-0.00518228253349662
-0.00358478096313775
-0.00326799508184195
0.0474775433540344
0.00526850996538997
0.0221026353538036
0.0129943313077092
-0.0149038815870881
-0.0405147634446621
-0.0245513524860144
0.0347741730511189
0.0264771748334169
0.0439756549894810
-0.0637151226401329
-0.0238102432340384
-0.0168469753116369
-0.000403038749936968
0.0238617826253176
-0.00104820413980633
0.0170395839959383
0.0240311603993177
0.00188074877951294
-0.0624065138399601
0.0463317744433880
0.0289416499435902
0.00397334061563015
0.0416155159473419
-0.0298017468303442
-0.0138608254492283
-0.00258377729915082
0.00530965905636549
-0.0166860874742270
0.0727632418274880
0.0239341165870428
0.00423544645309448
0.0448506698012352
-0.0267960634082556
0.0284887161105871
0.00578271318227053
-0.00791269354522228
-0.0136867500841618
0.0491203255951405
-0.0198742859065533
0.0243638679385185
0.0883907005190849
-0.0118595762178302
0.0598708689212799
0.0191737767308950
-0.0215237643569708
-0.0375591143965721
0.0581009387969971
-0.00390963582322002
0.0310603287070990
0.0838128179311752
-0.0439274348318577
0.00549112539738417
-0.0213533286005259
0.0562383048236370
-0.00773620139807463
0.0467034503817558
0.0121198659762740
0.0118502983823419
0.0200223047286272
-0.0893017649650574
-0.0791177749633789
-0.0867999419569969
0.0656021311879158
-0.00421672780066729
0.00361635209992528
-0.0364462025463581
-0.0406317822635174
-0.0367860607802868
-0.133368223905563
-0.134507253766060
-0.104039229452610
-0.0191358774900436
0.0178047623485327
0.0562892034649849
-0.0223141591995955
-0.0379794538021088
0.000405544822569937
-0.0612298548221588
-0.0242200829088688
0.0502881892025471
-0.00239308900199831
-0.00120446807704866
-0.000189778860658407
-0.00309064425528049
9.44982530199923e-05
0.000502854061778635
7.68888421589509e-05
-0.000641485909000039
0.00169540185015649
-0.000422236887970939
-0.000936063355766237
-0.00163058773614466
-0.000825082650408149
-0.000134409419842996
0.000689934997353703
-0.000961996614933014
0.000435354391811416
-0.000892350799404085
-0.00121518527157605
0.00123172393068671
-0.00126122916117311
0.00110116600990295
0.00152000575326383
-0.000173922133399174
-0.000503309362102300
-0.00125397788360715
-0.000610842544119805
0.000854017562232912
0.00105856254231185
0.000351866852724925
-0.000781751703470945
0.000297706981655210
0.000139476222102530
-0.000545446120668203
-0.000741860829293728
0.00150559481699020
0.000345091626513749
-8.19996639620513e-05
0.00262578506954014
0.000884772860445082
0.00303766713477671
0.00212044711224735
-0.00235318439081311
-0.00224691187031567
-0.00243448722176254
-0.000733600230887532
0.000663412560243160
0.000824676244519651
0.00157892750576139
0.000154538458446041
0.00226356182247400
0.000685165112372488
-0.000333901814883575
-0.000268762058112770
0.00115885853301734
-0.000195249551325105
-0.000684481870848686
-0.000375715666450560
0.00186844810377806
0.00187187059782445
-0.000197091474547051
0.000537653802894056
-0.00124313996639103
0.00156349909957498
-0.00202449131757021
-0.00164631521329284
0.000815976411104202
1.79721189397242e-06
0.00149782735388726
0.000162490803631954
0.000279767875326797
-0.00228213029913604
-0.000938943529035896
-0.000204922791454010
-0.00153932184912264
-5.11562848259928e-06
0.000427435705205426
0.000318042089929804
0.000425188132794574
-6.12643998465501e-05
-0.000991955981589854
0.0529920235276222
-0.0334907732903957
-0.0264101121574640
0.0620253980159760
0.157569631934166
0.0460771918296814
-0.0547164902091026
0.0401515066623688
0.00467881886288524
-0.0743563622236252
-0.120115675032139
0.0152619555592537
0.0353617332875729
0.00689443061128259
0.0195209123194218
-0.0541467480361462
-0.105407230556011
-0.0361640490591526
-0.00828507449477911
0.0603322908282280
0.0650975853204727
-0.0896404534578323
-0.196336671710014
-0.0516221597790718
0.0622446574270725
0.0277491435408592
-0.0273600183427334
0.131706088781357
0.0699415132403374
-0.228028923273087
-0.0370125249028206
0.166603922843933
-0.0416358038783073
-0.0977289602160454
0.106429688632488
0.0395157597959042
0.172434777021408
0.0844118371605873
-0.255442500114441
0.247858807444572
0.736352205276489
0.152997344732285
-0.246558234095573
0.0582545958459377
0.0870333239436150
-0.0102115431800485
0.0318707823753357
-0.0707260146737099
0.0668606385588646
0.327632576227188
0.0974798873066902
-0.0663675591349602
0.0203476585447788
-0.0457698628306389
-0.0739086717367172
-0.0529423505067825
0.0527880378067493
-0.151433512568474
-0.188017934560776
-0.0134253939613700
0.122312597930431
-0.0101894801482558
-0.0369039773941040
0.0193403530865908
-0.0750364735722542
0.0193640366196632
0.0108358850702643
0.0435456074774265
0.0412958450615406
-0.0340036153793335
-0.119431860744953
0.0923340618610382
0.00679891090840101
-0.0229714959859848
-0.0452811494469643
0.0792874097824097
0.166606873273850
0.0357195399701595
-0.0312898345291615
-0.0167383588850498
0.0353821180760860
-0.123417571187019
-0.0261953305453062
0.0628974884748459
0.0263164620846510
0.112253218889236
-0.0144434496760368
-0.0467430837452412
0.0481646955013275
0.00432045292109251
0.127664431929588
-0.00421576621010900
0.0147088523954153
-0.166601821780205
-0.0368163809180260
0.0384488739073277
-0.0187835544347763
0.0169404633343220
-0.0473930500447750
0.207119211554527
-0.125236138701439
0.0645410716533661
-0.131213456392288
-0.0951201021671295
0.0438375212252140
-0.0104824574664235
0.0206703711301088
-0.00961182918399572
-0.240471690893173
-0.425093531608582
0.410784155130386
0.323877811431885
0.0191054083406925
-0.00870778225362301
-0.0448765940964222
0.0373871102929115
0.0401436761021614
-0.562634944915772
-0.657761096954346
0.512501358985901
0.547579169273377
0.122933268547058
-0.0144814169034362
-0.0480364635586739
0.0161303430795670
-0.0396217890083790
-0.156430512666702
-0.378697097301483
0.321251124143600
0.198075950145721
-0.00546146323904395
0.0330880805850029
-0.000548486772459000
0.0138939935714006
-0.0114054325968027
0.225499376654625
-0.0258484855294228
0.110783375799656
-0.217006132006645
-0.142973780632019
0.0846568420529366
0.0120792938396335
-0.0232172161340714
0.0265560485422611
0.113084688782692
-0.0325820408761501
0.0235955733805895
-0.192964628338814
-0.0317818820476532
0.0944667607545853
-0.00514700124040246
-0.0544253326952457
-0.0142123671248555
-0.103189736604691
-0.0791974291205406
0.0856226161122322
0.0343003980815411
0.0981835946440697
-0.0351415313780308
-0.0338943637907505
0.0450347810983658
0.0149672757834196
0.0163957066833973
-0.00624724896624684
-0.0284915082156658
0.0294532664120197
0.0739550888538361
0.0282582845538855
-0.00461819022893906
-0.0338018350303173
-0.0593719929456711
0.00366378133185208
0.000445125915575773
-0.0143633633852005
0.0172725096344948
0.0382397361099720
0.00789683405309916
-0.0117042474448681
-0.0488718934357166
-0.0556224733591080
-0.00731281796470285
0.0146437613293529
-0.0174346901476383
-0.0351885333657265
-0.0383996479213238
-0.0339254960417748
0.00164762593340129
-0.0366509445011616
-0.0110975475981832
0.0451994724571705
0.00848100613802671
-0.153427004814148
-0.0182514805346727
0.116626523435116
-0.0398133136332035
-0.110730610787869
-0.0388097353279591
0.0441241264343262
0.121828749775887
0.0489258728921413
-0.163411289453506
0.113759756088257
0.338227599859238
0.0310636647045612
-0.153451666235924
-0.0263059437274933
0.0732697322964668
0.0338122770190239
0.0152884088456631
-0.0760053396224976
0.0669131800532341
0.156562209129334
-0.00571890547871590
-0.0851958319544792
-0.0810376554727554
-0.0181707069277763
-0.0335024222731590
-0.0339460931718349
-0.0223764125257731
-0.0286410357803106
-0.0467219762504101
-0.0193192940205336
-0.00245920335873961
-0.135872811079025
-0.0768458843231201
0.0178860798478127
-0.0221712943166494
-0.0259822960942984
0.0209347046911716
0.0699252635240555
0.0674961805343628
0.00512209674343467
-0.105701677501202
-0.0250364169478416
-0.00624987017363310
-0.0442745685577393
-0.0446533709764481
0.0434457585215569
0.108253888785839
0.0781030282378197
0.0217452738434076
-0.0551025234162807
-0.0164035875350237
0.00653972802683711
-0.0366326384246349
-0.0418880321085453
0.0182853955775499
0.0863138660788536
0.0457652732729912
-0.0357467271387577
-0.0281226076185703
-0.00256579415872693
-0.0129472073167562
-0.0953003391623497
-0.0415822081267834
0.00811799056828022
0.0197435300797224
0.0312613211572170
-0.0191958025097847
-0.0499658994376659
-0.0119230197742581
0.0243033021688461
0.00877042394131422
0.0297226365655661
-0.0255324337631464
-0.0625469163060188
0.0122926170006394
0.0366496481001377
0.0375051833689213
0.0379874035716057
0.0137726217508316
0.0244676358997822
-0.0175024177879095
-0.0179937928915024
0.0256885550916195
0.00980710424482822
-0.0307474080473185
0.0346919447183609
0.0266495253890753
-0.00309375207871199
0.00860126316547394
-0.0124044017866254
0.0852546989917755
0.194033131003380
0.0778220519423485
-0.0696971789002419
-0.0170092210173607
-0.0342178121209145
-0.000431083200965077
0.0140730086714029
0.0439306981861591
0.0464811585843563
0.0632879361510277
0.0325956009328365
-0.0189605578780174
-0.0126218013465405
-0.0524205900728703
0.0390133969485760
-0.00199223193340004
0.0577452704310417
-0.00312556908465922
-0.0671173334121704
-0.00985948648303747
0.0241570826619864
-0.00140524713788182
0.000664830557070673
0.0440569594502449
-0.0517416112124920
-0.0123738776892424
0.0418885461986065
0.0365543439984322
0.0321674123406410
-0.00277959462255240
-0.0488951466977596
-0.00992175750434399
0.0141553310677409
-0.00649200333282352
0.00723347300663590
0.0884828567504883
0.0976932793855667
0.0573647655546665
0.0338840670883656
-0.0154920527711511
-0.0777312070131302
0.00961379706859589
0.0329594686627388
0.0276003722101450
0.0332483723759651
0.0378918871283531
-0.0114271678030491
-0.0356648936867714
0.00606492580845952
0.00291320122778416
0.0503646545112133
-0.0307810921221972
-0.0276717096567154
-0.00270378333516419
0.0119363032281399
0.0128380665555596
-0.0151579380035400
0.0264985281974077
0.0137163409963250
-0.00554240588098764
-0.0793201625347138
0.00405682669952512
-0.0139027070254087
-0.00285184080712497
0.0570297762751579
-0.0314324051141739
0.00800251029431820
0.00717573333531618
0.0103643257170916
-0.0540269576013088
0.0790919363498688
0.0400837846100330
-0.0102460356429219
0.0458096414804459
-0.0447077788412571
0.0251633562147617
-0.0130617246031761
0.0192743167281151
-0.0432988144457340
0.131122455000877
0.110010132193565
0.0369929224252701
0.0677564367651939
-0.0249467883259058
0.0551100671291351
-0.0371514149010181
-0.0239914003759623
-0.105245955288410
0.0774367675185204
0.0609097182750702
0.0733290761709213
0.154340043663979
0.000976882292889059
0.0550926402211189
-0.00299267028458416
0.0143797295168042
-0.120713271200657
-0.0375622473657131
-0.0372918210923672
0.0506659820675850
0.155273780226707
-5.29085518792272e-05
0.0488149896264076
0.0365132130682468
0.0261696875095367
-0.117396630346775
-0.132222756743431
-0.132033482193947
-0.0621630400419235
-0.00216158176772296
-0.0668604671955109
0.0257005654275417
-0.00703007029369474
-0.0205848012119532
-0.0389998182654381
-0.0580966994166374
-0.116826541721821
-0.110153846442699
-0.0836047753691673
-0.0754535421729088
0.0430788397789001
-0.0297213848680258
-0.0296633839607239
-0.0222787316888571
-0.0314949527382851
-0.00874353758990765
-0.0267501156777143
0.0344991311430931
0.0130394864827394
0.00636142259463668
-0.0501005016267300
-0.0522431246936321
-0.00108597951475531
0.00518387928605080
-0.0464688539505005
-0.120710618793964
-0.0628536343574524
-0.104486890137196
-0.0561880320310593
-0.0109525471925735
0.0106672588735819
0.0187954809516668
-0.0269025322049856
-0.0812696218490601
-0.0389860756695271
0.0717211142182350
-0.0951595306396484
-0.0931760296225548
0.0296182278543711
0.0363390669226646
-0.0154363466426730
-0.0981025546789169
-0.0658605024218559
0.209909498691559
0.388107597827911
0.0307237338274717
-0.0809344723820686
0.0622628331184387
0.0425423160195351
-0.0538445934653282
-0.108328998088837
-0.0789722502231598
0.138679191470146
0.281933844089508
-0.0624417476356030
-0.151386886835098
0.00224986788816750
0.0188252460211515
-0.0189051087945700
0.0239750426262617
-0.0393053106963635
-0.0918119922280312
0.00153939973097295
-0.112085007131100
-0.0970734804868698
-0.0214559305459261
-0.0645328015089035
-0.0409250743687153
0.0446432940661907
-0.0294586233794689
-0.148225814104080
-0.0292749367654324
-0.0223627313971519
0.00757349608466029
-0.0168537553399801
-0.0189049728214741
-0.0537236258387566
-0.0251586139202118
-0.0300086773931980
-0.0547340959310532
0.0414471030235291
0.00268433964811265
-0.00503084482625127
-0.0182797107845545
0.0251291375607252
-0.0393116772174835
-0.0489575676620007
0.0252393316477537
0.0262305233627558
0.0495517849922180
-0.0193023830652237
-0.0604245252907276
-0.0320558845996857
0.0106811616569757
0.0364157259464264
-0.0392227321863174
-0.0288606844842434
0.0856011137366295
0.000338213430950418
-0.0479870773851872
0.0482796318829060
0.0236546620726585
-0.0406826883554459
-0.0301119610667229
-0.0141514306887984
-0.000953314884100109
0.0387443937361240
0.0263006277382374
-0.0126413907855749
-0.0647905468940735
0.0101682543754578
-0.0814293250441551
0.0575213767588139
0.0554678551852703
-0.0165372584015131
-0.0833588391542435
-0.0396356135606766
0.0549369715154171
-0.0533189922571182
-0.0714703276753426
-0.0266133975237608
0.105371862649918
-0.0832739993929863
0.0667788535356522
0.218979224562645
0.00463382946327329
-0.0481663197278976
0.00512180244550109
0.0147338649258018
0.0339025445282459
0.108942143619061
-0.173665836453438
0.174436092376709
0.558262228965759
0.147225126624107
-0.138428211212158
-0.00592664629220963
0.105162225663662
-0.0354129932820797
0.0650435909628868
-0.0689517632126808
0.0230476018041372
0.220323517918587
0.0720093175768852
-0.00258410954847932
-0.00534755224362016
0.00694012409076095
-0.0480976514518261
0.0352057777345181
0.0679447799921036
-0.0750808939337730
-0.122292920947075
-0.0363304689526558
0.116573259234428
0.00834371894598007
-0.00396488420665264
0.0112496735528111
0.0190347693860531
0.0436370708048344
-0.00356045342050493
-0.00208715465851128
-0.0104821575805545
-0.00484062032774091
-0.0753228291869164
0.0215757265686989
-0.00877240486443043
0.0575093105435371
-0.00969885662198067
-0.0374938547611237
0.00272844778373837
-0.0378513224422932
-0.00542028015479446
0.0232967175543308
0.0196273922920227
0.0168006811290979
-0.105713762342930
-0.0801349654793739
-0.00801213365048170
0.0199244748800993
-0.0737387910485268
-0.106030367314816
-0.0139300255104899
0.0143058691173792
-0.0281893368810415
0.206579342484474
0.228426471352577
-0.0151415057480335
0.0587473884224892
0.234094649553299
0.137063086032867
0.0113161606714129
0.0248360671103001
-0.0727659389376640
0.235027641057968
-0.142661198973656
-0.949452757835388
-0.717427730560303
-0.0106055280193686
0.0887712761759758
-0.0383900627493858
-0.0893815979361534
-0.0377417951822281
0.138960018754005
0.0100185666233301
-0.213186234235764
-0.0345881432294846
0.0793455839157105
0.00566121982410550
0.0829395651817322
0.00961924530565739
-0.0141360666602850
0.00891587417572737
0.147254839539528
0.405489087104797
0.448017388582230
0.0875640586018562
-0.127715393900871
0.0778680369257927
0.0224361829459667
-0.0402352996170521
-0.0802522376179695
-0.121582366526127
-0.192983269691467
-0.159126654267311
-0.136205554008484
-0.154914274811745
-0.0105695156380534
-0.0155863761901855
0.0535733029246330
0.0834370777010918
0.104557149112225
-0.00286602415144444
-0.00321753788739443
0.109191596508026
0.108028896152973
0.0627043992280960
0.0213954951614141
-0.0216852352023125
-0.0720570683479309
-0.00111120124347508
0.0282151922583580
0.0249946136027575
0.0249085929244757
-0.0121052637696266
-0.0264035575091839
-0.0477686710655689
0.0477819293737412
-0.0329781882464886
0.0352522954344749
0.0518887601792812
0.0153853008523583
-0.0272404290735722
-0.0463972426950932
0.0261291190981865
0.0290936511009932
-0.0957631319761276
0.0541659854352474
-0.0135576240718365
0.0152016775682569
0.0955915004014969
0.0205982383340597
0.0160781852900982
0.0214349497109652
-0.0495853275060654
0.124256618320942
0.250339537858963
0.0960527881979942
-0.125606015324593
-0.121072001755238
-0.0865898206830025
-0.0746359452605248
-0.0519057102501392
0.00203072489239275
0.0207020919770002
0.0728675946593285
-0.129964932799339
-0.366947203874588
-0.169122904539108
0.112696565687656
0.0779869481921196
-0.0222895126789808
0.0856456384062767
-0.0297673121094704
-0.165530100464821
-0.302142471075058
-0.255143761634827
0.140047758817673
0.369047909975052
0.115687273442745
-0.101495787501335
0.0975079461932182
0.0990606844425201
-0.142151609063149
-0.129321947693825
0.0498396381735802
0.274767905473709
0.270837962627411
-0.0245050005614758
-0.184214159846306
0.0954743325710297
0.0318052992224693
-0.125756934285164
0.133567124605179
0.302222311496735
0.167736440896988
-0.0328373275697231
-0.153765052556992
-0.201357066631317
-0.00221084337681532
0.00741058075800538
-0.108092553913593
0.127873808145523
0.215879559516907
-0.0237713847309351
-0.198205828666687
-0.0527607239782810
-0.00103609915822744
0.00254411087371409
0.0691295117139816
-0.0378943681716919
-0.0650193020701408
-0.0771058723330498
-0.138793557882309
-0.182066649198532
0.0516234822571278
0.149675488471985
0.0340019427239895
-0.0717711374163628
0.0344212502241135
0.0435716100037098
0.0860679075121880
0.0963755622506142
-0.0766470059752464
-0.00319404155015945
0.0816049501299858
-0.0947907492518425
-0.0568864420056343
-0.0104700066149235
0.00122080952860415
-0.00212126434780657
0.0296344067901373
-0.0222297534346581
-0.0237869191914797
0.0665898770093918
0.0659833177924156
0.0128908576443791
0.0444435663521290
0.0635512098670006
0.0732529237866402
0.0808156803250313
-0.0101955141872168
-0.0959360525012016
-0.0416669063270092
0.00864855572581291
-0.0603089071810246
0.0126279806718230
0.0747781544923782
0.0751121193170548
0.0709415227174759
0.0252321884036064
-0.109324157238007
-0.114840723574162
-0.0248172599822283
-0.0700998380780220
-0.0190329980105162
0.111572444438934
0.100103370845318
0.0233964435756207
0.0863046720623970
0.0435544215142727
-0.0124806119129062
0.00603908160701394
-0.0136175854131579
-0.116506263613701
